~o
<STREAMINFO> 1 12
<VECSIZE> 12<NULLD><MFCC><DIAGC>
~h "@"
<BEGINHMM>
<NUMSTATES> 5
<STATE> 2
<NUMMIXES> 3
<MIXTURE> 1 2.500000e-01
<MEAN> 12
 8.791357e-01 6.594126e-01 4.007248e+00 -3.555932e-01 -5.331050e+00 -9.708812e+00 -1.422309e+01 -4.809365e+00 1.281617e+00 7.183793e+00 7.285567e+00 -5.247260e+00
<VARIANCE> 12
 7.155595e+00 5.412543e+01 2.424477e+01 3.523247e+01 3.334069e+01 6.539143e+01 4.023353e+01 4.582485e+01 2.652633e+01 6.026859e+01 3.353289e+01 3.261852e+01
<GCONST> 6.434495e+01
<MIXTURE> 2 5.000000e-01
<MEAN> 12
 -7.258610e-01 -3.754787e+00 1.052909e+00 -3.917010e+00 -8.795534e+00 -1.456071e+01 -1.802889e+01 -8.871008e+00 -1.808606e+00 2.525822e+00 3.811112e+00 -8.674018e+00
<VARIANCE> 12
 7.155595e+00 5.412543e+01 2.424477e+01 3.523247e+01 3.334069e+01 6.539143e+01 4.023353e+01 4.582485e+01 2.652633e+01 6.026859e+01 3.353289e+01 3.261852e+01
<GCONST> 6.434495e+01
<MIXTURE> 3 2.500000e-01
<MEAN> 12
 -1.908621e-01 -2.283387e+00 2.037689e+00 -2.729871e+00 -7.640706e+00 -1.294341e+01 -1.676029e+01 -7.517127e+00 -7.785320e-01 4.078479e+00 4.969264e+00 -7.531765e+00
<VARIANCE> 12
 7.155595e+00 5.412543e+01 2.424477e+01 3.523247e+01 3.334069e+01 6.539143e+01 4.023353e+01 4.582485e+01 2.652633e+01 6.026859e+01 3.353289e+01 3.261852e+01
<GCONST> 6.434495e+01
<STATE> 3
<NUMMIXES> 3
<MIXTURE> 1 2.500000e-01
<MEAN> 12
 2.484591e+00 -1.645889e+01 6.431283e+00 -1.589979e+00 -1.929150e+01 -4.856234e+00 -1.457321e+01 -9.626554e+00 5.099327e+00 1.159885e+00 6.288179e+00 4.968244e+00
<VARIANCE> 12
 7.142910e+00 1.726761e+02 2.035362e+01 2.146680e+01 9.988885e+01 3.397879e+01 4.307139e+01 4.162466e+01 4.150187e+01 4.841139e+01 4.635683e+01 4.451300e+01
<GCONST> 6.611080e+01
<MIXTURE> 2 5.000000e-01
<MEAN> 12
 8.810176e-01 -2.434327e+01 3.724383e+00 -4.369915e+00 -2.528817e+01 -8.353714e+00 -1.851094e+01 -1.349758e+01 1.234010e+00 -3.014813e+00 2.203028e+00 9.651597e-01
<VARIANCE> 12
 7.142910e+00 1.726761e+02 2.035362e+01 2.146680e+01 9.988885e+01 3.397879e+01 4.307139e+01 4.162466e+01 4.150187e+01 4.841139e+01 4.635683e+01 4.451300e+01
<GCONST> 6.611080e+01
<MIXTURE> 3 2.500000e-01
<MEAN> 12
 1.415542e+00 -2.171514e+01 4.626683e+00 -3.443270e+00 -2.328928e+01 -7.187887e+00 -1.719836e+01 -1.220724e+01 2.522449e+00 -1.623247e+00 3.564745e+00 2.299521e+00
<VARIANCE> 12
 7.142910e+00 1.726761e+02 2.035362e+01 2.146680e+01 9.988885e+01 3.397879e+01 4.307139e+01 4.162466e+01 4.150187e+01 4.841139e+01 4.635683e+01 4.451300e+01
<GCONST> 6.611080e+01
<STATE> 4
<NUMMIXES> 3
<MIXTURE> 1 2.500000e-01
<MEAN> 12
 -3.447664e-02 3.413851e+00 5.944228e+00 5.670073e+00 -4.730505e+00 -9.403263e+00 -1.091379e+01 -6.859528e-01 2.318657e+00 3.819003e+00 5.326898e-01 1.074137e+00
<VARIANCE> 12
 1.534221e+01 7.144051e+01 3.200863e+01 3.835714e+01 5.589238e+01 8.577242e+01 5.262806e+01 6.249507e+01 4.613372e+01 7.160548e+01 6.431157e+01 2.926605e+01
<GCONST> 6.838329e+01
<MIXTURE> 2 5.000000e-01
<MEAN> 12
 -2.384624e+00 -1.657498e+00 2.549659e+00 1.954084e+00 -9.216177e+00 -1.496007e+01 -1.526650e+01 -5.429183e+00 -1.756652e+00 -1.258198e+00 -4.278980e+00 -2.171749e+00
<VARIANCE> 12
 1.534221e+01 7.144051e+01 3.200863e+01 3.835714e+01 5.589238e+01 8.577242e+01 5.262806e+01 6.249507e+01 4.613372e+01 7.160548e+01 6.431157e+01 2.926605e+01
<GCONST> 6.838329e+01
<MIXTURE> 3 2.500000e-01
<MEAN> 12
 -1.601242e+00 3.295183e-02 3.681182e+00 3.192747e+00 -7.720953e+00 -1.310780e+01 -1.381560e+01 -3.848106e+00 -3.982155e-01 4.342020e-01 -2.675090e+00 -1.089787e+00
<VARIANCE> 12
 1.534221e+01 7.144051e+01 3.200863e+01 3.835714e+01 5.589238e+01 8.577242e+01 5.262806e+01 6.249507e+01 4.613372e+01 7.160548e+01 6.431157e+01 2.926605e+01
<GCONST> 6.838329e+01
<TRANSP> 5
 0.000000e+00 1.000000e+00 0.000000e+00 0.000000e+00 0.000000e+00
 0.000000e+00 7.928680e-01 2.071320e-01 0.000000e+00 0.000000e+00
 0.000000e+00 0.000000e+00 7.030705e-01 2.969296e-01 0.000000e+00
 0.000000e+00 0.000000e+00 0.000000e+00 6.892005e-01 3.107995e-01
 0.000000e+00 0.000000e+00 0.000000e+00 0.000000e+00 0.000000e+00
<ENDHMM>
~h "a"
<BEGINHMM>
<NUMSTATES> 5
<STATE> 2
<NUMMIXES> 3
<MIXTURE> 1 2.500000e-01
<MEAN> 12
 -5.068421e-03 -7.394680e+00 -6.920004e-02 -6.938167e+00 -7.128600e+00 -2.760599e+00 -5.327765e+00 2.966810e+00 9.584578e+00 2.063023e+00 3.925771e+00 -7.441403e+00
<VARIANCE> 12
 2.002604e+01 1.343663e+02 3.929892e+01 3.386890e+01 4.719690e+01 8.875616e+01 5.625622e+01 6.859497e+01 5.193197e+01 5.315428e+01 6.257104e+01 4.743583e+01
<GCONST> 6.966299e+01
<MIXTURE> 2 5.000000e-01
<MEAN> 12
 -2.690096e+00 -1.434967e+01 -3.830531e+00 -1.042999e+01 -1.125060e+01 -8.413228e+00 -9.828014e+00 -2.002515e+00 5.260747e+00 -2.311397e+00 -8.203400e-01 -1.157382e+01
<VARIANCE> 12
 2.002604e+01 1.343663e+02 3.929892e+01 3.386890e+01 4.719690e+01 8.875616e+01 5.625622e+01 6.859497e+01 5.193197e+01 5.315428e+01 6.257104e+01 4.743583e+01
<GCONST> 6.966299e+01
<MIXTURE> 3 2.500000e-01
<MEAN> 12
 -1.795087e+00 -1.203134e+01 -2.576754e+00 -9.266047e+00 -9.876599e+00 -6.529018e+00 -8.327931e+00 -3.460732e-01 6.702024e+00 -8.532568e-01 7.616971e-01 -1.019635e+01
<VARIANCE> 12
 2.002604e+01 1.343663e+02 3.929892e+01 3.386890e+01 4.719690e+01 8.875616e+01 5.625622e+01 6.859497e+01 5.193197e+01 5.315428e+01 6.257104e+01 4.743583e+01
<GCONST> 6.966299e+01
<STATE> 3
<NUMMIXES> 3
<MIXTURE> 1 2.500000e-01
<MEAN> 12
 1.479306e-01 -3.643213e+00 -3.958529e+00 -7.013512e+00 -1.591337e+00 -3.350209e+00 -2.643259e+00 2.358591e+00 7.127672e+00 6.621422e+00 1.782411e+00 -8.935524e+00
<VARIANCE> 12
 1.196988e+01 5.694936e+01 3.566697e+01 3.139805e+01 4.295948e+01 6.831746e+01 4.958301e+01 5.062032e+01 4.075423e+01 4.739749e+01 5.768553e+01 3.564705e+01
<GCONST> 6.660728e+01
<MIXTURE> 2 5.000000e-01
<MEAN> 12
 -1.927920e+00 -8.171102e+00 -7.541839e+00 -1.037555e+01 -5.523946e+00 -8.309471e+00 -6.868171e+00 -1.910287e+00 3.297329e+00 2.490671e+00 -2.774649e+00 -1.251783e+01
<VARIANCE> 12
 1.196988e+01 5.694936e+01 3.566697e+01 3.139805e+01 4.295948e+01 6.831746e+01 4.958301e+01 5.062032e+01 4.075423e+01 4.739749e+01 5.768553e+01 3.564705e+01
<GCONST> 6.660728e+01
<MIXTURE> 3 2.500000e-01
<MEAN> 12
 -1.235970e+00 -6.661805e+00 -6.347402e+00 -9.254870e+00 -4.213076e+00 -6.656384e+00 -5.459867e+00 -4.873277e-01 4.574110e+00 3.867588e+00 -1.255629e+00 -1.132373e+01
<VARIANCE> 12
 1.196988e+01 5.694936e+01 3.566697e+01 3.139805e+01 4.295948e+01 6.831746e+01 4.958301e+01 5.062032e+01 4.075423e+01 4.739749e+01 5.768553e+01 3.564705e+01
<GCONST> 6.660728e+01
<STATE> 4
<NUMMIXES> 3
<MIXTURE> 1 2.500000e-01
<MEAN> 12
 -9.559298e-02 -1.039849e+00 1.282672e+00 -2.666814e+00 -4.608840e+00 -3.935463e+00 -5.507838e+00 1.670119e+00 6.951222e+00 5.496868e+00 2.722702e+00 -3.726431e+00
<VARIANCE> 12
 2.060470e+01 1.441813e+02 4.426145e+01 4.105037e+01 6.900537e+01 9.848283e+01 5.138433e+01 6.270447e+01 4.879211e+01 5.365487e+01 5.466496e+01 3.297211e+01
<GCONST> 6.982488e+01
<MIXTURE> 2 5.000000e-01
<MEAN> 12
 -2.819137e+00 -8.244381e+00 -2.709085e+00 -6.511047e+00 -9.593008e+00 -9.889774e+00 -9.808810e+00 -3.081050e+00 2.760141e+00 1.101899e+00 -1.713444e+00 -7.171712e+00
<VARIANCE> 12
 2.060470e+01 1.441813e+02 4.426145e+01 4.105037e+01 6.900537e+01 9.848283e+01 5.138433e+01 6.270447e+01 4.879211e+01 5.365487e+01 5.466496e+01 3.297211e+01
<GCONST> 6.982488e+01
<MIXTURE> 3 2.500000e-01
<MEAN> 12
 -1.911289e+00 -5.842870e+00 -1.378499e+00 -5.229636e+00 -7.931618e+00 -7.905004e+00 -8.375153e+00 -1.497327e+00 4.157168e+00 2.566889e+00 -2.347288e-01 -6.023285e+00
<VARIANCE> 12
 2.060470e+01 1.441813e+02 4.426145e+01 4.105037e+01 6.900537e+01 9.848283e+01 5.138433e+01 6.270447e+01 4.879211e+01 5.365487e+01 5.466496e+01 3.297211e+01
<GCONST> 6.982488e+01
<TRANSP> 5
 0.000000e+00 1.000000e+00 0.000000e+00 0.000000e+00 0.000000e+00
 0.000000e+00 4.480286e-01 5.519714e-01 0.000000e+00 0.000000e+00
 0.000000e+00 0.000000e+00 7.165083e-01 2.834917e-01 0.000000e+00
 0.000000e+00 0.000000e+00 0.000000e+00 1.714531e-01 8.285469e-01
 0.000000e+00 0.000000e+00 0.000000e+00 0.000000e+00 0.000000e+00
<ENDHMM>
~h "b"
<BEGINHMM>
<NUMSTATES> 5
<STATE> 2
<NUMMIXES> 3
<MIXTURE> 1 2.500000e-01
<MEAN> 12
 3.372449e+00 9.593620e+00 5.418884e+00 5.245242e+00 -3.090801e+00 2.523208e-01 -8.231660e+00 -1.145581e+00 -1.748214e+00 1.917723e+00 -6.601732e-01 -2.039018e+00
<VARIANCE> 12
 1.343753e+01 1.385966e+02 1.432922e+01 3.613136e+01 4.167267e+01 3.758020e+01 2.527774e+01 4.239407e+01 3.015886e+01 3.072582e+01 2.390554e+01 2.154385e+01
<GCONST> 6.324265e+01
<MIXTURE> 2 5.000000e-01
<MEAN> 12
 1.173015e+00 2.529996e+00 3.147647e+00 1.638680e+00 -6.964064e+00 -3.425841e+00 -1.124828e+01 -5.052225e+00 -5.043240e+00 -1.408129e+00 -3.593771e+00 -4.823939e+00
<VARIANCE> 12
 1.343753e+01 1.385966e+02 1.432922e+01 3.613136e+01 4.167267e+01 3.758020e+01 2.527774e+01 4.239407e+01 3.015886e+01 3.072582e+01 2.390554e+01 2.154385e+01
<GCONST> 6.324265e+01
<MIXTURE> 3 2.500000e-01
<MEAN> 12
 1.906160e+00 4.884537e+00 3.904726e+00 2.840867e+00 -5.672976e+00 -2.199787e+00 -1.024274e+01 -3.750010e+00 -3.944898e+00 -2.995116e-01 -2.615905e+00 -3.895632e+00
<VARIANCE> 12
 1.343753e+01 1.385966e+02 1.432922e+01 3.613136e+01 4.167267e+01 3.758020e+01 2.527774e+01 4.239407e+01 3.015886e+01 3.072582e+01 2.390554e+01 2.154385e+01
<GCONST> 6.324265e+01
<STATE> 3
<NUMMIXES> 3
<MIXTURE> 1 2.500000e-01
<MEAN> 12
 1.694455e+00 -7.885966e-01 3.661045e+00 9.233260e-02 -6.758807e+00 1.662883e+00 -6.884520e+00 -4.973059e+00 2.863653e-01 -8.529421e-01 1.271719e+00 4.823420e-01
<VARIANCE> 12
 1.457588e+01 2.097710e+02 1.968601e+01 6.131538e+01 7.074298e+01 4.369221e+01 4.568734e+01 3.811007e+01 5.802395e+01 6.001244e+01 3.723281e+01 2.095996e+01
<GCONST> 6.748958e+01
<MIXTURE> 2 5.000000e-01
<MEAN> 12
 -5.962474e-01 -9.478681e+00 9.989097e-01 -4.605916e+00 -1.180534e+01 -2.303122e+00 -1.094007e+01 -8.677060e+00 -4.284042e+00 -5.501004e+00 -2.389403e+00 -2.264581e+00
<VARIANCE> 12
 1.457588e+01 2.097710e+02 1.968601e+01 6.131538e+01 7.074298e+01 4.369221e+01 4.568734e+01 3.811007e+01 5.802395e+01 6.001244e+01 3.723281e+01 2.095996e+01
<GCONST> 6.748958e+01
<MIXTURE> 3 2.500000e-01
<MEAN> 12
 1.673200e-01 -6.581986e+00 1.886288e+00 -3.039833e+00 -1.012316e+01 -9.811202e-01 -9.588217e+00 -7.442392e+00 -2.760573e+00 -3.951650e+00 -1.169029e+00 -1.348940e+00
<VARIANCE> 12
 1.457588e+01 2.097710e+02 1.968601e+01 6.131538e+01 7.074298e+01 4.369221e+01 4.568734e+01 3.811007e+01 5.802395e+01 6.001244e+01 3.723281e+01 2.095996e+01
<GCONST> 6.748958e+01
<STATE> 4
<NUMMIXES> 3
<MIXTURE> 1 2.500000e-01
<MEAN> 12
 3.890759e+00 -1.377731e+01 2.240695e+00 -6.905100e+00 -1.505099e+01 4.767978e+00 -1.035192e+01 -7.403501e+00 2.083528e+00 -6.203940e+00 2.787861e+00 1.768546e+00
<VARIANCE> 12
 1.117417e+01 2.120834e+02 2.693828e+01 4.997093e+01 6.857315e+01 4.341407e+01 3.964415e+01 4.038555e+01 4.407254e+01 7.303257e+01 3.964079e+01 4.591517e+01
<GCONST> 6.799059e+01
<MIXTURE> 2 5.000000e-01
<MEAN> 12
 1.885092e+00 -2.251516e+01 -8.734307e-01 -1.114651e+01 -2.001953e+01 8.146170e-01 -1.412973e+01 -1.121648e+01 -1.899701e+00 -1.133149e+01 -9.897948e-01 -2.297099e+00
<VARIANCE> 12
 1.117417e+01 2.120834e+02 2.693828e+01 4.997093e+01 6.857315e+01 4.341407e+01 3.964415e+01 4.038555e+01 4.407254e+01 7.303257e+01 3.964079e+01 4.591517e+01
<GCONST> 6.799059e+01
<MIXTURE> 3 2.500000e-01
<MEAN> 12
 2.553648e+00 -1.960254e+01 1.646113e-01 -9.732704e+00 -1.836335e+01 2.132404e+00 -1.287046e+01 -9.945485e+00 -5.719579e-01 -9.622304e+00 2.694240e-01 -9.418838e-01
<VARIANCE> 12
 1.117417e+01 2.120834e+02 2.693828e+01 4.997093e+01 6.857315e+01 4.341407e+01 3.964415e+01 4.038555e+01 4.407254e+01 7.303257e+01 3.964079e+01 4.591517e+01
<GCONST> 6.799059e+01
<TRANSP> 5
 0.000000e+00 1.000000e+00 0.000000e+00 0.000000e+00 0.000000e+00
 0.000000e+00 6.970889e-01 3.029111e-01 0.000000e+00 0.000000e+00
 0.000000e+00 0.000000e+00 9.535234e-03 9.904648e-01 0.000000e+00
 0.000000e+00 0.000000e+00 0.000000e+00 6.165369e-01 3.834631e-01
 0.000000e+00 0.000000e+00 0.000000e+00 0.000000e+00 0.000000e+00
<ENDHMM>
~h "d"
<BEGINHMM>
<NUMSTATES> 5
<STATE> 2
<NUMMIXES> 3
<MIXTURE> 1 2.500000e-01
<MEAN> 12
 1.405863e+00 9.408708e+00 7.375707e+00 4.275477e+00 -3.975744e+00 -1.900422e+00 -7.107931e+00 -5.257589e-01 4.574360e-01 2.284956e+00 -1.965701e+00 -3.409188e+00
<VARIANCE> 12
 1.426528e+01 1.208888e+02 1.959709e+01 2.879635e+01 4.676804e+01 4.508736e+01 2.912429e+01 6.199799e+01 3.493395e+01 2.506125e+01 2.578232e+01 2.327945e+01
<GCONST> 6.416737e+01
<MIXTURE> 2 5.000000e-01
<MEAN> 12
 -8.603013e-01 2.811741e+00 4.719591e+00 1.055743e+00 -8.078973e+00 -5.929250e+00 -1.034595e+01 -5.250087e+00 -3.088861e+00 -7.187171e-01 -5.012279e+00 -6.304115e+00
<VARIANCE> 12
 1.426528e+01 1.208888e+02 1.959709e+01 2.879635e+01 4.676804e+01 4.508736e+01 2.912429e+01 6.199799e+01 3.493395e+01 2.506125e+01 2.578232e+01 2.327945e+01
<GCONST> 6.416737e+01
<MIXTURE> 3 2.500000e-01
<MEAN> 12
 -1.049131e-01 5.010730e+00 5.604963e+00 2.128988e+00 -6.711230e+00 -4.586307e+00 -9.266607e+00 -3.675311e+00 -1.906762e+00 2.825072e-01 -3.996753e+00 -5.339139e+00
<VARIANCE> 12
 1.426528e+01 1.208888e+02 1.959709e+01 2.879635e+01 4.676804e+01 4.508736e+01 2.912429e+01 6.199799e+01 3.493395e+01 2.506125e+01 2.578232e+01 2.327945e+01
<GCONST> 6.416737e+01
<STATE> 3
<NUMMIXES> 3
<MIXTURE> 1 2.500000e-01
<MEAN> 12
 -2.049496e+00 2.002076e+00 9.607064e+00 1.777356e+00 -3.815656e+00 -1.824754e+00 -7.631026e+00 -2.807123e+00 2.222688e+00 3.214557e-01 -1.281115e+00 1.787626e-01
<VARIANCE> 12
 2.259173e+01 1.634151e+02 3.658313e+01 3.139204e+01 8.363929e+01 5.566459e+01 6.025307e+01 4.266793e+01 4.084265e+01 3.769833e+01 3.269059e+01 2.914028e+01
<GCONST> 6.781096e+01
<MIXTURE> 2 5.000000e-01
<MEAN> 12
 -4.901341e+00 -5.667959e+00 5.978025e+00 -1.584360e+00 -9.302927e+00 -6.301276e+00 -1.228840e+01 -6.726365e+00 -1.611808e+00 -3.362482e+00 -4.711656e+00 -3.060142e+00
<VARIANCE> 12
 2.259173e+01 1.634151e+02 3.658313e+01 3.139204e+01 8.363929e+01 5.566459e+01 6.025307e+01 4.266793e+01 4.084265e+01 3.769833e+01 3.269059e+01 2.914028e+01
<GCONST> 6.781096e+01
<MIXTURE> 3 2.500000e-01
<MEAN> 12
 -3.950726e+00 -3.111281e+00 7.187705e+00 -4.637881e-01 -7.473837e+00 -4.809102e+00 -1.073594e+01 -5.419950e+00 -3.336425e-01 -2.134503e+00 -3.568142e+00 -1.980507e+00
<VARIANCE> 12
 2.259173e+01 1.634151e+02 3.658313e+01 3.139204e+01 8.363929e+01 5.566459e+01 6.025307e+01 4.266793e+01 4.084265e+01 3.769833e+01 3.269059e+01 2.914028e+01
<GCONST> 6.781096e+01
<STATE> 4
<NUMMIXES> 3
<MIXTURE> 1 2.500000e-01
<MEAN> 12
 -1.747705e+00 8.772612e-01 9.140946e+00 1.148914e+00 -5.858572e+00 -3.276092e+00 -9.681335e+00 -3.559599e+00 2.514811e+00 7.599318e-01 7.132827e-01 3.087188e-01
<VARIANCE> 12
 2.311300e+01 1.785337e+02 3.401281e+01 3.602399e+01 7.933936e+01 7.469833e+01 5.229190e+01 4.480535e+01 4.663647e+01 4.235503e+01 3.223570e+01 3.296114e+01
<GCONST> 6.849385e+01
<MIXTURE> 2 5.000000e-01
<MEAN> 12
 -4.632265e+00 -7.139729e+00 5.641716e+00 -2.452286e+00 -1.120293e+01 -8.461784e+00 -1.402012e+01 -7.575807e+00 -1.582643e+00 -3.144913e+00 -2.693307e+00 -3.135989e+00
<VARIANCE> 12
 2.311300e+01 1.785337e+02 3.401281e+01 3.602399e+01 7.933936e+01 7.469833e+01 5.229190e+01 4.480535e+01 4.663647e+01 4.235503e+01 3.223570e+01 3.296114e+01
<GCONST> 6.849385e+01
<MIXTURE> 3 2.500000e-01
<MEAN> 12
 -3.670745e+00 -4.467399e+00 6.808126e+00 -1.251886e+00 -9.421478e+00 -6.733220e+00 -1.257386e+01 -6.237071e+00 -2.168248e-01 -1.843298e+00 -1.557777e+00 -1.987753e+00
<VARIANCE> 12
 2.311300e+01 1.785337e+02 3.401281e+01 3.602399e+01 7.933936e+01 7.469833e+01 5.229190e+01 4.480535e+01 4.663647e+01 4.235503e+01 3.223570e+01 3.296114e+01
<GCONST> 6.849385e+01
<TRANSP> 5
 0.000000e+00 1.000000e+00 0.000000e+00 0.000000e+00 0.000000e+00
 0.000000e+00 6.500576e-01 3.499424e-01 0.000000e+00 0.000000e+00
 0.000000e+00 0.000000e+00 1.370327e-01 8.629673e-01 0.000000e+00
 0.000000e+00 0.000000e+00 0.000000e+00 1.398927e-02 9.860107e-01
 0.000000e+00 0.000000e+00 0.000000e+00 0.000000e+00 0.000000e+00
<ENDHMM>
~h "e"
<BEGINHMM>
<NUMSTATES> 5
<STATE> 2
<NUMMIXES> 3
<MIXTURE> 1 2.500000e-01
<MEAN> 12
 3.163370e-01 -1.906008e+01 1.011758e+01 -2.885267e+00 -2.190232e+01 -1.077906e+00 -1.190639e+01 -5.767500e+00 4.735980e+00 -5.743258e+00 4.675077e+00 5.991986e+00
<VARIANCE> 12
 1.530435e+01 1.341364e+02 2.602754e+01 2.369381e+01 7.069476e+01 7.812515e+01 4.333683e+01 4.752052e+01 4.449930e+01 4.246013e+01 2.850442e+01 3.194516e+01
<GCONST> 6.671085e+01
<MIXTURE> 2 5.000000e-01
<MEAN> 12
 -2.030910e+00 -2.600912e+01 7.056545e+00 -5.805844e+00 -2.694713e+01 -6.381213e+00 -1.585623e+01 -9.903608e+00 7.335120e-01 -9.652944e+00 1.471705e+00 2.600783e+00
<VARIANCE> 12
 1.530435e+01 1.341364e+02 2.602754e+01 2.369381e+01 7.069476e+01 7.812515e+01 4.333683e+01 4.752052e+01 4.449930e+01 4.246013e+01 2.850442e+01 3.194516e+01
<GCONST> 6.671085e+01
<MIXTURE> 3 2.500000e-01
<MEAN> 12
 -1.248494e+00 -2.369277e+01 8.076889e+00 -4.832319e+00 -2.526553e+01 -4.613444e+00 -1.453962e+01 -8.524905e+00 2.067668e+00 -8.349715e+00 2.539496e+00 3.731184e+00
<VARIANCE> 12
 1.530435e+01 1.341364e+02 2.602754e+01 2.369381e+01 7.069476e+01 7.812515e+01 4.333683e+01 4.752052e+01 4.449930e+01 4.246013e+01 2.850442e+01 3.194516e+01
<GCONST> 6.671085e+01
<STATE> 3
<NUMMIXES> 3
<MIXTURE> 1 2.500000e-01
<MEAN> 12
 -3.498896e+00 2.374662e+00 1.257771e+01 3.502561e+00 -1.280248e+01 -1.418282e+01 -5.364502e+00 9.564114e-02 -2.482975e+00 -1.543335e+00 5.617340e+00 1.214401e+00
<VARIANCE> 12
 1.202066e+01 9.450040e+01 3.450039e+01 4.213004e+01 4.409851e+01 6.317719e+01 5.891439e+01 3.989871e+01 4.053743e+01 3.094531e+01 2.530049e+01 2.807278e+01
<GCONST> 6.576635e+01
<MIXTURE> 2 5.000000e-01
<MEAN> 12
 -5.579145e+00 -3.458016e+00 9.053490e+00 -3.918985e-01 -1.678688e+01 -1.895186e+01 -9.969845e+00 -3.694284e+00 -6.303115e+00 -4.881045e+00 2.599364e+00 -1.964624e+00
<VARIANCE> 12
 1.202066e+01 9.450040e+01 3.450039e+01 4.213004e+01 4.409851e+01 6.317719e+01 5.891439e+01 3.989871e+01 4.053743e+01 3.094531e+01 2.530049e+01 2.807278e+01
<GCONST> 6.576635e+01
<MIXTURE> 3 2.500000e-01
<MEAN> 12
 -4.885729e+00 -1.513790e+00 1.022823e+01 9.062548e-01 -1.545875e+01 -1.736218e+01 -8.434731e+00 -2.430976e+00 -5.029735e+00 -3.768475e+00 3.605356e+00 -9.049488e-01
<VARIANCE> 12
 1.202066e+01 9.450040e+01 3.450039e+01 4.213004e+01 4.409851e+01 6.317719e+01 5.891439e+01 3.989871e+01 4.053743e+01 3.094531e+01 2.530049e+01 2.807278e+01
<GCONST> 6.576635e+01
<STATE> 4
<NUMMIXES> 3
<MIXTURE> 1 2.500000e-01
<MEAN> 12
 -2.106896e+00 -8.074570e-02 9.943519e+00 2.600654e+00 -1.039531e+01 -7.491440e+00 -6.310694e+00 -3.655958e-01 1.592885e+00 -1.097272e+00 3.204747e+00 9.994876e-01
<VARIANCE> 12
 2.600833e+01 1.959194e+02 3.886521e+01 3.890306e+01 6.970367e+01 7.462586e+01 5.903397e+01 5.235040e+01 5.004414e+01 4.907344e+01 3.571146e+01 3.850890e+01
<GCONST> 6.953721e+01
<MIXTURE> 2 5.000000e-01
<MEAN> 12
 -5.166797e+00 -8.479018e+00 6.203001e+00 -1.141685e+00 -1.540463e+01 -1.267461e+01 -1.092071e+01 -4.706810e+00 -2.651628e+00 -5.300419e+00 -3.807971e-01 -2.723845e+00
<VARIANCE> 12
 2.600833e+01 1.959194e+02 3.886521e+01 3.890306e+01 6.970367e+01 7.462586e+01 5.903397e+01 5.235040e+01 5.004414e+01 4.907344e+01 3.571146e+01 3.850890e+01
<GCONST> 6.953721e+01
<MIXTURE> 3 2.500000e-01
<MEAN> 12
 -4.146830e+00 -5.679594e+00 7.449840e+00 1.057611e-01 -1.373486e+01 -1.094689e+01 -9.384037e+00 -3.259739e+00 -1.236790e+00 -3.899370e+00 8.143842e-01 -1.482734e+00
<VARIANCE> 12
 2.600833e+01 1.959194e+02 3.886521e+01 3.890306e+01 6.970367e+01 7.462586e+01 5.903397e+01 5.235040e+01 5.004414e+01 4.907344e+01 3.571146e+01 3.850890e+01
<GCONST> 6.953721e+01
<TRANSP> 5
 0.000000e+00 1.000000e+00 0.000000e+00 0.000000e+00 0.000000e+00
 0.000000e+00 7.899031e-01 2.100969e-01 0.000000e+00 0.000000e+00
 0.000000e+00 0.000000e+00 6.974058e-01 3.025942e-01 0.000000e+00
 0.000000e+00 0.000000e+00 0.000000e+00 1.311079e-01 8.688921e-01
 0.000000e+00 0.000000e+00 0.000000e+00 0.000000e+00 0.000000e+00
<ENDHMM>
~h "f"
<BEGINHMM>
<NUMSTATES> 5
<STATE> 2
<NUMMIXES> 3
<MIXTURE> 1 2.500000e-01
<MEAN> 12
 -8.600303e+00 1.846076e+00 4.477906e+00 5.287937e+00 -1.431082e+00 -2.657438e+00 -4.212025e+00 -9.471102e-01 2.702210e+00 3.372771e+00 1.465879e+00 1.917285e+00
<VARIANCE> 12
 3.027247e+01 8.798566e+01 2.034489e+01 2.645625e+01 7.267850e+01 2.601675e+01 3.525465e+01 3.285467e+01 3.459130e+01 2.091509e+01 2.137521e+01 1.195773e+01
<GCONST> 6.295742e+01
<MIXTURE> 2 5.000000e-01
<MEAN> 12
 -1.190153e+01 -3.781964e+00 1.771588e+00 2.201798e+00 -6.546184e+00 -5.717835e+00 -7.774562e+00 -4.386250e+00 -8.266521e-01 6.287896e-01 -1.308121e+00 -1.575117e-01
<VARIANCE> 12
 3.027247e+01 8.798566e+01 2.034489e+01 2.645625e+01 7.267850e+01 2.601675e+01 3.525465e+01 3.285467e+01 3.459130e+01 2.091509e+01 2.137521e+01 1.195773e+01
<GCONST> 6.295742e+01
<MIXTURE> 3 2.500000e-01
<MEAN> 12
 -1.080112e+01 -1.905951e+00 2.673694e+00 3.230511e+00 -4.841150e+00 -4.697703e+00 -6.587050e+00 -3.239870e+00 3.496354e-01 1.543450e+00 -3.834541e-01 5.340873e-01
<VARIANCE> 12
 3.027247e+01 8.798566e+01 2.034489e+01 2.645625e+01 7.267850e+01 2.601675e+01 3.525465e+01 3.285467e+01 3.459130e+01 2.091509e+01 2.137521e+01 1.195773e+01
<GCONST> 6.295742e+01
<STATE> 3
<NUMMIXES> 3
<MIXTURE> 1 2.500000e-01
<MEAN> 12
 -1.766892e+01 -2.738953e+00 -1.240904e+00 3.213579e+00 -1.222098e-01 -2.442234e+00 -8.444529e-01 7.934673e-01 4.150944e+00 4.080612e+00 1.320847e+00 2.840662e+00
<VARIANCE> 12
 2.082984e+01 2.503821e+01 3.182087e+01 1.943688e+01 3.805077e+01 2.563854e+01 2.757332e+01 3.502341e+01 2.202755e+01 1.987217e+01 2.604073e+01 1.639179e+01
<GCONST> 6.063255e+01
<MIXTURE> 2 5.000000e-01
<MEAN> 12
 -2.040730e+01 -5.741245e+00 -4.625504e+00 5.683424e-01 -3.823328e+00 -5.480305e+00 -3.995071e+00 -2.757368e+00 1.334933e+00 1.405919e+00 -1.740960e+00 4.114555e-01
<VARIANCE> 12
 2.082984e+01 2.503821e+01 3.182087e+01 1.943688e+01 3.805077e+01 2.563854e+01 2.757332e+01 3.502341e+01 2.202755e+01 1.987217e+01 2.604073e+01 1.639179e+01
<GCONST> 6.063255e+01
<MIXTURE> 3 2.500000e-01
<MEAN> 12
 -1.949451e+01 -4.740481e+00 -3.497304e+00 1.450088e+00 -2.589622e+00 -4.467614e+00 -2.944865e+00 -1.573756e+00 2.273603e+00 2.297483e+00 -7.203575e-01 1.221191e+00
<VARIANCE> 12
 2.082984e+01 2.503821e+01 3.182087e+01 1.943688e+01 3.805077e+01 2.563854e+01 2.757332e+01 3.502341e+01 2.202755e+01 1.987217e+01 2.604073e+01 1.639179e+01
<GCONST> 6.063255e+01
<STATE> 4
<NUMMIXES> 3
<MIXTURE> 1 2.500000e-01
<MEAN> 12
 -7.212480e+00 -1.405965e+00 2.312487e+00 4.027154e-01 -1.508015e+00 1.536834e+00 -2.881208e+00 6.990836e-01 3.380419e+00 6.389606e-02 2.760569e+00 9.229210e-01
<VARIANCE> 12
 5.286200e+01 1.034010e+02 4.643111e+01 3.216153e+01 7.176608e+01 6.084159e+01 3.437642e+01 3.939676e+01 4.566246e+01 2.504052e+01 3.975787e+01 1.908796e+01
<GCONST> 6.723595e+01
<MIXTURE> 2 5.000000e-01
<MEAN> 12
 -1.157486e+01 -7.507143e+00 -1.775936e+00 -2.999953e+00 -6.590907e+00 -3.143228e+00 -6.399092e+00 -3.066927e+00 -6.740212e-01 -2.938534e+00 -1.022662e+00 -1.698465e+00
<VARIANCE> 12
 5.286200e+01 1.034010e+02 4.643111e+01 3.216153e+01 7.176608e+01 6.084159e+01 3.437642e+01 3.939676e+01 4.566246e+01 2.504052e+01 3.975787e+01 1.908796e+01
<GCONST> 6.723595e+01
<MIXTURE> 3 2.500000e-01
<MEAN> 12
 -1.012073e+01 -5.473417e+00 -4.131282e-01 -1.865730e+00 -4.896610e+00 -1.583207e+00 -5.226464e+00 -1.811590e+00 6.774589e-01 -1.937724e+00 2.384150e-01 -8.246698e-01
<VARIANCE> 12
 5.286200e+01 1.034010e+02 4.643111e+01 3.216153e+01 7.176608e+01 6.084159e+01 3.437642e+01 3.939676e+01 4.566246e+01 2.504052e+01 3.975787e+01 1.908796e+01
<GCONST> 6.723595e+01
<TRANSP> 5
 0.000000e+00 1.000000e+00 0.000000e+00 0.000000e+00 0.000000e+00
 0.000000e+00 3.490421e-01 6.509579e-01 0.000000e+00 0.000000e+00
 0.000000e+00 0.000000e+00 8.427260e-01 1.572740e-01 0.000000e+00
 0.000000e+00 0.000000e+00 0.000000e+00 2.445615e-01 7.554385e-01
 0.000000e+00 0.000000e+00 0.000000e+00 0.000000e+00 0.000000e+00
<ENDHMM>
~h "g"
<BEGINHMM>
<NUMSTATES> 5
<STATE> 2
<NUMMIXES> 3
<MIXTURE> 1 2.500000e-01
<MEAN> 12
 -3.717808e+00 3.052944e+00 1.192617e+01 5.160218e+00 -9.928532e+00 -6.590077e+00 -4.487336e+00 1.707299e+00 -5.020108e+00 -1.606787e+00 4.584775e+00 -1.900760e+00
<VARIANCE> 12
 3.615102e+01 5.780313e+01 6.969350e+01 3.916433e+01 6.701707e+01 4.620730e+01 4.408356e+01 5.159088e+01 2.287917e+01 3.247715e+01 4.638251e+01 2.902510e+01
<GCONST> 6.719451e+01
<MIXTURE> 2 5.000000e-01
<MEAN> 12
 -7.325352e+00 -1.508758e+00 6.917207e+00 1.405333e+00 -1.484037e+01 -1.066863e+01 -8.471064e+00 -2.602309e+00 -7.890038e+00 -5.026111e+00 4.984928e-01 -5.133257e+00
<VARIANCE> 12
 3.615102e+01 5.780313e+01 6.969350e+01 3.916433e+01 6.701707e+01 4.620730e+01 4.408356e+01 5.159088e+01 2.287917e+01 3.247715e+01 4.638251e+01 2.902510e+01
<GCONST> 6.719451e+01
<MIXTURE> 3 2.500000e-01
<MEAN> 12
 -6.122837e+00 1.180899e-02 8.586860e+00 2.656961e+00 -1.320309e+01 -9.309115e+00 -7.143154e+00 -1.165773e+00 -6.933395e+00 -3.886336e+00 1.860587e+00 -4.055758e+00
<VARIANCE> 12
 3.615102e+01 5.780313e+01 6.969350e+01 3.916433e+01 6.701707e+01 4.620730e+01 4.408356e+01 5.159088e+01 2.287917e+01 3.247715e+01 4.638251e+01 2.902510e+01
<GCONST> 6.719451e+01
<STATE> 3
<NUMMIXES> 3
<MIXTURE> 1 2.500000e-01
<MEAN> 12
 -2.837064e+00 5.040201e+00 8.348866e+00 3.315478e+00 -6.938513e+00 -1.023448e+01 -3.319875e+00 -3.350181e+00 -4.864999e+00 5.085981e+00 9.618901e+00 -6.612368e+00
<VARIANCE> 12
 1.512621e+01 5.169357e+01 3.912005e+01 6.783299e+01 3.322637e+01 6.442986e+01 8.350214e+01 5.526628e+01 6.022607e+01 3.537429e+01 3.148520e+01 2.530349e+01
<GCONST> 6.705048e+01
<MIXTURE> 2 5.000000e-01
<MEAN> 12
 -5.170610e+00 7.263063e-01 4.596105e+00 -1.626170e+00 -1.039705e+01 -1.505058e+01 -8.802646e+00 -7.810659e+00 -9.521327e+00 1.517404e+00 6.252201e+00 -9.630522e+00
<VARIANCE> 12
 1.512621e+01 5.169357e+01 3.912005e+01 6.783299e+01 3.322637e+01 6.442986e+01 8.350214e+01 5.526628e+01 6.022607e+01 3.537429e+01 3.148520e+01 2.530349e+01
<GCONST> 6.705048e+01
<MIXTURE> 3 2.500000e-01
<MEAN> 12
 -4.392761e+00 2.164271e+00 5.847025e+00 2.104616e-02 -9.244205e+00 -1.344521e+01 -6.975055e+00 -6.323833e+00 -7.969218e+00 2.706930e+00 7.374434e+00 -8.624471e+00
<VARIANCE> 12
 1.512621e+01 5.169357e+01 3.912005e+01 6.783299e+01 3.322637e+01 6.442986e+01 8.350214e+01 5.526628e+01 6.022607e+01 3.537429e+01 3.148520e+01 2.530349e+01
<GCONST> 6.705048e+01
<STATE> 4
<NUMMIXES> 3
<MIXTURE> 1 2.500000e-01
<MEAN> 12
 -6.701676e-01 -9.398427e-01 4.290724e+00 -1.357047e+00 -8.092861e+00 -3.619367e+00 -7.512139e+00 -2.923151e+00 2.479425e+00 2.510852e+00 9.089117e+00 -3.804860e-01
<VARIANCE> 12
 1.159216e+01 1.807605e+02 2.736213e+01 5.568460e+01 1.401281e+02 8.609734e+01 3.104310e+01 2.615165e+01 7.229090e+01 4.235157e+01 4.570580e+01 3.297570e+01
<GCONST> 6.847292e+01
<MIXTURE> 2 5.000000e-01
<MEAN> 12
 -2.713003e+00 -9.006675e+00 1.152194e+00 -5.834374e+00 -1.519541e+01 -9.186687e+00 -1.085512e+01 -5.991473e+00 -2.622019e+00 -1.393834e+00 5.032753e+00 -3.825954e+00
<VARIANCE> 12
 1.159216e+01 1.807605e+02 2.736213e+01 5.568460e+01 1.401281e+02 8.609734e+01 3.104310e+01 2.615165e+01 7.229090e+01 4.235157e+01 4.570580e+01 3.297570e+01
<GCONST> 6.847292e+01
<MIXTURE> 3 2.500000e-01
<MEAN> 12
 -2.032058e+00 -6.317731e+00 2.198371e+00 -4.341932e+00 -1.282789e+01 -7.330913e+00 -9.740792e+00 -4.968699e+00 -9.215374e-01 -9.227180e-02 6.384874e+00 -2.677465e+00
<VARIANCE> 12
 1.159216e+01 1.807605e+02 2.736213e+01 5.568460e+01 1.401281e+02 8.609734e+01 3.104310e+01 2.615165e+01 7.229090e+01 4.235157e+01 4.570580e+01 3.297570e+01
<GCONST> 6.847292e+01
<TRANSP> 5
 0.000000e+00 1.000000e+00 0.000000e+00 0.000000e+00 0.000000e+00
 0.000000e+00 7.844624e-01 2.155376e-01 0.000000e+00 0.000000e+00
 0.000000e+00 0.000000e+00 7.831701e-01 2.168299e-01 0.000000e+00
 0.000000e+00 0.000000e+00 0.000000e+00 2.799045e-01 7.200955e-01
 0.000000e+00 0.000000e+00 0.000000e+00 0.000000e+00 0.000000e+00
<ENDHMM>
~h "i"
<BEGINHMM>
<NUMSTATES> 5
<STATE> 2
<NUMMIXES> 3
<MIXTURE> 1 2.500000e-01
<MEAN> 12
 -4.685319e+00 -4.649573e+00 1.666831e+01 -1.003369e+00 -1.451046e+01 -3.086691e-01 -1.091811e+01 -4.192011e+00 1.580168e+00 -8.025499e+00 1.838993e+00 3.258344e+00
<VARIANCE> 12
 3.193995e+01 1.999924e+02 4.287392e+01 2.873662e+01 1.072220e+02 8.005735e+01 5.172523e+01 5.555534e+01 3.735746e+01 7.613958e+01 2.601141e+01 3.761347e+01
<GCONST> 6.979307e+01
<MIXTURE> 2 5.000000e-01
<MEAN> 12
 -8.076246e+00 -1.313469e+01 1.273962e+01 -4.219762e+00 -2.072334e+01 -5.677155e+00 -1.523333e+01 -8.664138e+00 -2.087077e+00 -1.326098e+01 -1.221090e+00 -4.214452e-01
<VARIANCE> 12
 3.193995e+01 1.999924e+02 4.287392e+01 2.873662e+01 1.072220e+02 8.005735e+01 5.172523e+01 5.555534e+01 3.735746e+01 7.613958e+01 2.601141e+01 3.761347e+01
<GCONST> 6.979307e+01
<MIXTURE> 3 2.500000e-01
<MEAN> 12
 -6.945937e+00 -1.030632e+01 1.404918e+01 -3.147631e+00 -1.865238e+01 -3.887660e+00 -1.379492e+01 -7.173429e+00 -8.646623e-01 -1.151582e+01 -2.010623e-01 8.051513e-01
<VARIANCE> 12
 3.193995e+01 1.999924e+02 4.287392e+01 2.873662e+01 1.072220e+02 8.005735e+01 5.172523e+01 5.555534e+01 3.735746e+01 7.613958e+01 2.601141e+01 3.761347e+01
<GCONST> 6.979307e+01
<STATE> 3
<NUMMIXES> 3
<MIXTURE> 1 2.500000e-01
<MEAN> 12
 -4.889860e+00 8.179257e+00 1.761545e+01 1.484935e+00 -1.202080e+01 -1.029237e+01 -3.459744e+00 -3.604062e+00 -2.992102e+00 -1.864601e+00 3.193734e+00 9.416215e-01
<VARIANCE> 12
 1.684393e+01 9.822789e+01 3.419754e+01 2.645723e+01 4.062663e+01 4.796271e+01 4.311665e+01 5.171093e+01 4.142553e+01 3.466782e+01 2.741982e+01 2.939438e+01
<GCONST> 6.551968e+01
<MIXTURE> 2 5.000000e-01
<MEAN> 12
 -7.352341e+00 2.232658e+00 1.410673e+01 -1.601260e+00 -1.584514e+01 -1.444767e+01 -7.399540e+00 -7.918680e+00 -6.853862e+00 -5.397364e+00 5.189729e-02 -2.311374e+00
<VARIANCE> 12
 1.684393e+01 9.822789e+01 3.419754e+01 2.645723e+01 4.062663e+01 4.796271e+01 4.311665e+01 5.171093e+01 4.142553e+01 3.466782e+01 2.741982e+01 2.939438e+01
<GCONST> 6.551968e+01
<MIXTURE> 3 2.500000e-01
<MEAN> 12
 -6.531514e+00 4.214858e+00 1.527630e+01 -5.725283e-01 -1.457036e+01 -1.306257e+01 -6.086275e+00 -6.480474e+00 -5.566609e+00 -4.219776e+00 1.099176e+00 -1.227042e+00
<VARIANCE> 12
 1.684393e+01 9.822789e+01 3.419754e+01 2.645723e+01 4.062663e+01 4.796271e+01 4.311665e+01 5.171093e+01 4.142553e+01 3.466782e+01 2.741982e+01 2.939438e+01
<GCONST> 6.551968e+01
<STATE> 4
<NUMMIXES> 3
<MIXTURE> 1 2.500000e-01
<MEAN> 12
 -3.874473e+00 3.011251e+00 1.139119e+01 1.137525e+00 -8.124200e+00 -4.721132e+00 -4.666969e+00 -9.290205e-01 1.712737e+00 2.717042e-01 1.288824e+00 1.706627e+00
<VARIANCE> 12
 5.044009e+01 1.790596e+02 4.262427e+01 3.624321e+01 7.284708e+01 6.550597e+01 4.636971e+01 4.463838e+01 5.457122e+01 4.934055e+01 2.676189e+01 2.981718e+01
<GCONST> 6.919177e+01
<MIXTURE> 2 5.000000e-01
<MEAN> 12
 -8.135745e+00 -5.017538e+00 7.473954e+00 -2.474615e+00 -1.324523e+01 -9.577278e+00 -8.752687e+00 -4.937738e+00 -2.719604e+00 -3.942865e+00 -1.815090e+00 -1.569679e+00
<VARIANCE> 12
 5.044009e+01 1.790596e+02 4.262427e+01 3.624321e+01 7.284708e+01 6.550597e+01 4.636971e+01 4.463838e+01 5.457122e+01 4.934055e+01 2.676189e+01 2.981718e+01
<GCONST> 6.919177e+01
<MIXTURE> 3 2.500000e-01
<MEAN> 12
 -6.715321e+00 -2.341275e+00 8.779699e+00 -1.270568e+00 -1.153822e+01 -7.958563e+00 -7.390781e+00 -3.601499e+00 -1.242157e+00 -2.538009e+00 -7.804522e-01 -4.775769e-01
<VARIANCE> 12
 5.044009e+01 1.790596e+02 4.262427e+01 3.624321e+01 7.284708e+01 6.550597e+01 4.636971e+01 4.463838e+01 5.457122e+01 4.934055e+01 2.676189e+01 2.981718e+01
<GCONST> 6.919177e+01
<TRANSP> 5
 0.000000e+00 1.000000e+00 0.000000e+00 0.000000e+00 0.000000e+00
 0.000000e+00 5.590895e-01 4.409105e-01 0.000000e+00 0.000000e+00
 0.000000e+00 0.000000e+00 7.123013e-01 2.876988e-01 0.000000e+00
 0.000000e+00 0.000000e+00 0.000000e+00 2.374751e-01 7.625249e-01
 0.000000e+00 0.000000e+00 0.000000e+00 0.000000e+00 0.000000e+00
<ENDHMM>
~h "j"
<BEGINHMM>
<NUMSTATES> 5
<STATE> 2
<NUMMIXES> 3
<MIXTURE> 1 2.500000e-01
<MEAN> 12
 -3.792274e+00 -1.751470e+00 1.337507e+01 2.803382e+00 -1.319558e+01 -4.492964e+00 -6.029968e+00 2.695489e-02 3.725360e+00 -2.079392e+00 1.725153e+00 2.110610e+00
<VARIANCE> 12
 3.572976e+01 1.549643e+02 3.895100e+01 5.170221e+01 6.976646e+01 6.363161e+01 4.975565e+01 4.176590e+01 6.698240e+01 4.131872e+01 2.121514e+01 3.232096e+01
<GCONST> 6.877515e+01
<MIXTURE> 2 5.000000e-01
<MEAN> 12
 -7.378736e+00 -9.220549e+00 9.630425e+00 -1.510873e+00 -1.820716e+01 -9.279130e+00 -1.026223e+01 -3.850638e+00 -1.185207e+00 -5.936171e+00 -1.038441e+00 -1.300482e+00
<VARIANCE> 12
 3.572976e+01 1.549643e+02 3.895100e+01 5.170221e+01 6.976646e+01 6.363161e+01 4.975565e+01 4.176590e+01 6.698240e+01 4.131872e+01 2.121514e+01 3.232096e+01
<GCONST> 6.877515e+01
<MIXTURE> 3 2.500000e-01
<MEAN> 12
 -6.183249e+00 -6.730856e+00 1.087864e+01 -7.278788e-02 -1.653663e+01 -7.683741e+00 -8.851476e+00 -2.558107e+00 4.516488e-01 -4.650578e+00 -1.172427e-01 -1.634516e-01
<VARIANCE> 12
 3.572976e+01 1.549643e+02 3.895100e+01 5.170221e+01 6.976646e+01 6.363161e+01 4.975565e+01 4.176590e+01 6.698240e+01 4.131872e+01 2.121514e+01 3.232096e+01
<GCONST> 6.877515e+01
<STATE> 3
<NUMMIXES> 3
<MIXTURE> 1 2.500000e-01
<MEAN> 12
 -5.491067e+00 -5.736985e-01 1.616365e+01 -2.500029e+00 -1.316187e+01 -5.995236e+00 -9.664073e+00 2.317841e+00 4.663298e-01 -4.421036e+00 6.899241e+00 -1.096021e+00
<VARIANCE> 12
 1.732723e+01 8.656630e+01 4.127233e+01 3.161807e+01 3.861938e+01 5.367157e+01 5.001978e+01 3.851974e+01 4.735345e+01 8.097311e+01 4.157436e+01 2.579910e+01
<GCONST> 6.697144e+01
<MIXTURE> 2 5.000000e-01
<MEAN> 12
 -7.988627e+00 -6.156159e+00 1.230904e+01 -5.873826e+00 -1.689054e+01 -1.039089e+01 -1.390755e+01 -1.406015e+00 -3.662501e+00 -9.820139e+00 3.030550e+00 -4.143590e+00
<VARIANCE> 12
 1.732723e+01 8.656630e+01 4.127233e+01 3.161807e+01 3.861938e+01 5.367157e+01 5.001978e+01 3.851974e+01 4.735345e+01 8.097311e+01 4.157436e+01 2.579910e+01
<GCONST> 6.697144e+01
<MIXTURE> 3 2.500000e-01
<MEAN> 12
 -7.156107e+00 -4.295339e+00 1.359391e+01 -4.749227e+00 -1.564765e+01 -8.925672e+00 -1.249306e+01 -1.647297e-01 -2.286224e+00 -8.020438e+00 4.320114e+00 -3.127734e+00
<VARIANCE> 12
 1.732723e+01 8.656630e+01 4.127233e+01 3.161807e+01 3.861938e+01 5.367157e+01 5.001978e+01 3.851974e+01 4.735345e+01 8.097311e+01 4.157436e+01 2.579910e+01
<GCONST> 6.697144e+01
<STATE> 4
<NUMMIXES> 3
<MIXTURE> 1 2.500000e-01
<MEAN> 12
 -1.610816e+00 -7.471885e+00 6.166152e+00 -3.874794e+00 -1.119825e+01 -3.721491e+00 -9.059163e+00 -5.294242e-01 7.235406e+00 -3.320549e+00 3.495470e+00 -8.175745e-01
<VARIANCE> 12
 1.749217e+01 1.231204e+02 4.532693e+01 5.522598e+01 6.091781e+01 5.022647e+01 3.400661e+01 7.081259e+01 6.094638e+01 1.035597e+02 3.900457e+01 8.571272e+01
<GCONST> 7.023225e+01
<MIXTURE> 2 5.000000e-01
<MEAN> 12
 -4.120235e+00 -1.412946e+01 2.126634e+00 -8.333645e+00 -1.588124e+01 -7.973730e+00 -1.255807e+01 -5.578437e+00 2.551317e+00 -9.426407e+00 -2.517486e-01 -6.372444e+00
<VARIANCE> 12
 1.749217e+01 1.231204e+02 4.532693e+01 5.522598e+01 6.091781e+01 5.022647e+01 3.400661e+01 7.081259e+01 6.094638e+01 1.035597e+02 3.900457e+01 8.571272e+01
<GCONST> 7.023225e+01
<MIXTURE> 3 2.500000e-01
<MEAN> 12
 -3.283762e+00 -1.191027e+01 3.473140e+00 -6.847361e+00 -1.432024e+01 -6.556317e+00 -1.139177e+01 -3.895433e+00 4.112680e+00 -7.391121e+00 9.973242e-01 -4.520821e+00
<VARIANCE> 12
 1.749217e+01 1.231204e+02 4.532693e+01 5.522598e+01 6.091781e+01 5.022647e+01 3.400661e+01 7.081259e+01 6.094638e+01 1.035597e+02 3.900457e+01 8.571272e+01
<GCONST> 7.023225e+01
<TRANSP> 5
 0.000000e+00 1.000000e+00 0.000000e+00 0.000000e+00 0.000000e+00
 0.000000e+00 2.436439e-01 7.563561e-01 0.000000e+00 0.000000e+00
 0.000000e+00 0.000000e+00 7.197495e-01 2.802505e-01 0.000000e+00
 0.000000e+00 0.000000e+00 0.000000e+00 4.177701e-01 5.822299e-01
 0.000000e+00 0.000000e+00 0.000000e+00 0.000000e+00 0.000000e+00
<ENDHMM>
~h "k"
<BEGINHMM>
<NUMSTATES> 5
<STATE> 2
<NUMMIXES> 3
<MIXTURE> 1 2.500000e-01
<MEAN> 12
 -5.665750e+00 3.933015e+00 5.210674e+00 3.029462e+00 -3.274624e+00 -1.300561e+00 -4.399646e+00 2.129715e+00 -1.156250e+00 4.343714e+00 2.384335e+00 1.701406e+00
<VARIANCE> 12
 2.357002e+01 9.180019e+01 5.577946e+01 3.086251e+01 5.067185e+01 4.143267e+01 3.320311e+01 4.631548e+01 4.274380e+01 3.521941e+01 3.023028e+01 2.302409e+01
<GCONST> 6.603483e+01
<MIXTURE> 2 5.000000e-01
<MEAN> 12
 -8.578688e+00 -1.815730e+00 7.295350e-01 -3.037801e-01 -7.545673e+00 -5.162654e+00 -7.856975e+00 -1.953614e+00 -5.078975e+00 7.829572e-01 -9.145892e-01 -1.177600e+00
<VARIANCE> 12
 2.357002e+01 9.180019e+01 5.577946e+01 3.086251e+01 5.067185e+01 4.143267e+01 3.320311e+01 4.631548e+01 4.274380e+01 3.521941e+01 3.023028e+01 2.302409e+01
<GCONST> 6.603483e+01
<MIXTURE> 3 2.500000e-01
<MEAN> 12
 -7.607708e+00 1.005186e-01 2.223248e+00 8.073007e-01 -6.121990e+00 -3.875290e+00 -6.704532e+00 -5.925043e-01 -3.771400e+00 1.969876e+00 1.850522e-01 -2.179311e-01
<VARIANCE> 12
 2.357002e+01 9.180019e+01 5.577946e+01 3.086251e+01 5.067185e+01 4.143267e+01 3.320311e+01 4.631548e+01 4.274380e+01 3.521941e+01 3.023028e+01 2.302409e+01
<GCONST> 6.603483e+01
<STATE> 3
<NUMMIXES> 3
<MIXTURE> 1 2.500000e-01
<MEAN> 12
 -1.199433e+01 7.047348e-01 6.307345e+00 -8.631333e-01 -5.489764e-01 -1.080535e+00 -3.242982e+00 6.840950e-01 1.629488e+00 3.855709e+00 1.647186e+00 2.973251e+00
<VARIANCE> 12
 5.218379e+01 8.271938e+01 6.992443e+01 5.436819e+01 6.234648e+01 4.649345e+01 3.408680e+01 3.919129e+01 3.613961e+01 3.073894e+01 2.386100e+01 2.134622e+01
<GCONST> 6.708337e+01
<MIXTURE> 2 5.000000e-01
<MEAN> 12
 -1.632863e+01 -4.752277e+00 1.290095e+00 -5.287221e+00 -5.286564e+00 -5.171701e+00 -6.746016e+00 -3.072082e+00 -1.977485e+00 5.291458e-01 -1.283677e+00 2.011326e-01
<VARIANCE> 12
 5.218379e+01 8.271938e+01 6.992443e+01 5.436819e+01 6.234648e+01 4.649345e+01 3.408680e+01 3.919129e+01 3.613961e+01 3.073894e+01 2.386100e+01 2.134622e+01
<GCONST> 6.708337e+01
<MIXTURE> 3 2.500000e-01
<MEAN> 12
 -1.488386e+01 -2.933273e+00 2.962512e+00 -3.812525e+00 -3.707368e+00 -3.807979e+00 -5.578338e+00 -1.820023e+00 -7.751608e-01 1.638000e+00 -3.067228e-01 1.125172e+00
<VARIANCE> 12
 5.218379e+01 8.271938e+01 6.992443e+01 5.436819e+01 6.234648e+01 4.649345e+01 3.408680e+01 3.919129e+01 3.613961e+01 3.073894e+01 2.386100e+01 2.134622e+01
<GCONST> 6.708337e+01
<STATE> 4
<NUMMIXES> 3
<MIXTURE> 1 2.500000e-01
<MEAN> 12
 -5.289699e+00 -1.769076e+00 6.891486e+00 6.574259e-01 -4.656814e+00 -2.069050e+00 -6.399648e+00 1.396792e+00 5.721040e-01 5.909252e-02 5.477633e+00 9.213933e-01
<VARIANCE> 12
 3.446313e+01 1.529843e+02 8.394651e+01 4.736312e+01 1.032054e+02 8.695409e+01 7.307427e+01 5.821321e+01 5.282226e+01 4.063458e+01 4.222629e+01 2.553524e+01
<GCONST> 7.102512e+01
<MIXTURE> 2 5.000000e-01
<MEAN> 12
 -8.812017e+00 -9.190286e+00 1.394146e+00 -3.471826e+00 -1.075222e+01 -7.664001e+00 -1.152866e+01 -3.181063e+00 -3.788631e+00 -3.765623e+00 1.578728e+00 -2.110551e+00
<VARIANCE> 12
 3.446313e+01 1.529843e+02 8.394651e+01 4.736312e+01 1.032054e+02 8.695409e+01 7.307427e+01 5.821321e+01 5.282226e+01 4.063458e+01 4.222629e+01 2.553524e+01
<GCONST> 7.102512e+01
<MIXTURE> 3 2.500000e-01
<MEAN> 12
 -7.637911e+00 -6.716549e+00 3.226593e+00 -2.095409e+00 -8.720416e+00 -5.799017e+00 -9.818988e+00 -1.655111e+00 -2.335053e+00 -2.490718e+00 2.878363e+00 -1.099903e+00
<VARIANCE> 12
 3.446313e+01 1.529843e+02 8.394651e+01 4.736312e+01 1.032054e+02 8.695409e+01 7.307427e+01 5.821321e+01 5.282226e+01 4.063458e+01 4.222629e+01 2.553524e+01
<GCONST> 7.102512e+01
<TRANSP> 5
 0.000000e+00 1.000000e+00 0.000000e+00 0.000000e+00 0.000000e+00
 0.000000e+00 5.741437e-01 4.258563e-01 0.000000e+00 0.000000e+00
 0.000000e+00 0.000000e+00 6.467227e-01 3.532773e-01 0.000000e+00
 0.000000e+00 0.000000e+00 0.000000e+00 3.275598e-01 6.724402e-01
 0.000000e+00 0.000000e+00 0.000000e+00 0.000000e+00 0.000000e+00
<ENDHMM>
~h "l"
<BEGINHMM>
<NUMSTATES> 5
<STATE> 2
<NUMMIXES> 3
<MIXTURE> 1 2.500000e-01
<MEAN> 12
 2.116237e+00 2.398586e-02 3.709543e+00 5.337639e+00 5.979567e-01 -8.609509e+00 -1.355917e+01 -5.172102e+00 3.914620e+00 2.314084e+00 7.327704e-01 -4.534045e+00
<VARIANCE> 12
 1.954445e+01 1.463807e+02 6.024064e+01 6.335335e+01 1.849472e+02 8.154859e+01 8.295557e+01 6.897672e+01 4.747822e+01 6.247345e+01 5.111358e+01 6.886828e+01
<GCONST> 7.269510e+01
<MIXTURE> 2 5.000000e-01
<MEAN> 12
 -5.363094e-01 -7.235288e+00 -9.473475e-01 5.619496e-01 -7.561761e+00 -1.402777e+01 -1.902397e+01 -1.015524e+01 -2.196468e-01 -2.428325e+00 -3.556855e+00 -9.513260e+00
<VARIANCE> 12
 1.954445e+01 1.463807e+02 6.024064e+01 6.335335e+01 1.849472e+02 8.154859e+01 8.295557e+01 6.897672e+01 4.747822e+01 6.247345e+01 5.111358e+01 6.886828e+01
<GCONST> 7.269510e+01
<MIXTURE> 3 2.500000e-01
<MEAN> 12
 3.478728e-01 -4.815530e+00 6.049495e-01 2.153846e+00 -4.841855e+00 -1.222168e+01 -1.720237e+01 -8.494191e+00 1.158442e+00 -8.475220e-01 -2.126980e+00 -7.853522e+00
<VARIANCE> 12
 1.954445e+01 1.463807e+02 6.024064e+01 6.335335e+01 1.849472e+02 8.154859e+01 8.295557e+01 6.897672e+01 4.747822e+01 6.247345e+01 5.111358e+01 6.886828e+01
<GCONST> 7.269510e+01
<STATE> 3
<NUMMIXES> 3
<MIXTURE> 1 2.500000e-01
<MEAN> 12
 1.068441e+00 5.712612e-01 5.537426e+00 5.370322e+00 -3.012784e+00 -1.111489e+01 -1.272289e+01 -3.726226e-01 2.351272e+00 4.525560e+00 1.430295e+00 -4.610633e+00
<VARIANCE> 12
 1.484370e+01 1.057962e+02 4.385067e+01 6.244144e+01 8.293001e+01 1.009088e+02 4.942454e+01 7.294435e+01 4.987563e+01 7.304031e+01 4.875512e+01 5.098835e+01
<GCONST> 7.056993e+01
<MIXTURE> 2 5.000000e-01
<MEAN> 12
 -1.243211e+00 -5.600176e+00 1.564235e+00 6.291281e-01 -8.476738e+00 -1.714210e+01 -1.694104e+01 -5.497070e+00 -1.886089e+00 -6.022575e-01 -2.759197e+00 -8.895000e+00
<VARIANCE> 12
 1.484370e+01 1.057962e+02 4.385067e+01 6.244144e+01 8.293001e+01 1.009088e+02 4.942454e+01 7.294435e+01 4.987563e+01 7.304031e+01 4.875512e+01 5.098835e+01
<GCONST> 7.056993e+01
<MIXTURE> 3 2.500000e-01
<MEAN> 12
 -4.726603e-01 -3.543030e+00 2.888632e+00 2.209526e+00 -6.655420e+00 -1.513303e+01 -1.553499e+01 -3.788921e+00 -4.736355e-01 1.107015e+00 -1.362700e+00 -7.466878e+00
<VARIANCE> 12
 1.484370e+01 1.057962e+02 4.385067e+01 6.244144e+01 8.293001e+01 1.009088e+02 4.942454e+01 7.294435e+01 4.987563e+01 7.304031e+01 4.875512e+01 5.098835e+01
<GCONST> 7.056993e+01
<STATE> 4
<NUMMIXES> 3
<MIXTURE> 1 2.500000e-01
<MEAN> 12
 7.630232e-01 -1.912761e+00 6.502352e+00 2.739549e+00 -7.317935e+00 -6.922247e+00 -1.015203e+01 -1.473960e+00 3.227886e+00 2.690534e+00 2.386089e+00 -2.387915e+00
<VARIANCE> 12
 1.816953e+01 1.566497e+02 4.959967e+01 5.069526e+01 8.138000e+01 7.626933e+01 5.156587e+01 7.068880e+01 5.911549e+01 6.902032e+01 5.346397e+01 4.789642e+01
<GCONST> 7.093459e+01
<MIXTURE> 2 5.000000e-01
<MEAN> 12
 -1.794521e+00 -9.422347e+00 2.276729e+00 -1.532487e+00 -1.273059e+01 -1.216219e+01 -1.446060e+01 -6.518558e+00 -1.385310e+00 -2.294174e+00 -2.001055e+00 -6.540349e+00
<VARIANCE> 12
 1.816953e+01 1.566497e+02 4.959967e+01 5.069526e+01 8.138000e+01 7.626933e+01 5.156587e+01 7.068880e+01 5.911549e+01 6.902032e+01 5.346397e+01 4.789642e+01
<GCONST> 7.093459e+01
<MIXTURE> 3 2.500000e-01
<MEAN> 12
 -9.420062e-01 -6.919152e+00 3.685270e+00 -1.084749e-01 -1.092637e+01 -1.041554e+01 -1.302441e+01 -4.837025e+00 1.524216e-01 -6.326048e-01 -5.386732e-01 -5.156204e+00
<VARIANCE> 12
 1.816953e+01 1.566497e+02 4.959967e+01 5.069526e+01 8.138000e+01 7.626933e+01 5.156587e+01 7.068880e+01 5.911549e+01 6.902032e+01 5.346397e+01 4.789642e+01
<GCONST> 7.093459e+01
<TRANSP> 5
 0.000000e+00 1.000000e+00 0.000000e+00 0.000000e+00 0.000000e+00
 0.000000e+00 3.341524e-01 6.658476e-01 0.000000e+00 0.000000e+00
 0.000000e+00 0.000000e+00 4.939028e-01 5.060973e-01 0.000000e+00
 0.000000e+00 0.000000e+00 0.000000e+00 8.088868e-03 9.919111e-01
 0.000000e+00 0.000000e+00 0.000000e+00 0.000000e+00 0.000000e+00
<ENDHMM>
~h "m"
<BEGINHMM>
<NUMSTATES> 5
<STATE> 2
<NUMMIXES> 3
<MIXTURE> 1 2.500000e-01
<MEAN> 12
 2.013167e-01 6.366983e+00 6.694888e+00 4.494151e+00 -1.703768e+00 -6.058416e+00 -1.891325e+00 -5.630610e+00 -5.195398e+00 2.650569e+00 1.648337e+00 -3.792780e+00
<VARIANCE> 12
 1.024382e+01 7.449227e+01 1.826636e+01 2.378140e+01 3.583433e+01 7.162004e+01 5.549973e+01 4.116802e+01 4.869555e+01 4.006284e+01 4.262731e+01 3.667054e+01
<GCONST> 6.528069e+01
<MIXTURE> 2 5.000000e-01
<MEAN> 12
 -1.719041e+00 1.188449e+00 4.130539e+00 1.568180e+00 -5.295475e+00 -1.113613e+01 -6.361214e+00 -9.480348e+00 -9.382330e+00 -1.147143e+00 -2.269039e+00 -7.426152e+00
<VARIANCE> 12
 1.024382e+01 7.449227e+01 1.826636e+01 2.378140e+01 3.583433e+01 7.162004e+01 5.549973e+01 4.116802e+01 4.869555e+01 4.006284e+01 4.262731e+01 3.667054e+01
<GCONST> 6.528069e+01
<MIXTURE> 3 2.500000e-01
<MEAN> 12
 -1.078922e+00 2.914627e+00 4.985322e+00 2.543504e+00 -4.098239e+00 -9.443562e+00 -4.871251e+00 -8.197102e+00 -7.986687e+00 1.187609e-01 -9.632468e-01 -6.215028e+00
<VARIANCE> 12
 1.024382e+01 7.449227e+01 1.826636e+01 2.378140e+01 3.583433e+01 7.162004e+01 5.549973e+01 4.116802e+01 4.869555e+01 4.006284e+01 4.262731e+01 3.667054e+01
<GCONST> 6.528069e+01
<STATE> 3
<NUMMIXES> 3
<MIXTURE> 1 2.500000e-01
<MEAN> 12
 8.406799e-01 5.526793e+00 5.436589e+00 1.154014e+00 -4.923686e+00 5.593436e-01 -2.618847e+00 -9.075735e+00 -4.319625e+00 9.886082e-01 4.623396e+00 -8.556175e-01
<VARIANCE> 12
 6.677087e+00 8.212669e+01 2.743884e+01 2.987023e+01 2.982564e+01 5.130723e+01 6.984993e+01 2.661595e+01 4.617504e+01 5.113695e+01 7.762930e+01 5.220343e+01
<GCONST> 6.600539e+01
<MIXTURE> 2 5.000000e-01
<MEAN> 12
 -7.097237e-01 8.936644e-02 2.293663e+00 -2.125206e+00 -8.200458e+00 -3.738400e+00 -7.633423e+00 -1.217117e+01 -8.396758e+00 -3.301998e+00 -6.630540e-01 -5.190734e+00
<VARIANCE> 12
 6.677087e+00 8.212669e+01 2.743884e+01 2.987023e+01 2.982564e+01 5.130723e+01 6.984993e+01 2.661595e+01 4.617504e+01 5.113695e+01 7.762930e+01 5.220343e+01
<GCONST> 6.600539e+01
<MIXTURE> 3 2.500000e-01
<MEAN> 12
 -1.929225e-01 1.901842e+00 3.341305e+00 -1.032133e+00 -7.108200e+00 -2.305819e+00 -5.961898e+00 -1.113936e+01 -7.037714e+00 -1.871796e+00 1.099096e+00 -3.745695e+00
<VARIANCE> 12
 6.677087e+00 8.212669e+01 2.743884e+01 2.987023e+01 2.982564e+01 5.130723e+01 6.984993e+01 2.661595e+01 4.617504e+01 5.113695e+01 7.762930e+01 5.220343e+01
<GCONST> 6.600539e+01
<STATE> 4
<NUMMIXES> 3
<MIXTURE> 1 2.500000e-01
<MEAN> 12
 1.821097e+00 1.324939e+00 1.897606e+00 -2.689360e+00 -6.753364e+00 1.797680e+00 -3.763577e+00 -5.597417e+00 3.712458e+00 -3.076451e-01 3.420573e+00 -2.283540e+00
<VARIANCE> 12
 1.119581e+01 1.131019e+02 2.783422e+01 5.741802e+01 4.244472e+01 8.341968e+01 6.577026e+01 3.584640e+01 6.298549e+01 5.532469e+01 5.344921e+01 4.725721e+01
<GCONST> 6.850294e+01
<MIXTURE> 2 5.000000e-01
<MEAN> 12
 -1.865113e-01 -5.056024e+00 -1.267882e+00 -7.235842e+00 -1.066234e+01 -3.682383e+00 -8.629509e+00 -9.189730e+00 -1.049346e+00 -4.770479e+00 -9.659652e-01 -6.408173e+00
<VARIANCE> 12
 1.119581e+01 1.131019e+02 2.783422e+01 5.741802e+01 4.244472e+01 8.341968e+01 6.577026e+01 3.584640e+01 6.298549e+01 5.532469e+01 5.344921e+01 4.725721e+01
<GCONST> 6.850294e+01
<MIXTURE> 3 2.500000e-01
<MEAN> 12
 4.826915e-01 -2.929036e+00 -2.127194e-01 -5.720347e+00 -9.359348e+00 -1.855695e+00 -7.007532e+00 -7.992292e+00 5.379220e-01 -3.282868e+00 4.962143e-01 -5.033295e+00
<VARIANCE> 12
 1.119581e+01 1.131019e+02 2.783422e+01 5.741802e+01 4.244472e+01 8.341968e+01 6.577026e+01 3.584640e+01 6.298549e+01 5.532469e+01 5.344921e+01 4.725721e+01
<GCONST> 6.850294e+01
<TRANSP> 5
 0.000000e+00 1.000000e+00 0.000000e+00 0.000000e+00 0.000000e+00
 0.000000e+00 6.220002e-01 3.779998e-01 0.000000e+00 0.000000e+00
 0.000000e+00 0.000000e+00 5.322663e-01 4.677337e-01 0.000000e+00
 0.000000e+00 0.000000e+00 0.000000e+00 2.366433e-01 7.633567e-01
 0.000000e+00 0.000000e+00 0.000000e+00 0.000000e+00 0.000000e+00
<ENDHMM>
~h "n"
<BEGINHMM>
<NUMSTATES> 5
<STATE> 2
<NUMMIXES> 3
<MIXTURE> 1 2.500000e-01
<MEAN> 12
 9.388298e-01 7.175609e+00 5.998521e+00 1.627056e+00 -5.685405e+00 -6.748857e+00 2.863288e-01 -7.113957e+00 -3.648793e+00 5.524759e+00 -3.313375e+00 -5.285867e+00
<VARIANCE> 12
 9.370756e+00 1.178036e+02 3.187706e+01 2.156697e+01 5.107704e+01 4.916171e+01 7.476632e+01 4.053651e+01 5.103981e+01 4.577424e+01 5.432195e+01 4.030482e+01
<GCONST> 6.688694e+01
<MIXTURE> 2 5.000000e-01
<MEAN> 12
 -8.978717e-01 6.633668e-01 2.610934e+00 -1.159359e+00 -9.973497e+00 -1.095578e+01 -4.901722e+00 -1.093406e+01 -7.935322e+00 1.465360e+00 -7.735580e+00 -9.095032e+00
<VARIANCE> 12
 9.370756e+00 1.178036e+02 3.187706e+01 2.156697e+01 5.107704e+01 4.916171e+01 7.476632e+01 4.053651e+01 5.103981e+01 4.577424e+01 5.432195e+01 4.030482e+01
<GCONST> 6.688694e+01
<MIXTURE> 3 2.500000e-01
<MEAN> 12
 -2.856379e-01 2.834114e+00 3.740130e+00 -2.305540e-01 -8.544133e+00 -9.553473e+00 -3.172372e+00 -9.660689e+00 -6.506479e+00 2.818493e+00 -6.261512e+00 -7.825310e+00
<VARIANCE> 12
 9.370756e+00 1.178036e+02 3.187706e+01 2.156697e+01 5.107704e+01 4.916171e+01 7.476632e+01 4.053651e+01 5.103981e+01 4.577424e+01 5.432195e+01 4.030482e+01
<GCONST> 6.688694e+01
<STATE> 3
<NUMMIXES> 3
<MIXTURE> 1 2.500000e-01
<MEAN> 12
 -1.164484e+00 2.840113e+00 7.218143e+00 1.374798e+00 -6.208859e+00 -5.345979e+00 -3.747192e+00 -3.962095e+00 9.372728e-01 1.118543e+00 -1.199704e+00 -2.266241e+00
<VARIANCE> 12
 2.796382e+01 1.838461e+02 4.689872e+01 2.888185e+01 7.751620e+01 6.328010e+01 5.556264e+01 4.399121e+01 6.107210e+01 4.072950e+01 3.245740e+01 4.486380e+01
<GCONST> 6.921287e+01
<MIXTURE> 2 5.000000e-01
<MEAN> 12
 -4.337334e+00 -5.295279e+00 3.109184e+00 -1.849713e+00 -1.149146e+01 -1.011891e+01 -8.219613e+00 -7.941648e+00 -3.751646e+00 -2.710638e+00 -4.617988e+00 -6.285068e+00
<VARIANCE> 12
 2.796382e+01 1.838461e+02 4.689872e+01 2.888185e+01 7.751620e+01 6.328010e+01 5.556264e+01 4.399121e+01 6.107210e+01 4.072950e+01 3.245740e+01 4.486380e+01
<GCONST> 6.921287e+01
<MIXTURE> 3 2.500000e-01
<MEAN> 12
 -3.279717e+00 -2.583481e+00 4.478837e+00 -7.748758e-01 -9.730591e+00 -8.527930e+00 -6.728806e+00 -6.615130e+00 -2.188673e+00 -1.434244e+00 -3.478560e+00 -4.945459e+00
<VARIANCE> 12
 2.796382e+01 1.838461e+02 4.689872e+01 2.888185e+01 7.751620e+01 6.328010e+01 5.556264e+01 4.399121e+01 6.107210e+01 4.072950e+01 3.245740e+01 4.486380e+01
<GCONST> 6.921287e+01
<STATE> 4
<NUMMIXES> 3
<MIXTURE> 1 2.500000e-01
<MEAN> 12
 -3.372507e-01 -9.355865e-01 5.670719e+00 -2.127962e+00 -6.601333e+00 -1.949750e+00 -8.857550e+00 -1.003475e+00 3.601925e+00 -1.572180e-02 1.573123e+00 -2.775718e+00
<VARIANCE> 12
 2.213169e+01 1.967706e+02 4.465386e+01 3.617220e+01 9.249763e+01 6.774729e+01 6.954517e+01 5.919751e+01 6.641263e+01 5.816518e+01 3.559991e+01 6.876037e+01
<GCONST> 7.094878e+01
<MIXTURE> 2 5.000000e-01
<MEAN> 12
 -3.159911e+00 -9.352083e+00 1.661307e+00 -5.736562e+00 -1.237187e+01 -6.888275e+00 -1.386118e+01 -5.619870e+00 -1.287711e+00 -4.591688e+00 -2.006817e+00 -7.751031e+00
<VARIANCE> 12
 2.213169e+01 1.967706e+02 4.465386e+01 3.617220e+01 9.249763e+01 6.774729e+01 6.954517e+01 5.919751e+01 6.641263e+01 5.816518e+01 3.559991e+01 6.876037e+01
<GCONST> 7.094878e+01
<MIXTURE> 3 2.500000e-01
<MEAN> 12
 -2.219024e+00 -6.546584e+00 2.997778e+00 -4.533695e+00 -1.044836e+01 -5.242100e+00 -1.219330e+01 -4.081072e+00 3.421676e-01 -3.066366e+00 -8.135033e-01 -6.092593e+00
<VARIANCE> 12
 2.213169e+01 1.967706e+02 4.465386e+01 3.617220e+01 9.249763e+01 6.774729e+01 6.954517e+01 5.919751e+01 6.641263e+01 5.816518e+01 3.559991e+01 6.876037e+01
<GCONST> 7.094878e+01
<TRANSP> 5
 0.000000e+00 1.000000e+00 0.000000e+00 0.000000e+00 0.000000e+00
 0.000000e+00 6.550207e-01 3.449793e-01 0.000000e+00 0.000000e+00
 0.000000e+00 0.000000e+00 1.986376e-01 8.013624e-01 0.000000e+00
 0.000000e+00 0.000000e+00 0.000000e+00 2.871224e-01 7.128776e-01
 0.000000e+00 0.000000e+00 0.000000e+00 0.000000e+00 0.000000e+00
<ENDHMM>
~h "o"
<BEGINHMM>
<NUMSTATES> 5
<STATE> 2
<NUMMIXES> 3
<MIXTURE> 1 2.500000e-01
<MEAN> 12
 2.559244e+00 -2.461572e-01 9.519976e-01 -8.868752e+00 -1.092210e+01 3.564120e+00 -9.034348e+00 -2.565428e+00 1.243289e-01 -2.458670e+00 1.036044e+01 -1.692839e-01
<VARIANCE> 12
 2.003916e+01 1.290951e+02 1.888569e+01 6.235934e+01 4.743355e+01 5.486394e+01 9.087966e+01 8.283297e+01 5.842653e+01 7.059327e+01 9.083474e+01 4.134667e+01
<GCONST> 7.033038e+01
<MIXTURE> 2 5.000000e-01
<MEAN> 12
 -1.266633e-01 -7.063358e+00 -1.655463e+00 -1.360683e+01 -1.505442e+01 -8.800914e-01 -1.475420e+01 -8.026186e+00 -4.461906e+00 -7.499858e+00 4.642002e+00 -4.027367e+00
<VARIANCE> 12
 2.003916e+01 1.290951e+02 1.888569e+01 6.235934e+01 4.743355e+01 5.486394e+01 9.087966e+01 8.283297e+01 5.842653e+01 7.059327e+01 9.083474e+01 4.134667e+01
<GCONST> 7.033038e+01
<MIXTURE> 3 2.500000e-01
<MEAN> 12
 7.686391e-01 -4.790958e+00 -7.863092e-01 -1.202747e+01 -1.367698e+01 6.013125e-01 -1.284758e+01 -6.205933e+00 -2.933161e+00 -5.819462e+00 6.548147e+00 -2.741339e+00
<VARIANCE> 12
 2.003916e+01 1.290951e+02 1.888569e+01 6.235934e+01 4.743355e+01 5.486394e+01 9.087966e+01 8.283297e+01 5.842653e+01 7.059327e+01 9.083474e+01 4.134667e+01
<GCONST> 7.033038e+01
<STATE> 3
<NUMMIXES> 3
<MIXTURE> 1 2.500000e-01
<MEAN> 12
 3.317575e+00 4.661393e+00 9.916367e-01 -7.615235e+00 -8.583076e+00 1.549055e+00 -5.287540e+00 -8.587584e+00 -2.033504e+00 1.954323e+00 7.563227e+00 2.718273e+00
<VARIANCE> 12
 8.958756e+00 9.572195e+01 1.755182e+01 3.473814e+01 4.019099e+01 4.960393e+01 4.902248e+01 7.065390e+01 6.388233e+01 7.951292e+01 7.115503e+01 3.775917e+01
<GCONST> 6.739844e+01
<MIXTURE> 2 5.000000e-01
<MEAN> 12
 1.521704e+00 -1.208863e+00 -1.522057e+00 -1.115158e+01 -1.238686e+01 -2.676748e+00 -9.488503e+00 -1.363094e+01 -6.829089e+00 -3.395878e+00 2.502020e+00 -9.686362e-01
<VARIANCE> 12
 8.958756e+00 9.572195e+01 1.755182e+01 3.473814e+01 4.019099e+01 4.960393e+01 4.902248e+01 7.065390e+01 6.388233e+01 7.951292e+01 7.115503e+01 3.775917e+01
<GCONST> 6.739844e+01
<MIXTURE> 3 2.500000e-01
<MEAN> 12
 2.120328e+00 7.478887e-01 -6.841591e-01 -9.972798e+00 -1.111893e+01 -1.268147e+00 -8.088182e+00 -1.194982e+01 -5.230561e+00 -1.612478e+00 4.189089e+00 2.603337e-01
<VARIANCE> 12
 8.958756e+00 9.572195e+01 1.755182e+01 3.473814e+01 4.019099e+01 4.960393e+01 4.902248e+01 7.065390e+01 6.388233e+01 7.951292e+01 7.115503e+01 3.775917e+01
<GCONST> 6.739844e+01
<STATE> 4
<NUMMIXES> 3
<MIXTURE> 1 2.500000e-01
<MEAN> 12
 1.582405e+00 2.133942e+00 2.286357e+00 -2.771613e+00 -7.713804e+00 -6.254742e-01 -6.340020e+00 -7.218844e+00 7.370288e-01 2.894005e+00 6.081548e+00 1.068636e+00
<VARIANCE> 12
 1.180065e+01 1.613929e+02 2.649925e+01 4.707040e+01 6.162193e+01 4.663615e+01 6.245771e+01 4.482164e+01 6.578466e+01 7.532536e+01 6.327720e+01 4.699505e+01
<GCONST> 6.914162e+01
<MIXTURE> 2 5.000000e-01
<MEAN> 12
 -4.787190e-01 -5.488488e+00 -8.022887e-01 -6.888085e+00 -1.242378e+01 -4.722914e+00 -1.108183e+01 -1.123578e+01 -4.129436e+00 -2.313406e+00 1.308730e+00 -3.044540e+00
<VARIANCE> 12
 1.180065e+01 1.613929e+02 2.649925e+01 4.707040e+01 6.162193e+01 4.663615e+01 6.245771e+01 4.482164e+01 6.578466e+01 7.532536e+01 6.327720e+01 4.699505e+01
<GCONST> 6.914162e+01
<MIXTURE> 3 2.500000e-01
<MEAN> 12
 2.083225e-01 -2.947678e+00 2.272598e-01 -5.515928e+00 -1.085379e+01 -3.357101e+00 -9.501227e+00 -9.896803e+00 -2.507281e+00 -5.776025e-01 2.899669e+00 -1.673481e+00
<VARIANCE> 12
 1.180065e+01 1.613929e+02 2.649925e+01 4.707040e+01 6.162193e+01 4.663615e+01 6.245771e+01 4.482164e+01 6.578466e+01 7.532536e+01 6.327720e+01 4.699505e+01
<GCONST> 6.914162e+01
<TRANSP> 5
 0.000000e+00 1.000000e+00 0.000000e+00 0.000000e+00 0.000000e+00
 0.000000e+00 4.933168e-01 5.066832e-01 0.000000e+00 0.000000e+00
 0.000000e+00 0.000000e+00 5.595917e-01 4.404083e-01 0.000000e+00
 0.000000e+00 0.000000e+00 0.000000e+00 6.203829e-03 9.937962e-01
 0.000000e+00 0.000000e+00 0.000000e+00 0.000000e+00 0.000000e+00
<ENDHMM>
~h "p"
<BEGINHMM>
<NUMSTATES> 5
<STATE> 2
<NUMMIXES> 3
<MIXTURE> 1 2.500000e-01
<MEAN> 12
 -2.839221e+00 6.431265e+00 3.258343e+00 4.473725e+00 -2.753045e+00 6.142540e-01 -4.785588e+00 1.119969e+00 -5.015304e-01 3.324128e+00 6.459091e-01 1.467864e+00
<VARIANCE> 12
 2.265123e+01 7.642555e+01 2.145269e+01 2.615742e+01 3.499597e+01 2.349787e+01 2.712146e+01 3.095230e+01 2.701072e+01 3.129004e+01 1.949920e+01 1.797779e+01
<GCONST> 6.188500e+01
<MIXTURE> 2 5.000000e-01
<MEAN> 12
 -5.694820e+00 1.185963e+00 4.793200e-01 1.405066e+00 -6.302489e+00 -2.294222e+00 -7.910285e+00 -2.218119e+00 -3.619841e+00 -3.212202e-02 -2.003565e+00 -1.076150e+00
<VARIANCE> 12
 2.265123e+01 7.642555e+01 2.145269e+01 2.615742e+01 3.499597e+01 2.349787e+01 2.712146e+01 3.095230e+01 2.701072e+01 3.129004e+01 1.949920e+01 1.797779e+01
<GCONST> 6.188500e+01
<MIXTURE> 3 2.500000e-01
<MEAN> 12
 -4.742954e+00 2.934397e+00 1.405661e+00 2.427952e+00 -5.119341e+00 -1.324730e+00 -6.868719e+00 -1.105423e+00 -2.580404e+00 1.086628e+00 -1.120407e+00 -2.281455e-01
<VARIANCE> 12
 2.265123e+01 7.642555e+01 2.145269e+01 2.615742e+01 3.499597e+01 2.349787e+01 2.712146e+01 3.095230e+01 2.701072e+01 3.129004e+01 1.949920e+01 1.797779e+01
<GCONST> 6.188500e+01
<STATE> 3
<NUMMIXES> 3
<MIXTURE> 1 2.500000e-01
<MEAN> 12
 -7.045557e+00 9.236329e-01 3.537382e+00 3.230401e+00 -1.620214e+00 -2.931579e+00 -4.346928e+00 1.914244e-01 3.419754e+00 2.763862e+00 1.024332e+00 1.136972e+00
<VARIANCE> 12
 5.852262e+01 7.913605e+01 3.122007e+01 3.076706e+01 6.159987e+01 4.585934e+01 2.615176e+01 3.127383e+01 3.387940e+01 3.463610e+01 2.599617e+01 1.966682e+01
<GCONST> 6.532014e+01
<MIXTURE> 2 5.000000e-01
<MEAN> 12
 -1.163556e+01 -4.413874e+00 1.848865e-01 -9.768331e-02 -6.329349e+00 -6.994750e+00 -7.415255e+00 -3.163956e+00 -7.260728e-02 -7.672845e-01 -2.034855e+00 -1.523865e+00
<VARIANCE> 12
 5.852262e+01 7.913605e+01 3.122007e+01 3.076706e+01 6.159987e+01 4.585934e+01 2.615176e+01 3.127383e+01 3.387940e+01 3.463610e+01 2.599617e+01 1.966682e+01
<GCONST> 6.532014e+01
<MIXTURE> 3 2.500000e-01
<MEAN> 12
 -1.010556e+01 -2.634705e+00 1.302385e+00 1.011678e+00 -4.759637e+00 -5.640360e+00 -6.392479e+00 -2.045496e+00 1.091513e+00 4.097644e-01 -1.015126e+00 -6.369197e-01
<VARIANCE> 12
 5.852262e+01 7.913605e+01 3.122007e+01 3.076706e+01 6.159987e+01 4.585934e+01 2.615176e+01 3.127383e+01 3.387940e+01 3.463610e+01 2.599617e+01 1.966682e+01
<GCONST> 6.532014e+01
<STATE> 4
<NUMMIXES> 3
<MIXTURE> 1 2.500000e-01
<MEAN> 12
 1.006654e+00 -8.261359e+00 1.939706e+00 -1.075784e+00 -9.599681e+00 -3.660405e-01 -8.194596e+00 -2.378535e+00 9.385282e+00 -6.966230e-01 4.570050e+00 -2.752364e+00
<VARIANCE> 12
 2.245044e+01 1.989595e+02 2.262894e+01 5.460992e+01 8.157245e+01 4.170410e+01 4.662102e+01 3.894733e+01 6.828835e+01 8.694727e+01 6.998235e+01 6.718307e+01
<GCONST> 7.035944e+01
<MIXTURE> 2 5.000000e-01
<MEAN> 12
 -1.836260e+00 -1.672454e+01 -9.144868e-01 -5.509696e+00 -1.501873e+01 -4.240763e+00 -1.229137e+01 -6.123003e+00 4.427076e+00 -6.291355e+00 -4.492772e-01 -7.670280e+00
<VARIANCE> 12
 2.245044e+01 1.989595e+02 2.262894e+01 5.460992e+01 8.157245e+01 4.170410e+01 4.662102e+01 3.894733e+01 6.828835e+01 8.694727e+01 6.998235e+01 6.718307e+01
<GCONST> 7.035944e+01
<MIXTURE> 3 2.500000e-01
<MEAN> 12
 -8.886216e-01 -1.390348e+01 3.691095e-02 -4.031725e+00 -1.321238e+01 -2.949189e+00 -1.092578e+01 -4.874847e+00 6.079811e+00 -4.426444e+00 1.223832e+00 -6.030975e+00
<VARIANCE> 12
 2.245044e+01 1.989595e+02 2.262894e+01 5.460992e+01 8.157245e+01 4.170410e+01 4.662102e+01 3.894733e+01 6.828835e+01 8.694727e+01 6.998235e+01 6.718307e+01
<GCONST> 7.035944e+01
<TRANSP> 5
 0.000000e+00 1.000000e+00 0.000000e+00 0.000000e+00 0.000000e+00
 0.000000e+00 6.891645e-01 3.108355e-01 0.000000e+00 0.000000e+00
 0.000000e+00 0.000000e+00 6.092389e-01 3.907610e-01 0.000000e+00
 0.000000e+00 0.000000e+00 0.000000e+00 5.171685e-01 4.828315e-01
 0.000000e+00 0.000000e+00 0.000000e+00 0.000000e+00 0.000000e+00
<ENDHMM>
~h "s"
<BEGINHMM>
<NUMSTATES> 5
<STATE> 2
<NUMMIXES> 3
<MIXTURE> 1 2.500000e-01
<MEAN> 12
 -9.806289e+00 7.391315e+00 7.164349e+00 9.937916e-01 -5.003872e-01 -2.683884e+00 -3.904374e+00 -6.774094e-01 3.221835e+00 7.726883e-01 5.479121e-02 2.551020e+00
<VARIANCE> 12
 4.836062e+01 1.461991e+02 4.629494e+01 3.961461e+01 7.423277e+01 7.663158e+01 5.654538e+01 3.473159e+01 4.661366e+01 3.465207e+01 3.545593e+01 2.453559e+01
<GCONST> 6.881699e+01
<MIXTURE> 2 5.000000e-01
<MEAN> 12
 -1.397880e+01 1.365454e-01 3.081925e+00 -2.782617e+00 -5.669894e+00 -7.936251e+00 -8.416174e+00 -4.213420e+00 -8.746170e-01 -2.759272e+00 -3.517901e+00 -4.209844e-01
<VARIANCE> 12
 4.836062e+01 1.461991e+02 4.629494e+01 3.961461e+01 7.423277e+01 7.663158e+01 5.654538e+01 3.473159e+01 4.661366e+01 3.465207e+01 3.545593e+01 2.453559e+01
<GCONST> 6.881699e+01
<MIXTURE> 3 2.500000e-01
<MEAN> 12
 -1.258796e+01 2.554802e+00 4.442733e+00 -1.523814e+00 -3.946725e+00 -6.185462e+00 -6.912241e+00 -3.034750e+00 4.908670e-01 -1.581952e+00 -2.327004e+00 5.696838e-01
<VARIANCE> 12
 4.836062e+01 1.461991e+02 4.629494e+01 3.961461e+01 7.423277e+01 7.663158e+01 5.654538e+01 3.473159e+01 4.661366e+01 3.465207e+01 3.545593e+01 2.453559e+01
<GCONST> 6.881699e+01
<STATE> 3
<NUMMIXES> 3
<MIXTURE> 1 2.500000e-01
<MEAN> 12
 -2.278986e+01 6.138772e+00 2.522979e+00 -9.634151e-01 2.021253e+00 -2.902638e+00 -3.485403e-01 4.233709e+00 3.648904e+00 1.480527e+00 1.780185e+00 3.589363e+00
<VARIANCE> 12
 3.297583e+01 5.988079e+01 4.741244e+01 2.353108e+01 5.348496e+01 4.272023e+01 4.030163e+01 3.577790e+01 3.052924e+01 2.336253e+01 2.411837e+01 1.948809e+01
<GCONST> 6.439026e+01
<MIXTURE> 2 5.000000e-01
<MEAN> 12
 -2.623533e+01 1.495811e+00 -1.608422e+00 -3.873946e+00 -2.366752e+00 -6.824281e+00 -4.157554e+00 6.448314e-01 3.337076e-01 -1.419561e+00 -1.166443e+00 9.406436e-01
<VARIANCE> 12
 3.297583e+01 5.988079e+01 4.741244e+01 2.353108e+01 5.348496e+01 4.272023e+01 4.030163e+01 3.577790e+01 3.052924e+01 2.336253e+01 2.411837e+01 1.948809e+01
<GCONST> 6.439026e+01
<MIXTURE> 3 2.500000e-01
<MEAN> 12
 -2.508684e+01 3.043465e+00 -2.312886e-01 -2.903769e+00 -9.040841e-01 -5.517067e+00 -2.887883e+00 1.841124e+00 1.438773e+00 -4.528654e-01 -1.842337e-01 1.823550e+00
<VARIANCE> 12
 3.297583e+01 5.988079e+01 4.741244e+01 2.353108e+01 5.348496e+01 4.272023e+01 4.030163e+01 3.577790e+01 3.052924e+01 2.336253e+01 2.411837e+01 1.948809e+01
<GCONST> 6.439026e+01
<STATE> 4
<NUMMIXES> 3
<MIXTURE> 1 2.500000e-01
<MEAN> 12
 -8.316266e+00 1.964451e+00 6.604707e+00 5.149434e-01 -3.714066e+00 -2.733137e+00 -4.651338e+00 2.810051e-01 3.934437e+00 1.552118e+00 1.524178e+00 1.834051e+00
<VARIANCE> 12
 7.193856e+01 1.532344e+02 6.451160e+01 3.549304e+01 8.536364e+01 7.586494e+01 4.491555e+01 4.446800e+01 4.745524e+01 4.912580e+01 3.557555e+01 4.642860e+01
<GCONST> 7.063766e+01
<MIXTURE> 2 5.000000e-01
<MEAN> 12
 -1.340526e+01 -5.462823e+00 1.785560e+00 -3.059619e+00 -9.257612e+00 -7.959166e+00 -8.672482e+00 -3.720055e+00 -1.988283e-01 -2.653270e+00 -2.054537e+00 -2.254261e+00
<VARIANCE> 12
 7.193856e+01 1.532344e+02 6.451160e+01 3.549304e+01 8.536364e+01 7.586494e+01 4.491555e+01 4.446800e+01 4.745524e+01 4.912580e+01 3.557555e+01 4.642860e+01
<GCONST> 7.063766e+01
<MIXTURE> 3 2.500000e-01
<MEAN> 12
 -1.170893e+01 -2.987065e+00 3.391942e+00 -1.868098e+00 -7.409764e+00 -6.217156e+00 -7.332100e+00 -2.386368e+00 1.178927e+00 -1.251474e+00 -8.616318e-01 -8.914906e-01
<VARIANCE> 12
 7.193856e+01 1.532344e+02 6.451160e+01 3.549304e+01 8.536364e+01 7.586494e+01 4.491555e+01 4.446800e+01 4.745524e+01 4.912580e+01 3.557555e+01 4.642860e+01
<GCONST> 7.063766e+01
<TRANSP> 5
 0.000000e+00 1.000000e+00 0.000000e+00 0.000000e+00 0.000000e+00
 0.000000e+00 4.675564e-01 5.324436e-01 0.000000e+00 0.000000e+00
 0.000000e+00 0.000000e+00 8.397918e-01 1.602082e-01 0.000000e+00
 0.000000e+00 0.000000e+00 0.000000e+00 3.737769e-01 6.262231e-01
 0.000000e+00 0.000000e+00 0.000000e+00 0.000000e+00 0.000000e+00
<ENDHMM>
~h "t"
<BEGINHMM>
<NUMSTATES> 5
<STATE> 2
<NUMMIXES> 3
<MIXTURE> 1 2.500000e-01
<MEAN> 12
 -4.301657e+00 5.319604e+00 4.255491e+00 2.796746e+00 -3.094633e+00 -7.605231e-01 -4.621355e+00 2.835917e-01 1.471094e+00 3.604688e+00 9.563541e-02 8.289125e-01
<VARIANCE> 12
 2.830947e+01 9.012651e+01 3.179966e+01 3.311320e+01 4.133241e+01 3.343563e+01 3.230997e+01 3.303947e+01 3.810491e+01 3.065734e+01 2.678700e+01 2.489133e+01
<GCONST> 6.462832e+01
<MIXTURE> 2 5.000000e-01
<MEAN> 12
 -7.494055e+00 -3.764946e-01 8.720202e-01 -6.558986e-01 -6.952050e+00 -4.229936e+00 -8.031866e+00 -3.165206e+00 -2.232656e+00 2.825435e-01 -3.009734e+00 -2.164560e+00
<VARIANCE> 12
 2.830947e+01 9.012651e+01 3.179966e+01 3.311320e+01 4.133241e+01 3.343563e+01 3.230997e+01 3.303947e+01 3.810491e+01 3.065734e+01 2.678700e+01 2.489133e+01
<GCONST> 6.462832e+01
<MIXTURE> 3 2.500000e-01
<MEAN> 12
 -6.429922e+00 1.522205e+00 1.999844e+00 4.949828e-01 -5.666244e+00 -3.073465e+00 -6.895029e+00 -2.015607e+00 -9.980727e-01 1.389925e+00 -1.974611e+00 -1.166736e+00
<VARIANCE> 12
 2.830947e+01 9.012651e+01 3.179966e+01 3.311320e+01 4.133241e+01 3.343563e+01 3.230997e+01 3.303947e+01 3.810491e+01 3.065734e+01 2.678700e+01 2.489133e+01
<GCONST> 6.462832e+01
<STATE> 3
<NUMMIXES> 3
<MIXTURE> 1 2.500000e-01
<MEAN> 12
 -1.254611e+01 -2.964380e-01 2.191648e+00 -3.420967e+00 -9.775890e-01 -1.387166e+00 -1.624703e+00 2.695119e+00 3.944977e+00 3.246959e+00 1.585747e+00 2.229699e+00
<VARIANCE> 12
 6.463809e+01 7.255701e+01 3.547995e+01 2.869150e+01 5.238930e+01 3.679148e+01 3.764047e+01 4.208422e+01 3.754321e+01 3.402454e+01 2.808436e+01 2.514188e+01
<GCONST> 6.607731e+01
<MIXTURE> 2 5.000000e-01
<MEAN> 12
 -1.736998e+01 -5.407262e+00 -1.382255e+00 -6.634834e+00 -5.320416e+00 -5.026525e+00 -5.305812e+00 -1.197222e+00 2.686257e-01 -2.528747e-01 -1.593934e+00 -7.788020e-01
<VARIANCE> 12
 6.463809e+01 7.255701e+01 3.547995e+01 2.869150e+01 5.238930e+01 3.679148e+01 3.764047e+01 4.208422e+01 3.754321e+01 3.402454e+01 2.808436e+01 2.514188e+01
<GCONST> 6.607731e+01
<MIXTURE> 3 2.500000e-01
<MEAN> 12
 -1.576202e+01 -3.703654e+00 -1.909539e-01 -5.563545e+00 -3.872807e+00 -3.813405e+00 -4.078776e+00 1.002247e-01 1.494076e+00 9.137366e-01 -5.340399e-01 2.240316e-01
<VARIANCE> 12
 6.463809e+01 7.255701e+01 3.547995e+01 2.869150e+01 5.238930e+01 3.679148e+01 3.764047e+01 4.208422e+01 3.754321e+01 3.402454e+01 2.808436e+01 2.514188e+01
<GCONST> 6.607731e+01
<STATE> 4
<NUMMIXES> 3
<MIXTURE> 1 2.500000e-01
<MEAN> 12
 -6.111637e+00 -4.477544e-01 5.733751e+00 -7.968715e-01 -3.432715e+00 -1.259039e+00 -5.332536e+00 5.241394e-02 5.001840e+00 1.787663e+00 3.232674e+00 4.283419e-01
<VARIANCE> 12
 6.124643e+01 1.216257e+02 4.788540e+01 5.257383e+01 7.079391e+01 8.159372e+01 6.094403e+01 4.546629e+01 5.682606e+01 4.310455e+01 3.996749e+01 5.062731e+01
<GCONST> 7.080605e+01
<MIXTURE> 2 5.000000e-01
<MEAN> 12
 -1.080724e+01 -7.064797e+00 1.581795e+00 -5.147340e+00 -8.481062e+00 -6.678794e+00 -1.001653e+01 -3.993308e+00 4.788557e-01 -2.151580e+00 -5.605173e-01 -3.840830e+00
<VARIANCE> 12
 6.124643e+01 1.216257e+02 4.788540e+01 5.257383e+01 7.079391e+01 8.159372e+01 6.094403e+01 4.546629e+01 5.682606e+01 4.310455e+01 3.996749e+01 5.062731e+01
<GCONST> 7.080605e+01
<MIXTURE> 3 2.500000e-01
<MEAN> 12
 -9.242041e+00 -4.859116e+00 2.965780e+00 -3.697184e+00 -6.798280e+00 -4.872209e+00 -8.455202e+00 -2.644734e+00 1.986517e+00 -8.384991e-01 7.038797e-01 -2.417773e+00
<VARIANCE> 12
 6.124643e+01 1.216257e+02 4.788540e+01 5.257383e+01 7.079391e+01 8.159372e+01 6.094403e+01 4.546629e+01 5.682606e+01 4.310455e+01 3.996749e+01 5.062731e+01
<GCONST> 7.080605e+01
<TRANSP> 5
 0.000000e+00 1.000000e+00 0.000000e+00 0.000000e+00 0.000000e+00
 0.000000e+00 5.796174e-01 4.203826e-01 0.000000e+00 0.000000e+00
 0.000000e+00 0.000000e+00 6.839709e-01 3.160291e-01 0.000000e+00
 0.000000e+00 0.000000e+00 0.000000e+00 3.978629e-01 6.021371e-01
 0.000000e+00 0.000000e+00 0.000000e+00 0.000000e+00 0.000000e+00
<ENDHMM>
~h "u"
<BEGINHMM>
<NUMSTATES> 5
<STATE> 2
<NUMMIXES> 3
<MIXTURE> 1 2.500000e-01
<MEAN> 12
 2.635212e+00 5.975795e+00 2.341869e+00 -1.993616e+00 -3.336440e+00 1.803029e-01 -7.332885e+00 -8.896822e+00 -2.933945e+00 8.909378e-01 4.078168e+00 2.546667e+00
<VARIANCE> 12
 1.807187e+01 1.064362e+02 1.625913e+01 4.581616e+01 6.368370e+01 4.206874e+01 3.460082e+01 4.774009e+01 5.101467e+01 4.052206e+01 3.872442e+01 2.774214e+01
<GCONST> 6.614599e+01
<MIXTURE> 2 5.000000e-01
<MEAN> 12
 8.455062e-02 -2.142805e-01 -7.748806e-02 -6.054874e+00 -8.124564e+00 -3.711322e+00 -1.086223e+01 -1.304247e+01 -7.219418e+00 -2.928479e+00 3.444310e-01 -6.135812e-01
<VARIANCE> 12
 1.807187e+01 1.064362e+02 1.625913e+01 4.581616e+01 6.368370e+01 4.206874e+01 3.460082e+01 4.774009e+01 5.101467e+01 4.052206e+01 3.872442e+01 2.774214e+01
<GCONST> 6.614599e+01
<MIXTURE> 3 2.500000e-01
<MEAN> 12
 9.347711e-01 1.849078e+00 7.289642e-01 -4.701122e+00 -6.528523e+00 -2.414114e+00 -9.685783e+00 -1.166059e+01 -5.790927e+00 -1.655340e+00 1.589010e+00 4.398350e-01
<VARIANCE> 12
 1.807187e+01 1.064362e+02 1.625913e+01 4.581616e+01 6.368370e+01 4.206874e+01 3.460082e+01 4.774009e+01 5.101467e+01 4.052206e+01 3.872442e+01 2.774214e+01
<GCONST> 6.614599e+01
<STATE> 3
<NUMMIXES> 3
<MIXTURE> 1 2.500000e-01
<MEAN> 12
 3.212547e+00 2.276280e+00 2.074086e+00 -5.909019e+00 -1.242996e+01 3.780416e+00 -7.185357e+00 -9.450869e+00 -1.596613e+00 -4.710309e+00 4.951091e+00 3.191059e+00
<VARIANCE> 12
 1.266818e+01 1.827943e+02 1.969463e+01 6.307534e+01 8.992857e+01 6.062395e+01 6.146300e+01 5.360147e+01 5.837062e+01 8.253628e+01 4.670709e+01 3.146453e+01
<GCONST> 6.940318e+01
<MIXTURE> 2 5.000000e-01
<MEAN> 12
 1.077003e+00 -5.835807e+00 -5.886320e-01 -1.067422e+01 -1.811980e+01 -8.912665e-01 -1.188926e+01 -1.384365e+01 -6.180653e+00 -1.016128e+01 8.505362e-01 -1.745361e-01
<VARIANCE> 12
 1.266818e+01 1.827943e+02 1.969463e+01 6.307534e+01 8.992857e+01 6.062395e+01 6.146300e+01 5.360147e+01 5.837062e+01 8.253628e+01 4.670709e+01 3.146453e+01
<GCONST> 6.940318e+01
<MIXTURE> 3 2.500000e-01
<MEAN> 12
 1.788851e+00 -3.131778e+00 2.989407e-01 -9.085819e+00 -1.622319e+01 6.659611e-01 -1.032129e+01 -1.237939e+01 -4.652640e+00 -8.344289e+00 2.217388e+00 9.473288e-01
<VARIANCE> 12
 1.266818e+01 1.827943e+02 1.969463e+01 6.307534e+01 8.992857e+01 6.062395e+01 6.146300e+01 5.360147e+01 5.837062e+01 8.253628e+01 4.670709e+01 3.146453e+01
<GCONST> 6.940318e+01
<STATE> 4
<NUMMIXES> 3
<MIXTURE> 1 2.500000e-01
<MEAN> 12
 2.319966e+00 8.334723e+00 3.996394e+00 -5.008863e+00 -7.713050e+00 -7.709894e-01 -4.577468e+00 -4.393239e+00 -2.969601e-01 1.391241e+00 -3.818345e-02 1.362026e-01
<VARIANCE> 12
 2.104535e+01 9.948210e+01 2.434560e+01 7.889757e+01 5.419865e+01 6.249193e+01 6.442368e+01 4.138979e+01 3.135093e+01 6.584556e+01 4.553903e+01 3.063018e+01
<GCONST> 6.815101e+01
<MIXTURE> 2 5.000000e-01
<MEAN> 12
 -4.325465e-01 2.350281e+00 1.035919e+00 -1.033832e+01 -1.213023e+01 -5.514100e+00 -9.393331e+00 -8.253333e+00 -3.656474e+00 -3.477476e+00 -4.087140e+00 -3.184470e+00
<VARIANCE> 12
 2.104535e+01 9.948210e+01 2.434560e+01 7.889757e+01 5.419865e+01 6.249193e+01 6.442368e+01 4.138979e+01 3.135093e+01 6.584556e+01 4.553903e+01 3.063018e+01
<GCONST> 6.815101e+01
<MIXTURE> 3 2.500000e-01
<MEAN> 12
 4.849577e-01 4.345095e+00 2.022744e+00 -8.561835e+00 -1.065784e+01 -3.933063e+00 -7.788043e+00 -6.966635e+00 -2.536636e+00 -1.854570e+00 -2.737488e+00 -2.077579e+00
<VARIANCE> 12
 2.104535e+01 9.948210e+01 2.434560e+01 7.889757e+01 5.419865e+01 6.249193e+01 6.442368e+01 4.138979e+01 3.135093e+01 6.584556e+01 4.553903e+01 3.063018e+01
<GCONST> 6.815101e+01
<TRANSP> 5
 0.000000e+00 1.000000e+00 0.000000e+00 0.000000e+00 0.000000e+00
 0.000000e+00 4.520411e-01 5.479589e-01 0.000000e+00 0.000000e+00
 0.000000e+00 0.000000e+00 5.735070e-01 4.264930e-01 0.000000e+00
 0.000000e+00 0.000000e+00 0.000000e+00 6.104138e-01 3.895862e-01
 0.000000e+00 0.000000e+00 0.000000e+00 0.000000e+00 0.000000e+00
<ENDHMM>
~h "v"
<BEGINHMM>
<NUMSTATES> 5
<STATE> 2
<NUMMIXES> 3
<MIXTURE> 1 2.500000e-01
<MEAN> 12
 -1.994164e-01 1.827900e+00 4.019513e+00 8.233100e-01 -5.146750e+00 -2.602069e+00 -7.805665e+00 -4.649479e+00 8.433920e-01 2.208298e+00 3.791863e+00 2.907127e-01
<VARIANCE> 12
 2.395027e+01 1.838652e+02 3.201431e+01 3.720189e+01 6.905699e+01 4.844151e+01 4.865847e+01 3.324134e+01 2.721135e+01 4.317856e+01 3.676853e+01 2.691207e+01
<GCONST> 6.699735e+01
<MIXTURE> 2 5.000000e-01
<MEAN> 12
 -3.135757e+00 -6.307914e+00 6.246413e-01 -2.836291e+00 -1.013278e+01 -6.778066e+00 -1.199100e+01 -8.108798e+00 -2.286478e+00 -1.734326e+00 1.536398e-01 -2.821898e+00
<VARIANCE> 12
 2.395027e+01 1.838652e+02 3.201431e+01 3.720189e+01 6.905699e+01 4.844151e+01 4.865847e+01 3.324134e+01 2.721135e+01 4.317856e+01 3.676853e+01 2.691207e+01
<GCONST> 6.699735e+01
<MIXTURE> 3 2.500000e-01
<MEAN> 12
 -2.156977e+00 -3.595976e+00 1.756265e+00 -1.616424e+00 -8.470772e+00 -5.386067e+00 -1.059589e+01 -6.955692e+00 -1.243188e+00 -4.201179e-01 1.366381e+00 -1.784361e+00
<VARIANCE> 12
 2.395027e+01 1.838652e+02 3.201431e+01 3.720189e+01 6.905699e+01 4.844151e+01 4.865847e+01 3.324134e+01 2.721135e+01 4.317856e+01 3.676853e+01 2.691207e+01
<GCONST> 6.699735e+01
<STATE> 3
<NUMMIXES> 3
<MIXTURE> 1 2.500000e-01
<MEAN> 12
 -3.292143e-01 5.202814e+00 2.988784e+00 2.162498e+00 -3.539965e+00 -4.190395e+00 -7.001386e+00 -4.907069e+00 -1.122193e-01 2.648390e+00 5.450534e+00 -6.574357e-01
<VARIANCE> 12
 2.714123e+01 9.686395e+01 2.478572e+01 3.271199e+01 4.381051e+01 4.244595e+01 3.467974e+01 3.445720e+01 3.514224e+01 3.998778e+01 5.128492e+01 2.602939e+01
<GCONST> 6.568547e+01
<MIXTURE> 2 5.000000e-01
<MEAN> 12
 -3.455049e+00 -7.023548e-01 1.668096e-03 -1.269166e+00 -7.511335e+00 -8.099428e+00 -1.053476e+01 -8.429084e+00 -3.669073e+00 -1.145764e+00 1.153724e+00 -3.718576e+00
<VARIANCE> 12
 2.714123e+01 9.686395e+01 2.478572e+01 3.271199e+01 4.381051e+01 4.244595e+01 3.467974e+01 3.445720e+01 3.514224e+01 3.998778e+01 5.128492e+01 2.602939e+01
<GCONST> 6.568547e+01
<MIXTURE> 3 2.500000e-01
<MEAN> 12
 -2.413104e+00 1.266035e+00 9.973733e-01 -1.252775e-01 -6.187545e+00 -6.796417e+00 -9.356966e+00 -7.255079e+00 -2.483455e+00 1.189543e-01 2.585994e+00 -2.698196e+00
<VARIANCE> 12
 2.714123e+01 9.686395e+01 2.478572e+01 3.271199e+01 4.381051e+01 4.244595e+01 3.467974e+01 3.445720e+01 3.514224e+01 3.998778e+01 5.128492e+01 2.602939e+01
<GCONST> 6.568547e+01
<STATE> 4
<NUMMIXES> 3
<MIXTURE> 1 2.500000e-01
<MEAN> 12
 -6.035664e-01 1.252576e+00 4.580413e+00 8.023994e-01 -5.763796e+00 -2.619934e+00 -7.246161e+00 -3.072132e+00 1.444610e+00 6.021085e-01 3.433926e+00 5.802032e-01
<VARIANCE> 12
 3.342078e+01 1.780498e+02 3.715981e+01 4.352514e+01 8.017274e+01 5.045129e+01 5.067980e+01 4.228925e+01 4.040984e+01 5.822718e+01 2.918543e+01 3.520738e+01
<GCONST> 6.880794e+01
<MIXTURE> 2 5.000000e-01
<MEAN> 12
 -4.072209e+00 -6.753542e+00 9.228822e-01 -3.156016e+00 -1.113615e+01 -6.881678e+00 -1.151754e+01 -6.973944e+00 -2.369514e+00 -3.976296e+00 1.925132e-01 -2.979945e+00
<VARIANCE> 12
 3.342078e+01 1.780498e+02 3.715981e+01 4.352514e+01 8.017274e+01 5.045129e+01 5.067980e+01 4.228925e+01 4.040984e+01 5.822718e+01 2.918543e+01 3.520738e+01
<GCONST> 6.880794e+01
<MIXTURE> 3 2.500000e-01
<MEAN> 12
 -2.915995e+00 -4.084836e+00 2.142059e+00 -1.836544e+00 -9.345366e+00 -5.461097e+00 -1.009375e+01 -5.673340e+00 -1.098139e+00 -2.450161e+00 1.272984e+00 -1.793229e+00
<VARIANCE> 12
 3.342078e+01 1.780498e+02 3.715981e+01 4.352514e+01 8.017274e+01 5.045129e+01 5.067980e+01 4.228925e+01 4.040984e+01 5.822718e+01 2.918543e+01 3.520738e+01
<GCONST> 6.880794e+01
<TRANSP> 5
 0.000000e+00 1.000000e+00 0.000000e+00 0.000000e+00 0.000000e+00
 0.000000e+00 0.000000e+00 1.000000e+00 0.000000e+00 0.000000e+00
 0.000000e+00 0.000000e+00 6.387103e-01 3.612897e-01 0.000000e+00
 0.000000e+00 0.000000e+00 0.000000e+00 7.012552e-02 9.298745e-01
 0.000000e+00 0.000000e+00 0.000000e+00 0.000000e+00 0.000000e+00
<ENDHMM>
~h "w"
<BEGINHMM>
<NUMSTATES> 5
<STATE> 2
<NUMMIXES> 3
<MIXTURE> 1 2.500000e-01
<MEAN> 12
 3.388346e+00 -1.581781e+01 -1.177141e+00 -9.085602e+00 -1.745264e+01 5.024823e+00 -6.199368e+00 -1.757238e+00 8.040735e+00 -3.658139e+00 4.097046e+00 2.418766e+00
<VARIANCE> 12
 1.872049e+01 2.148461e+02 1.852983e+01 3.119496e+01 6.675222e+01 3.515349e+01 3.056270e+01 4.013044e+01 6.478064e+01 2.845401e+01 2.964955e+01 1.999942e+01
<GCONST> 6.549078e+01
<MIXTURE> 2 5.000000e-01
<MEAN> 12
 7.923154e-01 -2.461239e+01 -3.759918e+00 -1.243675e+01 -2.235476e+01 1.467400e+00 -9.516380e+00 -5.558154e+00 3.211550e+00 -6.858677e+00 8.299620e-01 -2.644768e-01
<VARIANCE> 12
 1.872049e+01 2.148461e+02 1.852983e+01 3.119496e+01 6.675222e+01 3.515349e+01 3.056270e+01 4.013044e+01 6.478064e+01 2.845401e+01 2.964955e+01 1.999942e+01
<GCONST> 6.549078e+01
<MIXTURE> 3 2.500000e-01
<MEAN> 12
 1.657659e+00 -2.168086e+01 -2.898992e+00 -1.131970e+01 -2.072072e+01 2.653208e+00 -8.410709e+00 -4.291182e+00 4.821278e+00 -5.791831e+00 1.918990e+00 6.299374e-01
<VARIANCE> 12
 1.872049e+01 2.148461e+02 1.852983e+01 3.119496e+01 6.675222e+01 3.515349e+01 3.056270e+01 4.013044e+01 6.478064e+01 2.845401e+01 2.964955e+01 1.999942e+01
<GCONST> 6.549078e+01
<STATE> 3
<NUMMIXES> 3
<MIXTURE> 1 2.500000e-01
<MEAN> 12
 5.276555e+00 4.245396e+00 -2.575457e+00 -1.394106e+01 -6.977036e+00 3.166506e+00 -3.116770e+00 -8.949931e-01 -1.610771e+00 4.686353e+00 7.891700e+00 8.158803e-02
<VARIANCE> 12
 6.118217e+00 8.563586e+01 1.927891e+01 5.522498e+01 4.519434e+01 3.022214e+01 3.191469e+01 4.343700e+01 3.565057e+01 5.619654e+01 6.880228e+01 3.918503e+01
<GCONST> 6.524239e+01
<MIXTURE> 2 5.000000e-01
<MEAN> 12
 3.792454e+00 -1.306983e+00 -5.209922e+00 -1.839987e+01 -1.101064e+01 -1.319746e-01 -6.506356e+00 -4.849398e+00 -5.193257e+00 1.884919e-01 2.914872e+00 -3.674289e+00
<VARIANCE> 12
 6.118217e+00 8.563586e+01 1.927891e+01 5.522498e+01 4.519434e+01 3.022214e+01 3.191469e+01 4.343700e+01 3.565057e+01 5.619654e+01 6.880228e+01 3.918503e+01
<GCONST> 6.524239e+01
<MIXTURE> 3 2.500000e-01
<MEAN> 12
 4.287154e+00 5.438101e-01 -4.331767e+00 -1.691360e+01 -9.666105e+00 9.675189e-01 -5.376494e+00 -3.531263e+00 -3.999095e+00 1.687779e+00 4.573815e+00 -2.422330e+00
<VARIANCE> 12
 6.118217e+00 8.563586e+01 1.927891e+01 5.522498e+01 4.519434e+01 3.022214e+01 3.191469e+01 4.343700e+01 3.565057e+01 5.619654e+01 6.880228e+01 3.918503e+01
<GCONST> 6.524239e+01
<STATE> 4
<NUMMIXES> 3
<MIXTURE> 1 2.500000e-01
<MEAN> 12
 4.324056e+00 -2.146931e+01 -4.945230e+00 -9.233971e+00 -1.286808e+01 9.765043e+00 -4.565883e+00 -3.371437e+00 8.974367e+00 -3.602540e-01 2.045570e+00 -4.298759e+00
<VARIANCE> 12
 4.670611e+00 1.685809e+02 1.946292e+01 2.900278e+01 3.482246e+01 5.039796e+01 4.374618e+01 4.177831e+01 5.210865e+01 4.082497e+01 7.493980e+01 2.530029e+01
<GCONST> 6.525026e+01
<MIXTURE> 2 5.000000e-01
<MEAN> 12
 3.027360e+00 -2.925964e+01 -7.592238e+00 -1.246522e+01 -1.640871e+01 5.505552e+00 -8.534337e+00 -7.249605e+00 4.643188e+00 -4.193919e+00 -3.148497e+00 -7.316723e+00
<VARIANCE> 12
 4.670611e+00 1.685809e+02 1.946292e+01 2.900278e+01 3.482246e+01 5.039796e+01 4.374618e+01 4.177831e+01 5.210865e+01 4.082497e+01 7.493980e+01 2.530029e+01
<GCONST> 6.525026e+01
<MIXTURE> 3 2.500000e-01
<MEAN> 12
 3.459592e+00 -2.666286e+01 -6.709902e+00 -1.138814e+01 -1.522850e+01 6.925383e+00 -7.211519e+00 -5.956882e+00 6.086914e+00 -2.916031e+00 -1.417141e+00 -6.310736e+00
<VARIANCE> 12
 4.670611e+00 1.685809e+02 1.946292e+01 2.900278e+01 3.482246e+01 5.039796e+01 4.374618e+01 4.177831e+01 5.210865e+01 4.082497e+01 7.493980e+01 2.530029e+01
<GCONST> 6.525026e+01
<TRANSP> 5
 0.000000e+00 1.000000e+00 0.000000e+00 0.000000e+00 0.000000e+00
 0.000000e+00 7.182323e-01 2.817677e-01 0.000000e+00 0.000000e+00
 0.000000e+00 0.000000e+00 7.626170e-01 2.373830e-01 0.000000e+00
 0.000000e+00 0.000000e+00 0.000000e+00 7.445376e-01 2.554624e-01
 0.000000e+00 0.000000e+00 0.000000e+00 0.000000e+00 0.000000e+00
<ENDHMM>
~h "y"
<BEGINHMM>
<NUMSTATES> 5
<STATE> 2
<NUMMIXES> 3
<MIXTURE> 1 2.500000e-01
<MEAN> 12
 -4.463480e+00 -1.887553e+00 1.383927e+01 6.832266e+00 -1.149229e+01 -6.143181e+00 -9.548342e+00 -1.082557e+00 5.718690e-01 -4.972318e+00 3.090816e+00 1.953999e+00
<VARIANCE> 12
 3.704943e+01 1.358652e+02 4.557208e+01 4.399762e+01 7.818833e+01 3.122873e+01 5.676036e+01 4.078006e+01 3.806279e+01 8.089692e+01 4.403289e+01 2.822680e+01
<GCONST> 6.888698e+01
<MIXTURE> 2 5.000000e-01
<MEAN> 12
 -8.115574e+00 -8.881227e+00 9.788849e+00 2.852424e+00 -1.679774e+01 -9.496141e+00 -1.406871e+01 -4.914114e+00 -3.129834e+00 -1.036888e+01 -8.906215e-01 -1.233736e+00
<VARIANCE> 12
 3.704943e+01 1.358652e+02 4.557208e+01 4.399762e+01 7.818833e+01 3.122873e+01 5.676036e+01 4.078006e+01 3.806279e+01 8.089692e+01 4.403289e+01 2.822680e+01
<GCONST> 6.888698e+01
<MIXTURE> 3 2.500000e-01
<MEAN> 12
 -6.898209e+00 -6.550002e+00 1.113899e+01 4.179038e+00 -1.502926e+01 -8.378488e+00 -1.256192e+01 -3.636928e+00 -1.895933e+00 -8.570026e+00 4.365243e-01 -1.711576e-01
<VARIANCE> 12
 3.704943e+01 1.358652e+02 4.557208e+01 4.399762e+01 7.818833e+01 3.122873e+01 5.676036e+01 4.078006e+01 3.806279e+01 8.089692e+01 4.403289e+01 2.822680e+01
<GCONST> 6.888698e+01
<STATE> 3
<NUMMIXES> 3
<MIXTURE> 1 2.500000e-01
<MEAN> 12
 -9.207914e-01 1.618099e+00 1.523061e+01 7.462386e+00 -1.028683e+01 -9.957114e+00 -1.044777e+01 1.480878e+00 -1.311637e+00 -5.520240e+00 2.149795e+00 8.873239e-01
<VARIANCE> 12
 1.430707e+01 7.217493e+01 3.507381e+01 4.402687e+01 3.755874e+01 4.673962e+01 4.255407e+01 3.887875e+01 3.849429e+01 3.234623e+01 2.715559e+01 2.415442e+01
<GCONST> 6.483141e+01
<MIXTURE> 2 5.000000e-01
<MEAN> 12
 -3.190273e+00 -3.479250e+00 1.167722e+01 3.481221e+00 -1.396394e+01 -1.405910e+01 -1.436178e+01 -2.260292e+00 -5.034263e+00 -8.932665e+00 -9.768669e-01 -2.061505e+00
<VARIANCE> 12
 1.430707e+01 7.217493e+01 3.507381e+01 4.402687e+01 3.755874e+01 4.673962e+01 4.255407e+01 3.887875e+01 3.849429e+01 3.234623e+01 2.715559e+01 2.415442e+01
<GCONST> 6.483141e+01
<MIXTURE> 3 2.500000e-01
<MEAN> 12
 -2.433779e+00 -1.780134e+00 1.286168e+01 4.808276e+00 -1.273824e+01 -1.269177e+01 -1.305711e+01 -1.013235e+00 -3.793388e+00 -7.795190e+00 6.535363e-02 -1.078562e+00
<VARIANCE> 12
 1.430707e+01 7.217493e+01 3.507381e+01 4.402687e+01 3.755874e+01 4.673962e+01 4.255407e+01 3.887875e+01 3.849429e+01 3.234623e+01 2.715559e+01 2.415442e+01
<GCONST> 6.483141e+01
<STATE> 4
<NUMMIXES> 3
<MIXTURE> 1 2.500000e-01
<MEAN> 12
 -1.432987e+00 5.023691e+00 1.066278e+01 4.104209e+00 -8.637779e+00 -5.378529e+00 -2.223814e+00 -6.701266e+00 1.073334e+00 2.058881e+00 2.594687e+00 -6.930591e-01
<VARIANCE> 12
 5.672681e+01 9.377701e+01 4.313686e+01 7.563982e+01 3.819860e+01 5.670708e+01 8.940162e+01 3.565094e+01 2.923379e+01 5.052464e+01 3.474442e+01 2.379654e+01
<GCONST> 6.848701e+01
<MIXTURE> 2 5.000000e-01
<MEAN> 12
 -5.952019e+00 -7.866207e-01 6.722062e+00 -1.114060e+00 -1.234608e+01 -9.896774e+00 -7.896959e+00 -1.028377e+01 -2.170763e+00 -2.205960e+00 -9.419767e-01 -3.619961e+00
<VARIANCE> 12
 5.672681e+01 9.377701e+01 4.313686e+01 7.563982e+01 3.819860e+01 5.670708e+01 8.940162e+01 3.565094e+01 2.923379e+01 5.052464e+01 3.474442e+01 2.379654e+01
<GCONST> 6.848701e+01
<MIXTURE> 3 2.500000e-01
<MEAN> 12
 -4.445675e+00 1.150150e+00 8.035635e+00 6.253630e-01 -1.110998e+01 -8.390693e+00 -6.005911e+00 -9.089602e+00 -1.089397e+00 -7.843461e-01 2.369113e-01 -2.644327e+00
<VARIANCE> 12
 5.672681e+01 9.377701e+01 4.313686e+01 7.563982e+01 3.819860e+01 5.670708e+01 8.940162e+01 3.565094e+01 2.923379e+01 5.052464e+01 3.474442e+01 2.379654e+01
<GCONST> 6.848701e+01
<TRANSP> 5
 0.000000e+00 1.000000e+00 0.000000e+00 0.000000e+00 0.000000e+00
 0.000000e+00 2.476422e-01 7.523578e-01 0.000000e+00 0.000000e+00
 0.000000e+00 0.000000e+00 7.047517e-01 2.952483e-01 0.000000e+00
 0.000000e+00 0.000000e+00 0.000000e+00 6.213889e-01 3.786111e-01
 0.000000e+00 0.000000e+00 0.000000e+00 0.000000e+00 0.000000e+00
<ENDHMM>
~h "z"
<BEGINHMM>
<NUMSTATES> 5
<STATE> 2
<NUMMIXES> 3
<MIXTURE> 1 2.500000e-01
<MEAN> 12
 -5.424913e+00 9.102686e+00 8.595630e+00 -2.535500e-01 -3.861071e-01 -8.020909e+00 -1.230859e+01 -4.274356e+00 3.925017e+00 3.607490e+00 1.602807e+00 -2.187808e-01
<VARIANCE> 12
 2.485566e+01 1.316316e+02 4.116311e+01 2.134750e+01 7.245176e+01 5.100928e+01 3.809224e+01 3.455239e+01 4.538103e+01 3.555284e+01 5.375666e+01 2.563420e+01
<GCONST> 6.693802e+01
<MIXTURE> 2 5.000000e-01
<MEAN> 12
 -8.416240e+00 2.218837e+00 4.746120e+00 -3.025751e+00 -5.493223e+00 -1.230616e+01 -1.601173e+01 -7.801234e+00 -1.169099e-01 2.991796e-02 -2.796329e+00 -3.256595e+00
<VARIANCE> 12
 2.485566e+01 1.316316e+02 4.116311e+01 2.134750e+01 7.245176e+01 5.100928e+01 3.809224e+01 3.455239e+01 4.538103e+01 3.555284e+01 5.375666e+01 2.563420e+01
<GCONST> 6.693802e+01
<MIXTURE> 3 2.500000e-01
<MEAN> 12
 -7.419131e+00 4.513453e+00 6.029290e+00 -2.101684e+00 -3.790851e+00 -1.087774e+01 -1.477735e+01 -6.625608e+00 1.230399e+00 1.222442e+00 -1.329950e+00 -2.243990e+00
<VARIANCE> 12
 2.485566e+01 1.316316e+02 4.116311e+01 2.134750e+01 7.245176e+01 5.100928e+01 3.809224e+01 3.455239e+01 4.538103e+01 3.555284e+01 5.375666e+01 2.563420e+01
<GCONST> 6.693802e+01
<STATE> 3
<NUMMIXES> 3
<MIXTURE> 1 2.500000e-01
<MEAN> 12
 -1.243821e+01 1.142562e+01 9.074736e+00 2.913378e+00 1.543139e+00 -7.911962e+00 -3.872386e+00 2.794888e-01 1.602509e+00 1.511745e-01 9.040105e-02 3.121312e+00
<VARIANCE> 12
 3.384537e+01 8.535991e+01 2.545022e+01 2.089268e+01 5.294267e+01 5.717391e+01 3.867550e+01 3.920064e+01 4.024011e+01 2.508033e+01 2.564379e+01 1.821533e+01
<GCONST> 6.470204e+01
<MIXTURE> 2 5.000000e-01
<MEAN> 12
 -1.592881e+01 5.882192e+00 6.047843e+00 1.708668e-01 -2.822564e+00 -1.244877e+01 -7.603764e+00 -3.477136e+00 -2.203597e+00 -2.853641e+00 -2.947981e+00 5.605465e-01
<VARIANCE> 12
 3.384537e+01 8.535991e+01 2.545022e+01 2.089268e+01 5.294267e+01 5.717391e+01 3.867550e+01 3.920064e+01 4.024011e+01 2.508033e+01 2.564379e+01 1.821533e+01
<GCONST> 6.470204e+01
<MIXTURE> 3 2.500000e-01
<MEAN> 12
 -1.476528e+01 7.730000e+00 7.056807e+00 1.085037e+00 -1.367330e+00 -1.093650e+01 -6.359971e+00 -2.224928e+00 -9.348950e-01 -1.852036e+00 -1.935187e+00 1.414135e+00
<VARIANCE> 12
 3.384537e+01 8.535991e+01 2.545022e+01 2.089268e+01 5.294267e+01 5.717391e+01 3.867550e+01 3.920064e+01 4.024011e+01 2.508033e+01 2.564379e+01 1.821533e+01
<GCONST> 6.470204e+01
<STATE> 4
<NUMMIXES> 3
<MIXTURE> 1 2.500000e-01
<MEAN> 12
 -5.326424e+00 5.410272e+00 8.095688e+00 5.938135e-01 -3.697992e+00 -8.038464e+00 -7.393228e+00 -2.732308e+00 4.575549e+00 1.560522e+00 6.810350e-01 3.165659e+00
<VARIANCE> 12
 4.946443e+01 1.760491e+02 4.160458e+01 1.905315e+01 6.986906e+01 7.281024e+01 3.652856e+01 2.787541e+01 6.088918e+01 3.861028e+01 3.630373e+01 3.696677e+01
<GCONST> 6.822681e+01
<MIXTURE> 2 5.000000e-01
<MEAN> 12
 -9.546281e+00 -2.550739e+00 4.225591e+00 -2.025181e+00 -8.713255e+00 -1.315820e+01 -1.101956e+01 -5.900138e+00 -1.063424e-01 -2.167708e+00 -2.934120e+00 -4.823589e-01
<VARIANCE> 12
 4.946443e+01 1.760491e+02 4.160458e+01 1.905315e+01 6.986906e+01 7.281024e+01 3.652856e+01 2.787541e+01 6.088918e+01 3.861028e+01 3.630373e+01 3.696677e+01
<GCONST> 6.822681e+01
<MIXTURE> 3 2.500000e-01
<MEAN> 12
 -8.139662e+00 1.029313e-01 5.515623e+00 -1.152183e+00 -7.041501e+00 -1.145162e+01 -9.810782e+00 -4.844195e+00 1.454288e+00 -9.249648e-01 -1.729068e+00 7.336472e-01
<VARIANCE> 12
 4.946443e+01 1.760491e+02 4.160458e+01 1.905315e+01 6.986906e+01 7.281024e+01 3.652856e+01 2.787541e+01 6.088918e+01 3.861028e+01 3.630373e+01 3.696677e+01
<GCONST> 6.822681e+01
<TRANSP> 5
 0.000000e+00 1.000000e+00 0.000000e+00 0.000000e+00 0.000000e+00
 0.000000e+00 4.780326e-01 5.219674e-01 0.000000e+00 0.000000e+00
 0.000000e+00 0.000000e+00 7.688932e-01 2.311068e-01 0.000000e+00
 0.000000e+00 0.000000e+00 0.000000e+00 3.889392e-03 9.961106e-01
 0.000000e+00 0.000000e+00 0.000000e+00 0.000000e+00 0.000000e+00
<ENDHMM>
~h "#2"
<BEGINHMM>
<NUMSTATES> 5
<STATE> 2
<NUMMIXES> 3
<MIXTURE> 1 2.500000e-01
<MEAN> 12
 2.219465e+00 -2.321881e+01 6.244710e+00 -5.568754e+00 -2.128774e+01 3.533683e+00 -1.189325e+01 -7.374924e+00 7.788929e+00 -3.947312e+00 2.392522e+00 3.480314e+00
<VARIANCE> 12
 1.329252e+01 7.351997e+01 3.572593e+01 3.460313e+01 4.956067e+01 5.945576e+01 3.628476e+01 4.996104e+01 3.661356e+01 6.308453e+01 4.524453e+01 3.009374e+01
<GCONST> 6.651147e+01
<MIXTURE> 2 5.000000e-01
<MEAN> 12
 3.193039e-02 -2.836344e+01 2.658440e+00 -9.098220e+00 -2.551171e+01 -1.092771e+00 -1.550746e+01 -1.161591e+01 4.158381e+00 -8.712858e+00 -1.643322e+00 1.888487e-01
<VARIANCE> 12
 1.329252e+01 7.351997e+01 3.572593e+01 3.460313e+01 4.956067e+01 5.945576e+01 3.628476e+01 4.996104e+01 3.661356e+01 6.308453e+01 4.524453e+01 3.009374e+01
<GCONST> 6.651147e+01
<MIXTURE> 3 2.500000e-01
<MEAN> 12
 7.611086e-01 -2.664856e+01 3.853863e+00 -7.921731e+00 -2.410372e+01 4.493803e-01 -1.430272e+01 -1.020225e+01 5.368563e+00 -7.124343e+00 -2.980404e-01 1.286004e+00
<VARIANCE> 12
 1.329252e+01 7.351997e+01 3.572593e+01 3.460313e+01 4.956067e+01 5.945576e+01 3.628476e+01 4.996104e+01 3.661356e+01 6.308453e+01 4.524453e+01 3.009374e+01
<GCONST> 6.651147e+01
<STATE> 3
<NUMMIXES> 3
<MIXTURE> 1 2.500000e-01
<MEAN> 12
 6.389015e+00 -2.723229e+01 -1.058102e+00 -8.890892e+00 -2.429681e+01 -3.722262e+00 -1.513715e+01 -6.928418e+00 1.416405e+01 5.663128e+00 2.555459e+00 -2.296437e+00
<VARIANCE> 12
 4.673373e+00 2.758714e+01 1.346513e+01 1.484423e+01 2.376638e+01 3.444786e+01 3.037404e+01 2.823075e+01 3.006839e+01 2.016220e+01 2.211312e+01 1.794513e+01
<GCONST> 5.806397e+01
<MIXTURE> 2 5.000000e-01
<MEAN> 12
 5.091936e+00 -3.038370e+01 -3.259793e+00 -1.120258e+01 -2.722186e+01 -7.243800e+00 -1.844391e+01 -1.011638e+01 1.087397e+01 2.968987e+00 -2.660158e-01 -4.838138e+00
<VARIANCE> 12
 4.673373e+00 2.758714e+01 1.346513e+01 1.484423e+01 2.376638e+01 3.444786e+01 3.037404e+01 2.823075e+01 3.006839e+01 2.016220e+01 2.211312e+01 1.794513e+01
<GCONST> 5.806397e+01
<MIXTURE> 3 2.500000e-01
<MEAN> 12
 5.524296e+00 -2.933323e+01 -2.525896e+00 -1.043202e+01 -2.624684e+01 -6.069954e+00 -1.734166e+01 -9.053723e+00 1.197066e+01 3.867034e+00 6.744760e-01 -3.990904e+00
<VARIANCE> 12
 4.673373e+00 2.758714e+01 1.346513e+01 1.484423e+01 2.376638e+01 3.444786e+01 3.037404e+01 2.823075e+01 3.006839e+01 2.016220e+01 2.211312e+01 1.794513e+01
<GCONST> 5.806397e+01
<STATE> 4
<NUMMIXES> 3
<MIXTURE> 1 2.500000e-01
<MEAN> 12
 1.249113e-01 -1.084141e-01 5.116375e+00 -1.277933e-01 -5.694283e+00 -9.622187e+00 -1.355837e+01 -1.302111e+00 2.315416e+00 1.118488e+01 -3.628328e-01 5.425673e-01
<VARIANCE> 12
 1.154641e+01 9.979660e+01 1.447793e+01 2.290780e+01 5.550903e+01 4.392752e+01 4.264061e+01 5.184266e+01 2.894828e+01 7.354625e+01 5.970321e+01 5.731960e+01
<GCONST> 6.620969e+01
<MIXTURE> 2 5.000000e-01
<MEAN> 12
 -1.913889e+00 -6.102309e+00 2.833382e+00 -2.999519e+00 -1.016455e+01 -1.359886e+01 -1.747636e+01 -5.622221e+00 -9.128006e-01 6.039338e+00 -4.998904e+00 -4.000015e+00
<VARIANCE> 12
 1.154641e+01 9.979660e+01 1.447793e+01 2.290780e+01 5.550903e+01 4.392752e+01 4.264061e+01 5.184266e+01 2.894828e+01 7.354625e+01 5.970321e+01 5.731960e+01
<GCONST> 6.620969e+01
<MIXTURE> 3 2.500000e-01
<MEAN> 12
 -1.234289e+00 -4.104344e+00 3.594380e+00 -2.042277e+00 -8.674458e+00 -1.227330e+01 -1.617036e+01 -4.182184e+00 1.632715e-01 7.754519e+00 -3.453547e+00 -2.485821e+00
<VARIANCE> 12
 1.154641e+01 9.979660e+01 1.447793e+01 2.290780e+01 5.550903e+01 4.392752e+01 4.264061e+01 5.184266e+01 2.894828e+01 7.354625e+01 5.970321e+01 5.731960e+01
<GCONST> 6.620969e+01
<TRANSP> 5
 0.000000e+00 1.000000e+00 0.000000e+00 0.000000e+00 0.000000e+00
 0.000000e+00 8.290532e-01 1.709468e-01 0.000000e+00 0.000000e+00
 0.000000e+00 0.000000e+00 9.414280e-01 5.857203e-02 0.000000e+00
 0.000000e+00 0.000000e+00 0.000000e+00 7.824518e-01 2.175482e-01
 0.000000e+00 0.000000e+00 0.000000e+00 0.000000e+00 0.000000e+00
<ENDHMM>
~h "#9"
<BEGINHMM>
<NUMSTATES> 5
<STATE> 2
<NUMMIXES> 3
<MIXTURE> 1 2.500000e-01
<MEAN> 12
 1.340297e+00 -2.542690e+00 4.253053e+00 -5.036361e+00 -8.056491e+00 -6.668155e+00 -1.286552e+01 1.646125e+00 9.836978e+00 7.604892e+00 3.012625e+00 -7.432653e+00
<VARIANCE> 12
 3.782933e+00 5.590425e+01 1.443867e+01 1.740910e+01 1.818076e+01 5.395950e+01 1.765886e+01 4.118567e+01 2.858861e+01 3.980924e+01 2.799656e+01 1.498671e+01
<GCONST> 5.948985e+01
<MIXTURE> 2 5.000000e-01
<MEAN> 12
 1.733110e-01 -7.028839e+00 1.973158e+00 -7.539813e+00 -1.061483e+01 -1.107558e+01 -1.538687e+01 -2.204438e+00 6.628879e+00 3.819218e+00 -1.620817e-01 -9.755414e+00
<VARIANCE> 12
 3.782933e+00 5.590425e+01 1.443867e+01 1.740910e+01 1.818076e+01 5.395950e+01 1.765886e+01 4.118567e+01 2.858861e+01 3.980924e+01 2.799656e+01 1.498671e+01
<GCONST> 5.948985e+01
<MIXTURE> 3 2.500000e-01
<MEAN> 12
 5.623063e-01 -5.533456e+00 2.733123e+00 -6.705329e+00 -9.762048e+00 -9.606441e+00 -1.454642e+01 -9.209172e-01 7.698245e+00 5.081109e+00 8.961538e-01 -8.981160e+00
<VARIANCE> 12
 3.782933e+00 5.590425e+01 1.443867e+01 1.740910e+01 1.818076e+01 5.395950e+01 1.765886e+01 4.118567e+01 2.858861e+01 3.980924e+01 2.799656e+01 1.498671e+01
<GCONST> 5.948985e+01
<STATE> 3
<NUMMIXES> 3
<MIXTURE> 1 2.500000e-01
<MEAN> 12
 2.771511e+00 1.134025e+00 -1.057348e+00 -4.826658e+00 -5.266599e+00 -9.603273e+00 -1.205837e+01 -4.564769e+00 4.157492e+00 1.645958e+01 3.618739e+00 -6.016135e+00
<VARIANCE> 12
 4.754865e+00 4.213363e+01 1.206752e+01 2.311901e+01 1.553347e+01 3.343086e+01 2.720938e+01 1.156530e+01 2.114412e+01 3.367744e+01 2.974868e+01 2.070298e+01
<GCONST> 5.798101e+01
<MIXTURE> 2 5.000000e-01
<MEAN> 12
 1.463172e+00 -2.760601e+00 -3.141649e+00 -7.711592e+00 -7.631351e+00 -1.307244e+01 -1.518812e+01 -6.605237e+00 1.398527e+00 1.297764e+01 3.461980e-01 -8.746166e+00
<VARIANCE> 12
 4.754865e+00 4.213363e+01 1.206752e+01 2.311901e+01 1.553347e+01 3.343086e+01 2.720938e+01 1.156530e+01 2.114412e+01 3.367744e+01 2.974868e+01 2.070298e+01
<GCONST> 5.798101e+01
<MIXTURE> 3 2.500000e-01
<MEAN> 12
 1.899285e+00 -1.462392e+00 -2.446882e+00 -6.749947e+00 -6.843100e+00 -1.191605e+01 -1.414487e+01 -5.925081e+00 2.318182e+00 1.413829e+01 1.437045e+00 -7.836156e+00
<VARIANCE> 12
 4.754865e+00 4.213363e+01 1.206752e+01 2.311901e+01 1.553347e+01 3.343086e+01 2.720938e+01 1.156530e+01 2.114412e+01 3.367744e+01 2.974868e+01 2.070298e+01
<GCONST> 5.798101e+01
<STATE> 4
<NUMMIXES> 3
<MIXTURE> 1 2.500000e-01
<MEAN> 12
 -1.886882e-01 5.953536e-01 4.718762e+00 -2.856867e+00 -4.890648e+00 -3.458106e+00 -1.024711e+01 -2.580260e+00 3.914132e+00 1.133972e+01 4.874428e+00 -2.825044e+00
<VARIANCE> 12
 1.777381e+01 7.855119e+01 4.556133e+01 3.296046e+01 2.893101e+01 3.460482e+01 5.368406e+01 3.124628e+01 3.666897e+01 4.766295e+01 6.689746e+01 2.752576e+01
<GCONST> 6.592867e+01
<MIXTURE> 2 5.000000e-01
<MEAN> 12
 -2.718228e+00 -4.722393e+00 6.688143e-01 -6.301539e+00 -8.117901e+00 -6.987659e+00 -1.464328e+01 -5.934163e+00 2.808378e-01 7.197417e+00 -3.302443e-02 -5.972944e+00
<VARIANCE> 12
 1.777381e+01 7.855119e+01 4.556133e+01 3.296046e+01 2.893101e+01 3.460482e+01 5.368406e+01 3.124628e+01 3.666897e+01 4.766295e+01 6.689746e+01 2.752576e+01
<GCONST> 6.592867e+01
<MIXTURE> 3 2.500000e-01
<MEAN> 12
 -1.875048e+00 -2.949811e+00 2.018797e+00 -5.153315e+00 -7.042150e+00 -5.811141e+00 -1.317789e+01 -4.816195e+00 1.491936e+00 8.578184e+00 1.602793e+00 -4.923644e+00
<VARIANCE> 12
 1.777381e+01 7.855119e+01 4.556133e+01 3.296046e+01 2.893101e+01 3.460482e+01 5.368406e+01 3.124628e+01 3.666897e+01 4.766295e+01 6.689746e+01 2.752576e+01
<GCONST> 6.592867e+01
<TRANSP> 5
 0.000000e+00 1.000000e+00 0.000000e+00 0.000000e+00 0.000000e+00
 0.000000e+00 7.267302e-01 2.732699e-01 0.000000e+00 0.000000e+00
 0.000000e+00 0.000000e+00 8.348429e-01 1.651571e-01 0.000000e+00
 0.000000e+00 0.000000e+00 0.000000e+00 6.649120e-01 3.350879e-01
 0.000000e+00 0.000000e+00 0.000000e+00 0.000000e+00 0.000000e+00
<ENDHMM>
~h "a#"
<BEGINHMM>
<NUMSTATES> 5
<STATE> 2
<NUMMIXES> 3
<MIXTURE> 1 2.500000e-01
<MEAN> 12
 4.454788e+00 -1.573169e+01 -2.584672e+00 -1.372860e+01 -1.345284e+01 9.156860e+00 -2.702856e+00 -3.536171e+00 5.038107e+00 -5.729952e+00 5.828696e+00 2.047757e+00
<VARIANCE> 12
 1.862180e+01 1.615407e+02 2.550950e+01 3.673954e+01 7.668788e+01 3.370863e+01 6.157271e+01 4.753812e+01 4.906577e+01 5.580976e+01 3.636967e+01 6.819807e+01
<GCONST> 6.847704e+01
<MIXTURE> 2 5.000000e-01
<MEAN> 12
 1.865609e+00 -2.335761e+01 -5.615088e+00 -1.736539e+01 -1.870714e+01 5.673312e+00 -7.410953e+00 -7.673045e+00 8.352897e-01 -1.021231e+01 2.210259e+00 -2.907170e+00
<VARIANCE> 12
 1.862180e+01 1.615407e+02 2.550950e+01 3.673954e+01 7.668788e+01 3.370863e+01 6.157271e+01 4.753812e+01 4.906577e+01 5.580976e+01 3.636967e+01 6.819807e+01
<GCONST> 6.847704e+01
<MIXTURE> 3 2.500000e-01
<MEAN> 12
 2.728669e+00 -2.081564e+01 -4.604949e+00 -1.615313e+01 -1.695571e+01 6.834496e+00 -5.841587e+00 -6.294087e+00 2.236229e+00 -8.718189e+00 3.416405e+00 -1.255528e+00
<VARIANCE> 12
 1.862180e+01 1.615407e+02 2.550950e+01 3.673954e+01 7.668788e+01 3.370863e+01 6.157271e+01 4.753812e+01 4.906577e+01 5.580976e+01 3.636967e+01 6.819807e+01
<GCONST> 6.847704e+01
<STATE> 3
<NUMMIXES> 3
<MIXTURE> 1 2.500000e-01
<MEAN> 12
 3.605572e+00 3.398390e+00 -5.507904e+00 -1.099257e+01 -8.074575e+00 2.694381e+00 6.675286e+00 -1.281300e-01 -5.148337e-01 1.252707e+00 8.524719e-01 -2.856147e+00
<VARIANCE> 12
 8.392777e+00 8.633941e+01 2.619361e+01 3.690567e+01 3.485619e+01 3.561496e+01 7.443659e+01 4.778276e+01 3.152099e+01 7.509856e+01 3.944656e+01 4.938964e+01
<GCONST> 6.615881e+01
<MIXTURE> 2 5.000000e-01
<MEAN> 12
 1.867355e+00 -2.176750e+00 -8.578686e+00 -1.463757e+01 -1.161692e+01 -8.863151e-01 1.498687e+00 -4.275634e+00 -3.883447e+00 -3.946858e+00 -2.915918e+00 -7.072813e+00
<VARIANCE> 12
 8.392777e+00 8.633941e+01 2.619361e+01 3.690567e+01 3.485619e+01 3.561496e+01 7.443659e+01 4.778276e+01 3.152099e+01 7.509856e+01 3.944656e+01 4.938964e+01
<GCONST> 6.615881e+01
<MIXTURE> 3 2.500000e-01
<MEAN> 12
 2.446761e+00 -3.183702e-01 -7.555092e+00 -1.342257e+01 -1.043614e+01 3.072503e-01 3.224220e+00 -2.893133e+00 -2.760576e+00 -2.213670e+00 -1.659788e+00 -5.667258e+00
<VARIANCE> 12
 8.392777e+00 8.633941e+01 2.619361e+01 3.690567e+01 3.485619e+01 3.561496e+01 7.443659e+01 4.778276e+01 3.152099e+01 7.509856e+01 3.944656e+01 4.938964e+01
<GCONST> 6.615881e+01
<STATE> 4
<NUMMIXES> 3
<MIXTURE> 1 2.500000e-01
<MEAN> 12
 8.140301e-01 -3.720274e-01 1.633226e+00 -8.206534e+00 -4.080749e+00 2.071454e+00 -2.206311e+00 -1.175541e+00 -4.205719e+00 -5.491433e-01 4.193440e+00 -4.809305e+00
<VARIANCE> 12
 2.297901e+01 1.463470e+02 2.248008e+01 5.216470e+01 6.601817e+01 3.310934e+01 6.082405e+01 8.688940e+01 5.817149e+01 4.959084e+01 4.229582e+01 6.198571e+01
<GCONST> 6.934329e+01
<MIXTURE> 2 5.000000e-01
<MEAN> 12
 -2.062156e+00 -7.630466e+00 -1.211564e+00 -1.254004e+01 -8.955843e+00 -1.380989e+00 -6.885697e+00 -6.768410e+00 -8.781934e+00 -4.774389e+00 2.913263e-01 -9.533165e+00
<VARIANCE> 12
 2.297901e+01 1.463470e+02 2.248008e+01 5.216470e+01 6.601817e+01 3.310934e+01 6.082405e+01 8.688940e+01 5.817149e+01 4.959084e+01 4.229582e+01 6.198571e+01
<GCONST> 6.934329e+01
<MIXTURE> 3 2.500000e-01
<MEAN> 12
 -1.103427e+00 -5.210986e+00 -2.633005e-01 -1.109554e+01 -7.330812e+00 -2.301744e-01 -5.325902e+00 -4.904120e+00 -7.256529e+00 -3.365974e+00 1.592031e+00 -7.958545e+00
<VARIANCE> 12
 2.297901e+01 1.463470e+02 2.248008e+01 5.216470e+01 6.601817e+01 3.310934e+01 6.082405e+01 8.688940e+01 5.817149e+01 4.959084e+01 4.229582e+01 6.198571e+01
<GCONST> 6.934329e+01
<TRANSP> 5
 0.000000e+00 1.000000e+00 0.000000e+00 0.000000e+00 0.000000e+00
 0.000000e+00 7.829998e-01 2.170002e-01 0.000000e+00 0.000000e+00
 0.000000e+00 0.000000e+00 7.474744e-01 2.525256e-01 0.000000e+00
 0.000000e+00 0.000000e+00 0.000000e+00 5.259668e-01 4.740332e-01
 0.000000e+00 0.000000e+00 0.000000e+00 0.000000e+00 0.000000e+00
<ENDHMM>
~h "e#"
<BEGINHMM>
<NUMSTATES> 5
<STATE> 2
<NUMMIXES> 3
<MIXTURE> 1 2.500000e-01
<MEAN> 12
