~o
<STREAMINFO> 1 12
<VECSIZE> 12<NULLD><MFCC><DIAGC>
~h "#2"
<BEGINHMM>
<NUMSTATES> 5
<STATE> 2
<MEAN> 12
 1.279590e+00 -2.491665e+01 2.430502e+00 -7.922368e+00 -2.318636e+01 2.056649e-01 -1.406930e+01 -1.051277e+01 5.108650e+00 -5.155730e+00 1.517994e-01 6.483044e-01
<VARIANCE> 12
 1.548479e+01 9.077381e+01 4.119731e+01 3.659098e+01 5.504882e+01 5.345875e+01 3.550318e+01 4.328806e+01 3.536882e+01 6.453248e+01 4.570496e+01 3.079272e+01
<GCONST> 6.692805e+01
<STATE> 3
<MEAN> 12
 5.433988e+00 -2.927697e+01 -2.338529e+00 -1.031264e+01 -2.634029e+01 -6.279564e+00 -1.740855e+01 -8.972238e+00 1.192871e+01 3.774243e+00 6.640683e-01 -3.925736e+00
<VARIANCE> 12
 5.393426e+00 2.845357e+01 1.362290e+01 1.453551e+01 2.418946e+01 3.328977e+01 3.025367e+01 2.777899e+01 2.954132e+01 2.044021e+01 2.171922e+01 1.895808e+01
<GCONST> 5.822511e+01
<STATE> 4
<MEAN> 12
 -1.702993e+00 -2.870245e+00 3.472787e+00 -2.287171e+00 -8.908018e+00 -1.156631e+01 -1.507309e+01 -3.886800e+00 7.956458e-01 6.378113e+00 -3.233420e+00 -1.961390e+00
<VARIANCE> 12
 1.654106e+01 9.969457e+01 1.808070e+01 4.100070e+01 5.344169e+01 4.885869e+01 5.015336e+01 4.846132e+01 2.631720e+01 7.834482e+01 5.850502e+01 5.110464e+01
<GCONST> 6.736861e+01
<TRANSP> 5
 0.000000e+00 1.000000e+00 0.000000e+00 0.000000e+00 0.000000e+00
 0.000000e+00 7.789023e-01 2.210977e-01 0.000000e+00 0.000000e+00
 0.000000e+00 0.000000e+00 9.409567e-01 5.904333e-02 0.000000e+00
 0.000000e+00 0.000000e+00 0.000000e+00 8.089297e-01 1.910703e-01
 0.000000e+00 0.000000e+00 0.000000e+00 0.000000e+00 0.000000e+00
<ENDHMM>
