~o
<STREAMINFO> 1 12
<VECSIZE> 12<NULLD><MFCC><DIAGC>
~h "#9"
<BEGINHMM>
<NUMSTATES> 5
<STATE> 2
<MEAN> 12
 4.770952e-01 -5.401115e+00 2.538782e+00 -6.945216e+00 -9.790399e+00 -9.042800e+00 -1.452032e+01 -1.296402e+00 7.533960e+00 4.325168e+00 1.776272e+00 -8.221966e+00
<VARIANCE> 12
 4.509150e+00 6.842767e+01 1.731808e+01 1.887432e+01 2.165429e+01 5.838255e+01 2.073577e+01 5.414372e+01 3.227827e+01 4.390695e+01 4.613492e+01 1.641816e+01
<GCONST> 6.162812e+01
<STATE> 3
<MEAN> 12
 1.908635e+00 -1.383928e+00 -2.563929e+00 -6.774955e+00 -6.765889e+00 -1.157978e+01 -1.392472e+01 -5.897301e+00 2.252125e+00 1.396733e+01 1.511852e+00 -7.728587e+00
<VARIANCE> 12
 4.843436e+00 3.961570e+01 1.213286e+01 2.376445e+01 1.474202e+01 3.538847e+01 2.661745e+01 1.086978e+01 2.258861e+01 3.311267e+01 3.078794e+01 2.015960e+01
<GCONST> 5.794830e+01
<STATE> 4
<MEAN> 12
 -1.298295e+00 -4.078512e+00 9.770412e-01 -5.472413e+00 -7.771646e+00 -3.714218e+00 -1.081696e+01 -5.081479e+00 1.927172e+00 7.234055e+00 4.556015e-01 -4.037237e+00
<VARIANCE> 12
 1.857526e+01 1.077648e+02 4.698788e+01 4.388012e+01 3.086454e+01 4.555034e+01 6.900903e+01 4.195090e+01 4.238209e+01 5.292297e+01 6.089883e+01 2.735956e+01
<GCONST> 6.764066e+01
<TRANSP> 5
 0.000000e+00 1.000000e+00 0.000000e+00 0.000000e+00 0.000000e+00
 0.000000e+00 7.439538e-01 2.560463e-01 0.000000e+00 0.000000e+00
 0.000000e+00 0.000000e+00 8.421489e-01 1.578511e-01 0.000000e+00
 0.000000e+00 0.000000e+00 0.000000e+00 7.267334e-01 2.732666e-01
 0.000000e+00 0.000000e+00 0.000000e+00 0.000000e+00 0.000000e+00
<ENDHMM>
