~o
<STREAMINFO> 1 12
<VECSIZE> 12<NULLD><MFCC><DIAGC>
~h "@"
<BEGINHMM>
<NUMSTATES> 5
<STATE> 2
<MEAN> 12
 -4.714551e-01 -2.201967e+00 2.918994e+00 -2.657558e+00 -8.311656e+00 -1.288371e+01 -1.536852e+01 -7.659659e+00 -7.471021e-01 3.964573e+00 4.079973e+00 -6.262318e+00
<VARIANCE> 12
 1.032692e+01 5.640194e+01 3.169508e+01 3.687204e+01 3.297947e+01 6.795966e+01 4.907561e+01 4.629504e+01 3.394512e+01 6.121209e+01 3.399655e+01 3.478539e+01
<GCONST> 6.564314e+01
<STATE> 3
<MEAN> 12
 9.777793e-01 -2.253523e+01 5.068132e+00 -3.715811e+00 -2.376760e+01 -6.460384e+00 -1.676515e+01 -1.206832e+01 2.654184e+00 -2.975426e+00 3.332801e+00 2.669427e+00
<VARIANCE> 12
 7.519553e+00 1.521082e+02 2.227423e+01 2.248136e+01 8.896068e+01 3.940792e+01 4.255697e+01 4.286576e+01 3.532689e+01 4.833072e+01 4.651727e+01 4.099996e+01
<GCONST> 6.597992e+01
<STATE> 4
<MEAN> 12
 -2.489301e+00 1.359232e+00 3.469280e+00 3.070226e+00 -6.066094e+00 -1.140655e+01 -1.166549e+01 -3.706567e+00 -1.200612e+00 5.563017e-01 -2.485553e+00 -9.615998e-01
<VARIANCE> 12
 2.646754e+01 7.516356e+01 3.483682e+01 3.456350e+01 5.758037e+01 9.343143e+01 5.412194e+01 5.983879e+01 4.839112e+01 6.129250e+01 5.474246e+01 2.875654e+01
<GCONST> 6.877337e+01
<TRANSP> 5
 0.000000e+00 1.000000e+00 0.000000e+00 0.000000e+00 0.000000e+00
 0.000000e+00 7.994434e-01 2.005566e-01 0.000000e+00 0.000000e+00
 0.000000e+00 0.000000e+00 7.562203e-01 2.437797e-01 0.000000e+00
 0.000000e+00 0.000000e+00 0.000000e+00 7.210248e-01 2.789752e-01
 0.000000e+00 0.000000e+00 0.000000e+00 0.000000e+00 0.000000e+00
<ENDHMM>
