~o
<STREAMINFO> 1 12
<VECSIZE> 12<NULLD><MFCC><DIAGC>
~h "a"
<BEGINHMM>
<NUMSTATES> 5
<STATE> 2
<MEAN> 12
 -1.325241e+00 -1.428747e+01 -3.598313e+00 -9.655263e+00 -1.060846e+01 -4.366362e+00 -7.585284e+00 -1.216440e+00 7.414361e+00 -8.622153e-01 -2.489138e-01 -1.000292e+01
<VARIANCE> 12
 2.094947e+01 1.437406e+02 4.207487e+01 3.411121e+01 6.088836e+01 9.650191e+01 6.144839e+01 6.426072e+01 5.046726e+01 5.589445e+01 6.485696e+01 5.232514e+01
<GCONST> 7.036792e+01
<STATE> 3
<MEAN> 12
 -1.067577e+00 -6.597309e+00 -5.788544e+00 -9.048591e+00 -4.516923e+00 -6.470447e+00 -5.431625e+00 -3.435082e-01 4.446874e+00 3.365777e+00 -1.083337e+00 -1.082606e+01
<VARIANCE> 12
 1.119696e+01 5.822196e+01 3.889210e+01 3.536042e+01 4.799319e+01 7.232533e+01 5.431467e+01 5.494997e+01 4.057378e+01 4.597320e+01 5.941378e+01 3.767064e+01
<GCONST> 6.715885e+01
<STATE> 4
<MEAN> 12
 -2.608748e+00 -3.798750e+00 5.700657e-01 -3.042594e+00 -7.619236e+00 -7.869793e+00 -8.680794e+00 -2.031299e+00 1.832568e+00 1.298262e+00 1.359624e-01 -4.181633e+00
<VARIANCE> 12
 2.572918e+01 1.381509e+02 4.622568e+01 5.088908e+01 6.946460e+01 9.611310e+01 5.294425e+01 5.698693e+01 4.848949e+01 4.569513e+01 4.749223e+01 3.557101e+01
<GCONST> 6.994753e+01
<TRANSP> 5
 0.000000e+00 1.000000e+00 0.000000e+00 0.000000e+00 0.000000e+00
 0.000000e+00 4.823578e-01 5.176422e-01 0.000000e+00 0.000000e+00
 0.000000e+00 0.000000e+00 7.179487e-01 2.820513e-01 0.000000e+00
 0.000000e+00 0.000000e+00 0.000000e+00 3.912042e-01 6.087958e-01
 0.000000e+00 0.000000e+00 0.000000e+00 0.000000e+00 0.000000e+00
<ENDHMM>
