~o
<STREAMINFO> 1 12
<VECSIZE> 12<NULLD><MFCC><DIAGC>
~h "a#"
<BEGINHMM>
<NUMSTATES> 5
<STATE> 2
<MEAN> 12
 2.856941e+00 -2.038641e+01 -4.803178e+00 -1.679875e+01 -1.658761e+01 6.171165e+00 -6.552132e+00 -6.952988e+00 1.901426e+00 -8.742236e+00 3.603725e+00 -1.879412e+00
<VARIANCE> 12
 1.871730e+01 1.517329e+02 2.150793e+01 3.393826e+01 7.943425e+01 3.805460e+01 6.834526e+01 5.161526e+01 4.705907e+01 6.096665e+01 3.251767e+01 7.013241e+01
<GCONST> 6.847530e+01
<STATE> 3
<MEAN> 12
 2.074667e+00 -5.751107e-01 -6.522722e+00 -1.283791e+01 -9.616823e+00 1.176786e-02 2.067081e+00 -2.494536e+00 -3.742388e+00 -1.739764e+00 -1.158170e+00 -6.827375e+00
<VARIANCE> 12
 8.773528e+00 8.359550e+01 3.018233e+01 4.060210e+01 3.673609e+01 3.368879e+01 7.595534e+01 5.477437e+01 3.839410e+01 6.981190e+01 4.106129e+01 5.130625e+01
<GCONST> 6.676421e+01
<STATE> 4
<MEAN> 12
 -3.291872e+00 -1.022391e+00 9.316249e-01 -6.788503e+00 -6.654304e+00 -1.663855e+00 -4.978439e+00 -6.148402e+00 -5.248130e+00 -1.679043e+00 -7.388746e-01 -4.580338e+00
<VARIANCE> 12
 4.256434e+01 1.866518e+02 2.247696e+01 4.290018e+01 8.366379e+01 3.668446e+01 5.218738e+01 7.654028e+01 7.103336e+01 3.898534e+01 3.928295e+01 4.494962e+01
<GCONST> 6.963064e+01
<TRANSP> 5
 0.000000e+00 1.000000e+00 0.000000e+00 0.000000e+00 0.000000e+00
 0.000000e+00 8.018866e-01 1.981134e-01 0.000000e+00 0.000000e+00
 0.000000e+00 0.000000e+00 7.761056e-01 2.238944e-01 0.000000e+00
 0.000000e+00 0.000000e+00 0.000000e+00 5.037304e-01 4.962696e-01
 0.000000e+00 0.000000e+00 0.000000e+00 0.000000e+00 0.000000e+00
<ENDHMM>
