~o
<STREAMINFO> 1 12
<VECSIZE> 12<NULLD><MFCC><DIAGC>
~h "b"
<BEGINHMM>
<NUMSTATES> 5
<STATE> 2
<MEAN> 12
 1.098597e+00 3.085357e+00 3.725382e+00 2.160494e+00 -5.413427e+00 -2.501660e+00 -1.063244e+01 -5.189187e+00 -4.178474e+00 -2.532558e-01 -1.451752e+00 -4.567436e+00
<VARIANCE> 12
 1.635299e+01 1.297773e+02 1.948188e+01 3.852388e+01 4.020829e+01 4.535582e+01 3.837086e+01 4.031943e+01 2.697212e+01 3.594044e+01 3.065875e+01 3.026763e+01
<GCONST> 6.489793e+01
<STATE> 3
<MEAN> 12
 3.429605e-01 -6.005604e+00 1.012736e+00 -4.953394e+00 -1.044799e+01 -2.612491e+00 -9.900242e+00 -6.557218e+00 -9.394895e-01 -1.846579e+00 -4.175446e-01 -2.583752e+00
<VARIANCE> 12
 1.383519e+01 1.606278e+02 3.705801e+01 6.125489e+01 4.824809e+01 8.928712e+01 5.110814e+01 4.475940e+01 5.130796e+01 1.114187e+02 3.834845e+01 3.600511e+01
<GCONST> 6.947334e+01
<STATE> 4
<MEAN> 12
 1.587228e+00 -1.667871e+01 -4.183665e-01 -1.088416e+01 -1.693154e+01 2.117134e+00 -1.270147e+01 -8.956606e+00 8.412974e-01 -8.710341e+00 5.221969e-01 -2.724538e+00
<VARIANCE> 12
 1.550696e+01 2.096779e+02 2.621647e+01 5.286765e+01 6.134120e+01 4.782848e+01 4.320372e+01 4.268236e+01 5.936826e+01 9.135749e+01 6.160819e+01 5.976801e+01
<GCONST> 6.968916e+01
<TRANSP> 5
 0.000000e+00 1.000000e+00 0.000000e+00 0.000000e+00 0.000000e+00
 0.000000e+00 7.350964e-01 2.649036e-01 0.000000e+00 0.000000e+00
 0.000000e+00 0.000000e+00 2.535942e-01 7.464057e-01 0.000000e+00
 0.000000e+00 0.000000e+00 0.000000e+00 5.929529e-01 4.070472e-01
 0.000000e+00 0.000000e+00 0.000000e+00 0.000000e+00 0.000000e+00
<ENDHMM>
