~o
<STREAMINFO> 1 12
<VECSIZE> 12<NULLD><MFCC><DIAGC>
~h "d"
<BEGINHMM>
<NUMSTATES> 5
<STATE> 2
<MEAN> 12
 -3.192990e-01 4.724357e+00 5.873949e+00 1.719947e+00 -6.858100e+00 -5.520399e+00 -8.862072e+00 -3.676564e+00 -2.523229e+00 2.561674e-01 -4.163961e+00 -4.849238e+00
<VARIANCE> 12
 1.741660e+01 1.190027e+02 2.173080e+01 3.219748e+01 4.616244e+01 4.994741e+01 3.424430e+01 5.830395e+01 3.387796e+01 2.667482e+01 2.861576e+01 2.934274e+01
<GCONST> 6.512353e+01
<STATE> 3
<MEAN> 12
 -4.984874e+00 -1.993382e+00 7.393102e+00 -4.102765e-01 -7.611465e+00 -7.596432e+00 -1.112077e+01 -5.774851e+00 -3.749018e-01 -2.093727e+00 -2.383342e+00 -1.909407e+00
<VARIANCE> 12
 2.790933e+01 1.322664e+02 3.559298e+01 3.175685e+01 7.211637e+01 7.921495e+01 6.040968e+01 4.796163e+01 4.138255e+01 3.551091e+01 2.976281e+01 2.942515e+01
<GCONST> 6.798837e+01
<STATE> 4
<MEAN> 12
 -2.593103e+00 -8.019255e+00 6.166646e+00 -2.989017e+00 -1.316970e+01 -6.595335e+00 -1.390495e+01 -7.506216e+00 9.785249e-01 -2.319276e+00 5.209563e-01 -2.025989e+00
<VARIANCE> 12
 2.822383e+01 2.166861e+02 4.701856e+01 4.587976e+01 8.389505e+01 9.084320e+01 5.653037e+01 5.536508e+01 5.814412e+01 6.284396e+01 3.647070e+01 4.409315e+01
<GCONST> 7.102353e+01
<TRANSP> 5
 0.000000e+00 1.000000e+00 0.000000e+00 0.000000e+00 0.000000e+00
 0.000000e+00 6.535398e-01 3.464603e-01 0.000000e+00 0.000000e+00
 0.000000e+00 0.000000e+00 3.746981e-01 6.253019e-01 0.000000e+00
 0.000000e+00 0.000000e+00 0.000000e+00 3.274666e-01 6.725334e-01
 0.000000e+00 0.000000e+00 0.000000e+00 0.000000e+00 0.000000e+00
<ENDHMM>
