~o
<STREAMINFO> 1 12
<VECSIZE> 12<NULLD><MFCC><DIAGC>
~h "e"
<BEGINHMM>
<NUMSTATES> 5
<STATE> 2
<MEAN> 12
 -1.482011e+00 -2.287163e+01 8.512371e+00 -4.250543e+00 -2.516759e+01 -5.892746e+00 -1.427026e+01 -8.417341e+00 1.551005e+00 -7.995890e+00 3.090131e+00 3.577358e+00
<VARIANCE> 12
 1.381903e+01 1.421030e+02 2.269493e+01 2.355067e+01 6.762292e+01 7.262151e+01 4.549841e+01 4.974491e+01 4.111765e+01 4.550055e+01 2.698407e+01 3.421745e+01
<GCONST> 6.650436e+01
<STATE> 3
<MEAN> 12
 -5.170832e+00 -6.759935e-01 1.063385e+01 7.873069e-01 -1.540515e+01 -1.687061e+01 -7.873388e+00 -2.584703e+00 -4.964875e+00 -3.593011e+00 3.136966e+00 -1.392415e+00
<VARIANCE> 12
 1.273289e+01 9.948397e+01 3.357559e+01 4.249000e+01 4.272847e+01 6.084363e+01 6.253902e+01 4.857394e+01 4.232074e+01 3.495944e+01 2.748123e+01 2.764409e+01
<GCONST> 6.627621e+01
<STATE> 4
<MEAN> 12
 -5.118079e+00 -2.800340e+00 5.699837e+00 -2.996536e-01 -9.207148e+00 -8.583914e+00 -9.381616e+00 -3.331367e+00 -1.622151e+00 -1.890198e+00 2.942312e-01 -2.702632e+00
<VARIANCE> 12
 3.549808e+01 1.603348e+02 3.879279e+01 3.933468e+01 7.433996e+01 7.165792e+01 4.650378e+01 5.483657e+01 4.558344e+01 4.989629e+01 3.511439e+01 3.881718e+01
<GCONST> 6.940302e+01
<TRANSP> 5
 0.000000e+00 1.000000e+00 0.000000e+00 0.000000e+00 0.000000e+00
 0.000000e+00 7.631495e-01 2.368505e-01 0.000000e+00 0.000000e+00
 0.000000e+00 0.000000e+00 7.217110e-01 2.782890e-01 0.000000e+00
 0.000000e+00 0.000000e+00 0.000000e+00 4.974942e-01 5.025058e-01
 0.000000e+00 0.000000e+00 0.000000e+00 0.000000e+00 0.000000e+00
<ENDHMM>
