~o
<STREAMINFO> 1 12
<VECSIZE> 12<NULLD><MFCC><DIAGC>
~h "e#"
<BEGINHMM>
<NUMSTATES> 5
<STATE> 2
<MEAN> 12
 -1.349832e+00 -4.939997e+00 -4.427465e+00 -3.894126e+00 -4.834454e+00 -8.173707e+00 -9.307418e+00 1.576402e-01 7.301651e+00 -2.015432e+00 1.141959e-01 -1.231131e+01
<VARIANCE> 12
 7.601046e+00 1.865100e+01 2.140908e+01 2.497604e+01 4.398563e+01 4.392761e+01 2.373587e+01 6.777064e+01 4.846094e+01 6.067660e+01 2.962097e+01 2.826412e+01
<GCONST> 6.295636e+01
<STATE> 3
<MEAN> 12
 -8.202777e-01 2.499110e+00 1.721093e+00 -1.716594e-01 -7.854303e+00 -8.660472e+00 -3.820620e+00 -4.648125e+00 -3.869522e+00 1.123979e+00 -1.392125e+00 -8.841400e+00
<VARIANCE> 12
 1.189730e+01 4.930123e+01 8.573354e+01 2.799968e+01 5.723748e+01 3.807470e+01 3.535274e+01 4.883344e+01 7.690410e+01 4.633850e+01 3.475324e+01 4.897167e+01
<GCONST> 6.697082e+01
<STATE> 4
<MEAN> 12
 -6.638354e+00 3.829242e+00 3.532588e+00 -1.041019e+00 -5.474444e+00 -5.372959e+00 -5.428947e+00 -2.690175e+00 -2.796017e+00 -1.590161e-01 -4.912929e+00 -1.902226e+00
<VARIANCE> 12
 3.239595e+01 3.995935e+01 3.427592e+01 2.337161e+01 2.623756e+01 2.730416e+01 3.093429e+01 4.198936e+01 5.002666e+01 2.676718e+01 3.303432e+01 2.701734e+01
<GCONST> 6.364366e+01
<TRANSP> 5
 0.000000e+00 1.000000e+00 0.000000e+00 0.000000e+00 0.000000e+00
 0.000000e+00 8.338934e-01 1.661066e-01 0.000000e+00 0.000000e+00
 0.000000e+00 0.000000e+00 5.949841e-01 4.050160e-01 0.000000e+00
 0.000000e+00 0.000000e+00 0.000000e+00 6.531129e-01 3.468871e-01
 0.000000e+00 0.000000e+00 0.000000e+00 0.000000e+00 0.000000e+00
<ENDHMM>
