~o
<STREAMINFO> 1 12
<VECSIZE> 12<NULLD><MFCC><DIAGC>
~h "ee"
<BEGINHMM>
<NUMSTATES> 5
<STATE> 2
<MEAN> 12
 -3.505558e+00 -5.653111e+00 3.967859e+00 -2.913846e+00 -1.276659e+01 -1.601771e+01 -9.753877e+00 1.262174e+00 2.900797e+00 -2.629379e+00 3.797204e+00 -4.946741e+00
<VARIANCE> 12
 1.363848e+01 5.743573e+01 3.408607e+01 3.872674e+01 4.235079e+01 5.828894e+01 3.621996e+01 4.644262e+01 4.346656e+01 3.356120e+01 4.053749e+01 4.848487e+01
<GCONST> 6.601158e+01
<STATE> 3
<MEAN> 12
 -1.852543e+00 -1.764734e+00 3.418799e+00 -2.747343e+00 -1.146066e+01 -1.228849e+01 -6.753034e+00 -1.689314e+00 -1.337405e-01 1.269820e+00 -9.778429e-01 -3.251217e+00
<VARIANCE> 12
 1.513159e+01 1.044778e+02 4.718874e+01 4.792884e+01 5.551677e+01 7.517017e+01 5.485658e+01 4.965497e+01 6.828305e+01 5.016954e+01 4.961643e+01 3.848843e+01
<GCONST> 6.908418e+01
<STATE> 4
<MEAN> 12
 5.115748e-01 -2.481001e+01 2.448792e+00 -7.227411e+00 -2.286071e+01 -2.645591e+00 -1.023178e+01 -4.229178e+00 6.803411e+00 -5.364303e+00 -4.771345e-01 1.408488e+00
<VARIANCE> 12
 1.808137e+01 1.783572e+02 3.403814e+01 3.293429e+01 9.778765e+01 7.231171e+01 4.416545e+01 5.889902e+01 5.899600e+01 4.920810e+01 4.386781e+01 3.872038e+01
<GCONST> 6.929382e+01
<TRANSP> 5
 0.000000e+00 1.000000e+00 0.000000e+00 0.000000e+00 0.000000e+00
 0.000000e+00 7.224215e-01 2.775785e-01 0.000000e+00 0.000000e+00
 0.000000e+00 0.000000e+00 5.075448e-01 4.924553e-01 0.000000e+00
 0.000000e+00 0.000000e+00 0.000000e+00 7.812533e-01 2.187467e-01
 0.000000e+00 0.000000e+00 0.000000e+00 0.000000e+00 0.000000e+00
<ENDHMM>
