~o
<STREAMINFO> 1 12
<VECSIZE> 12<NULLD><MFCC><DIAGC>
~h "f"
<BEGINHMM>
<NUMSTATES> 5
<STATE> 2
<MEAN> 12
 -1.091343e+01 -2.354082e+00 1.968010e+00 2.589970e+00 -4.513854e+00 -4.348687e+00 -5.536558e+00 -2.810085e+00 4.247164e-02 7.319278e-01 -8.259950e-01 3.178035e-01
<VARIANCE> 12
 3.772411e+01 1.132921e+02 1.901280e+01 3.179781e+01 7.662202e+01 2.985692e+01 3.054679e+01 2.254123e+01 3.208679e+01 1.978105e+01 1.890453e+01 1.276396e+01
<GCONST> 6.302841e+01
<STATE> 3
<MEAN> 12
 -1.908196e+01 -4.653759e+00 -3.263828e+00 1.263773e+00 -2.496644e+00 -4.494807e+00 -2.951595e+00 -1.301786e+00 2.211201e+00 2.063598e+00 -7.179218e-01 1.058251e+00
<VARIANCE> 12
 2.293654e+01 2.670105e+01 3.491242e+01 1.944978e+01 3.864545e+01 2.589327e+01 2.527981e+01 3.480256e+01 2.341398e+01 2.035466e+01 2.606027e+01 1.615456e+01
<GCONST> 6.089000e+01
<STATE> 4
<MEAN> 12
 -4.400959e+00 -3.744326e+00 1.058934e+00 -4.472525e+00 -7.925139e+00 -4.393596e+00 -6.556165e+00 -3.792549e+00 -3.640148e-01 -1.772463e+00 6.063026e-01 -1.728437e+00
<VARIANCE> 12
 3.667651e+01 1.603996e+02 4.924502e+01 3.989594e+01 7.933277e+01 7.993620e+01 4.792717e+01 4.918081e+01 5.368729e+01 4.545517e+01 3.537988e+01 2.610080e+01
<GCONST> 6.946549e+01
<TRANSP> 5
 0.000000e+00 1.000000e+00 0.000000e+00 0.000000e+00 0.000000e+00
 0.000000e+00 2.417941e-01 7.582058e-01 0.000000e+00 0.000000e+00
 0.000000e+00 0.000000e+00 8.529259e-01 1.470741e-01 0.000000e+00
 0.000000e+00 0.000000e+00 0.000000e+00 5.278041e-01 4.721960e-01
 0.000000e+00 0.000000e+00 0.000000e+00 0.000000e+00 0.000000e+00
<ENDHMM>
