~o
<STREAMINFO> 1 12
<VECSIZE> 12<NULLD><MFCC><DIAGC>
~h "g"
<BEGINHMM>
<NUMSTATES> 5
<STATE> 2
<MEAN> 12
 -4.589159e+00 3.996835e+00 1.179205e+01 1.571442e+00 -1.368330e+01 -9.913563e+00 -5.209751e+00 -5.761273e+00 -7.368868e+00 -1.020310e+00 4.153061e+00 -6.320908e+00
<VARIANCE> 12
 1.808742e+01 7.785452e+01 4.402302e+01 3.241250e+01 4.942791e+01 4.723153e+01 7.675874e+01 4.381895e+01 2.213266e+01 4.630621e+01 4.948532e+01 3.356533e+01
<GCONST> 6.679166e+01
<STATE> 3
<MEAN> 12
 -4.174899e+00 1.109818e+00 5.613385e+00 1.316245e+00 -7.387772e+00 -1.152377e+01 -8.762076e+00 -2.131350e+00 -9.265623e+00 7.239403e-01 6.750431e+00 -7.675441e+00
<VARIANCE> 12
 1.326036e+01 5.522406e+01 4.243057e+01 6.293996e+01 4.610091e+01 8.968176e+01 6.635009e+01 4.819953e+01 6.795139e+01 4.165278e+01 4.173162e+01 2.945243e+01
<GCONST> 6.800034e+01
<STATE> 4
<MEAN> 12
 -3.448126e+00 -6.267435e+00 9.357428e-01 -7.765095e+00 -1.222040e+01 -4.757565e+00 -7.124913e+00 -4.877573e+00 1.541504e+00 -3.180005e+00 3.025068e+00 -1.633965e+00
<VARIANCE> 12
 2.926221e+01 2.073989e+02 4.889505e+01 4.911300e+01 9.582024e+01 9.729769e+01 1.744380e+01 2.204606e+01 9.324429e+01 3.007476e+01 4.121060e+01 3.895216e+01
<GCONST> 6.896157e+01
<TRANSP> 5
 0.000000e+00 1.000000e+00 0.000000e+00 0.000000e+00 0.000000e+00
 0.000000e+00 6.901839e-01 3.098161e-01 0.000000e+00 0.000000e+00
 0.000000e+00 0.000000e+00 6.994423e-01 3.005578e-01 0.000000e+00
 0.000000e+00 0.000000e+00 0.000000e+00 4.242249e-01 5.757751e-01
 0.000000e+00 0.000000e+00 0.000000e+00 0.000000e+00 0.000000e+00
<ENDHMM>
