~o
<STREAMINFO> 1 12
<VECSIZE> 12<NULLD><MFCC><DIAGC>
~h "hh"
<BEGINHMM>
<NUMSTATES> 5
<STATE> 2
<MEAN> 12
 -1.423692e+01 -6.725842e+00 9.051090e+00 8.222096e+00 -1.166548e+01 -1.052701e+01 -4.707889e+00 8.411984e-02 1.855625e-01 -6.408831e+00 -3.592390e-01 -7.580582e-02
<VARIANCE> 12
 7.390647e+01 7.275140e+01 3.248620e+01 4.289809e+01 3.905925e+01 6.672408e+01 7.424770e+01 2.742180e+01 5.289725e+01 2.604981e+01 3.006530e+01 1.692909e+01
<GCONST> 6.682918e+01
<STATE> 3
<MEAN> 12
 -4.275074e+00 -9.445275e+00 1.443758e+01 8.710584e+00 -1.792368e+01 -1.125473e+01 -1.180165e+01 -2.126608e+00 -3.901879e+00 -1.424170e+01 9.617212e-01 -1.636863e+00
<VARIANCE> 12
 1.417350e+01 1.502436e+02 2.628437e+01 3.312146e+01 6.932616e+01 1.145695e+02 2.664882e+01 2.742115e+01 3.502517e+01 4.014062e+01 3.700031e+01 2.500554e+01
<GCONST> 6.613986e+01
<STATE> 4
<MEAN> 12
 -4.681873e+00 -2.112396e-01 2.051213e+01 1.418947e+00 -1.540148e+01 -1.293831e+01 -8.793086e+00 -4.609829e+00 -9.030501e+00 -4.724839e+00 5.991586e-01 -5.492771e+00
<VARIANCE> 12
 1.564209e+01 8.592664e+01 4.313838e+01 3.890854e+01 4.329971e+01 7.176638e+01 3.537346e+01 3.439495e+01 4.959285e+01 3.298646e+01 2.538970e+01 2.519950e+01
<GCONST> 6.569016e+01
<TRANSP> 5
 0.000000e+00 1.000000e+00 0.000000e+00 0.000000e+00 0.000000e+00
 0.000000e+00 4.248331e-01 5.751669e-01 0.000000e+00 0.000000e+00
 0.000000e+00 0.000000e+00 6.653304e-01 3.346696e-01 0.000000e+00
 0.000000e+00 0.000000e+00 0.000000e+00 6.563234e-01 3.436766e-01
 0.000000e+00 0.000000e+00 0.000000e+00 0.000000e+00 0.000000e+00
<ENDHMM>
