~o
<STREAMINFO> 1 12
<VECSIZE> 12<NULLD><MFCC><DIAGC>
~h "i"
<BEGINHMM>
<NUMSTATES> 5
<STATE> 2
<MEAN> 12
 -6.077464e+00 -1.212158e+01 1.398864e+01 -3.753892e+00 -1.991123e+01 -3.337496e+00 -1.413231e+01 -7.508162e+00 -6.278383e-01 -1.202331e+01 2.749163e-01 1.097631e+00
<VARIANCE> 12
 3.087897e+01 2.050338e+02 4.152411e+01 2.635670e+01 1.006060e+02 7.472382e+01 4.907941e+01 5.529636e+01 4.041265e+01 6.840514e+01 2.627152e+01 3.632666e+01
<GCONST> 6.942255e+01
<STATE> 3
<MEAN> 12
 -6.501966e+00 4.028109e+00 1.519451e+01 -8.910590e-01 -1.392038e+01 -1.302709e+01 -6.121129e+00 -6.032941e+00 -5.696616e+00 -4.172210e+00 8.000954e-01 -1.560024e+00
<VARIANCE> 12
 1.792775e+01 1.069213e+02 3.417040e+01 2.870864e+01 4.037422e+01 5.238098e+01 3.967127e+01 5.062040e+01 4.553201e+01 3.508934e+01 2.629424e+01 3.155308e+01
<GCONST> 6.586057e+01
<STATE> 4
<MEAN> 12
 -6.510027e+00 -1.839791e+00 6.256567e+00 -6.265227e-01 -9.359323e+00 -6.608644e+00 -7.098156e+00 -3.308393e+00 -5.670257e-01 -1.074065e+00 -1.196479e+00 -1.511861e+00
<VARIANCE> 12
 6.147717e+01 1.715778e+02 4.668569e+01 3.895442e+01 7.545338e+01 6.775397e+01 4.837812e+01 4.309958e+01 5.002361e+01 4.220606e+01 2.550425e+01 2.922566e+01
<GCONST> 6.927496e+01
<TRANSP> 5
 0.000000e+00 1.000000e+00 0.000000e+00 0.000000e+00 0.000000e+00
 0.000000e+00 6.117656e-01 3.882344e-01 0.000000e+00 0.000000e+00
 0.000000e+00 0.000000e+00 7.003952e-01 2.996048e-01 0.000000e+00
 0.000000e+00 0.000000e+00 0.000000e+00 4.138282e-01 5.861718e-01
 0.000000e+00 0.000000e+00 0.000000e+00 0.000000e+00 0.000000e+00
<ENDHMM>
