~o
<STREAMINFO> 1 12
<VECSIZE> 12<NULLD><MFCC><DIAGC>
~h "j"
<BEGINHMM>
<NUMSTATES> 5
<STATE> 2
<MEAN> 12
 -5.499842e+00 -5.264480e+00 1.135351e+01 8.621490e-02 -1.598659e+01 -8.992121e+00 -9.553493e+00 -3.507117e+00 -1.894065e+00 -4.113654e+00 1.271882e-01 -2.854210e-01
<VARIANCE> 12
 2.287180e+01 1.323536e+02 3.155491e+01 4.953193e+01 5.347967e+01 5.895118e+01 5.094548e+01 3.787325e+01 6.388422e+01 5.660434e+01 2.473306e+01 3.151704e+01
<GCONST> 6.789710e+01
<STATE> 3
<MEAN> 12
 -6.859566e+00 -4.180263e+00 1.327837e+01 -5.278025e+00 -1.548254e+01 -9.177346e+00 -1.205231e+01 2.115805e-01 -2.065480e+00 -7.233809e+00 4.536708e+00 -3.279042e+00
<VARIANCE> 12
 1.751418e+01 8.194928e+01 4.368182e+01 2.621808e+01 3.817766e+01 5.998820e+01 4.677082e+01 3.860015e+01 4.476716e+01 8.842302e+01 3.949995e+01 2.751134e+01
<GCONST> 6.687644e+01
<STATE> 4
<MEAN> 12
 -2.653729e+00 -1.421071e+01 3.019377e+00 -7.056364e+00 -1.621884e+01 -4.651275e+00 -1.156514e+01 -3.091359e+00 4.291735e+00 -6.640745e+00 1.916769e+00 -2.859545e+00
<VARIANCE> 12
 2.040122e+01 1.486461e+02 4.157230e+01 3.706401e+01 5.691330e+01 6.810417e+01 4.231139e+01 5.924424e+01 5.629308e+01 9.522025e+01 4.096016e+01 9.219633e+01
<GCONST> 7.032435e+01
<TRANSP> 5
 0.000000e+00 1.000000e+00 0.000000e+00 0.000000e+00 0.000000e+00
 0.000000e+00 4.511650e-01 5.488350e-01 0.000000e+00 0.000000e+00
 0.000000e+00 0.000000e+00 7.317559e-01 2.682441e-01 0.000000e+00
 0.000000e+00 0.000000e+00 0.000000e+00 5.288552e-01 4.711448e-01
 0.000000e+00 0.000000e+00 0.000000e+00 0.000000e+00 0.000000e+00
<ENDHMM>
