~o
<STREAMINFO> 1 12
<VECSIZE> 12<NULLD><MFCC><DIAGC>
~h "jj"
<BEGINHMM>
<NUMSTATES> 5
<STATE> 2
<MEAN> 12
 -6.409580e-01 6.015177e+00 7.949114e+00 3.121219e+00 -8.185694e+00 -1.692703e+01 -7.028424e+00 -2.234668e+00 -1.041233e+01 -4.308990e+00 8.379046e-01 -2.238502e+00
<VARIANCE> 12
 1.174674e+01 1.480370e+01 3.046013e+01 7.657355e+00 3.182122e+01 3.634215e+01 4.081984e+01 5.517430e+01 5.407420e+01 1.675970e+01 2.777860e+01 8.366138e+00
<GCONST> 5.969563e+01
<STATE> 3
<MEAN> 12
 -1.147809e+00 7.846689e+00 1.349247e+01 -1.191021e+00 -1.475628e+01 -8.209270e+00 -8.006559e+00 -9.119247e+00 -5.959763e+00 -6.759051e+00 -4.441016e-01 -2.566682e+00
<VARIANCE> 12
 2.071090e+01 2.749646e+01 3.155591e+01 1.365107e+01 1.326443e+01 8.435593e+01 5.120846e+01 3.009506e+01 1.724322e+01 2.623422e+00 5.414938e+01 9.196102e+00
<GCONST> 5.884765e+01
<STATE> 4
<MEAN> 12
 -4.429188e+00 4.165521e-02 1.171882e+01 -5.874834e-01 -1.239645e+01 -1.594326e+01 -1.113743e+01 -5.359982e+00 -5.716031e+00 -2.177777e+00 4.695424e+00 -4.879231e+00
<VARIANCE> 12
 1.152657e+01 4.242810e+01 5.580868e+01 8.842748e+00 6.248365e+01 7.548006e+01 5.920921e+01 1.141224e+01 7.456636e+01 1.399903e+01 2.239661e+01 3.637396e+00
<GCONST> 6.077391e+01
<TRANSP> 5
 0.000000e+00 1.000000e+00 0.000000e+00 0.000000e+00 0.000000e+00
 0.000000e+00 6.939172e-01 3.060828e-01 0.000000e+00 0.000000e+00
 0.000000e+00 0.000000e+00 5.036228e-01 4.963771e-01 0.000000e+00
 0.000000e+00 0.000000e+00 0.000000e+00 5.948672e-01 4.051329e-01
 0.000000e+00 0.000000e+00 0.000000e+00 0.000000e+00 0.000000e+00
<ENDHMM>
