~o
<STREAMINFO> 1 12
<VECSIZE> 12<NULLD><MFCC><DIAGC>
~h "k"
<BEGINHMM>
<NUMSTATES> 5
<STATE> 2
<MEAN> 12
 -7.531919e+00 -1.870748e-01 2.121408e+00 1.213652e+00 -5.674762e+00 -4.221139e+00 -6.894854e+00 2.649905e-01 -3.703974e+00 2.125120e+00 1.768230e-01 -8.028103e-01
<VARIANCE> 12
 2.462131e+01 8.109063e+01 5.074492e+01 3.011906e+01 5.586631e+01 4.470344e+01 3.667303e+01 5.009051e+01 4.134681e+01 3.845436e+01 2.913178e+01 2.464571e+01
<GCONST> 6.627246e+01
<STATE> 3
<MEAN> 12
 -1.469094e+01 -2.744841e+00 2.722946e+00 -4.608870e+00 -3.997144e+00 -4.050069e+00 -5.815274e+00 -2.474952e+00 -6.490185e-01 9.346243e-01 -1.278251e-01 1.248624e+00
<VARIANCE> 12
 5.327427e+01 8.739866e+01 7.409303e+01 4.948645e+01 6.118640e+01 4.772928e+01 3.393709e+01 3.444579e+01 3.937440e+01 3.069551e+01 2.730793e+01 2.102278e+01
<GCONST> 6.720087e+01
<STATE> 4
<MEAN> 12
 -5.016771e+00 -6.534634e+00 4.293298e+00 -3.039407e+00 -1.150966e+01 -7.474342e+00 -1.045908e+01 -2.222493e+00 -2.338230e+00 -3.372881e+00 3.925194e+00 -1.637963e+00
<VARIANCE> 12
 4.040141e+01 1.852615e+02 7.110033e+01 4.788164e+01 8.922351e+01 9.280257e+01 6.863895e+01 6.099250e+01 5.731804e+01 4.093844e+01 4.672706e+01 3.103348e+01
<GCONST> 7.150928e+01
<TRANSP> 5
 0.000000e+00 1.000000e+00 0.000000e+00 0.000000e+00 0.000000e+00
 0.000000e+00 6.615852e-01 3.384148e-01 0.000000e+00 0.000000e+00
 0.000000e+00 0.000000e+00 6.704593e-01 3.295407e-01 0.000000e+00
 0.000000e+00 0.000000e+00 0.000000e+00 4.931805e-01 5.068195e-01
 0.000000e+00 0.000000e+00 0.000000e+00 0.000000e+00 0.000000e+00
<ENDHMM>
