~o
<STREAMINFO> 1 12
<VECSIZE> 12<NULLD><MFCC><DIAGC>
~h "l"
<BEGINHMM>
<NUMSTATES> 5
<STATE> 2
<MEAN> 12
 3.446443e-01 -5.753403e+00 1.271442e+00 2.366928e+00 -6.196776e+00 -1.227715e+01 -1.636623e+01 -9.257741e+00 6.160294e-01 -1.106944e+00 -2.416693e+00 -6.466469e+00
<VARIANCE> 12
 2.145481e+01 1.708161e+02 6.037239e+01 5.774729e+01 1.928164e+02 7.534257e+01 8.180063e+01 6.291656e+01 4.828267e+01 6.276670e+01 4.649040e+01 7.059285e+01
<GCONST> 7.266022e+01
<STATE> 3
<MEAN> 12
 -4.341823e-01 -2.922510e+00 3.127822e+00 1.144794e+00 -6.885386e+00 -1.467918e+01 -1.513438e+01 -3.440078e+00 -5.677471e-01 1.669610e+00 -5.913372e-01 -7.353988e+00
<VARIANCE> 12
 1.297646e+01 8.441920e+01 4.715724e+01 6.459566e+01 6.905157e+01 8.236144e+01 4.779670e+01 7.306293e+01 4.962918e+01 7.079735e+01 4.425659e+01 4.964256e+01
<GCONST> 6.973859e+01
<STATE> 4
<MEAN> 12
 -2.906186e+00 -7.728168e+00 3.309547e+00 -2.760072e+00 -1.184441e+01 -8.345866e+00 -1.042756e+01 -3.894327e+00 8.641620e-01 -1.481055e+00 -4.585649e-01 -4.021820e+00
<VARIANCE> 12
 3.732434e+01 1.702332e+02 6.336736e+01 4.896329e+01 8.300779e+01 7.527643e+01 6.882094e+01 6.133106e+01 7.623598e+01 6.387948e+01 5.164558e+01 5.308615e+01
<GCONST> 7.234641e+01
<TRANSP> 5
 0.000000e+00 1.000000e+00 0.000000e+00 0.000000e+00 0.000000e+00
 0.000000e+00 4.254122e-01 5.745878e-01 0.000000e+00 0.000000e+00
 0.000000e+00 0.000000e+00 6.251019e-01 3.748982e-01 0.000000e+00
 0.000000e+00 0.000000e+00 0.000000e+00 3.703116e-01 6.296884e-01
 0.000000e+00 0.000000e+00 0.000000e+00 0.000000e+00 0.000000e+00
<ENDHMM>
