~o
<STREAMINFO> 1 12
<VECSIZE> 12<NULLD><MFCC><DIAGC>
~h "m"
<BEGINHMM>
<NUMSTATES> 5
<STATE> 2
<MEAN> 12
 -7.800111e-01 2.919098e+00 4.757875e+00 2.315201e+00 -4.510697e+00 -9.984402e+00 -5.292253e+00 -8.052704e+00 -8.263558e+00 7.383166e-02 -1.183266e+00 -6.198854e+00
<VARIANCE> 12
 9.250506e+00 6.765752e+01 1.709195e+01 2.525130e+01 3.518953e+01 7.235779e+01 5.489128e+01 4.119856e+01 4.718052e+01 4.833917e+01 4.613701e+01 4.038608e+01
<GCONST> 6.538960e+01
<STATE> 3
<MEAN> 12
 -7.518663e-01 2.075935e+00 4.122819e+00 -8.763777e-01 -6.057273e+00 -2.126111e+00 -7.311689e+00 -8.510583e+00 -6.417538e+00 -1.819456e+00 -7.582861e-01 -4.331426e+00
<VARIANCE> 12
 8.687455e+00 8.498809e+01 3.018247e+01 3.247224e+01 4.665317e+01 4.648930e+01 5.807372e+01 4.268093e+01 4.141910e+01 4.358891e+01 5.519016e+01 4.676364e+01
<GCONST> 6.639843e+01
<STATE> 4
<MEAN> 12
 -1.782038e-01 -4.510367e+00 -1.236501e+00 -7.035663e+00 -1.034237e+01 -2.537167e+00 -5.993267e+00 -6.266360e+00 1.581225e+00 -2.749312e+00 -8.952377e-01 -4.880334e+00
<VARIANCE> 12
 1.777839e+01 1.209230e+02 4.432186e+01 5.339727e+01 5.665998e+01 5.604622e+01 8.143191e+01 5.043329e+01 4.982496e+01 5.228932e+01 4.812209e+01 5.070261e+01
<GCONST> 6.954559e+01
<TRANSP> 5
 0.000000e+00 1.000000e+00 0.000000e+00 0.000000e+00 0.000000e+00
 0.000000e+00 6.745402e-01 3.254598e-01 0.000000e+00 0.000000e+00
 0.000000e+00 0.000000e+00 6.140496e-01 3.859504e-01 0.000000e+00
 0.000000e+00 0.000000e+00 0.000000e+00 4.319562e-01 5.680438e-01
 0.000000e+00 0.000000e+00 0.000000e+00 0.000000e+00 0.000000e+00
<ENDHMM>
