~o
<STREAMINFO> 1 12
<VECSIZE> 12<NULLD><MFCC><DIAGC>
~h "n"
<BEGINHMM>
<NUMSTATES> 5
<STATE> 2
<MEAN> 12
 -6.961730e-01 2.809458e+00 4.829069e+00 -7.674556e-02 -8.384429e+00 -9.868113e+00 -4.862696e+00 -9.178313e+00 -6.528743e+00 1.964746e+00 -5.669654e+00 -7.450276e+00
<VARIANCE> 12
 1.124568e+01 1.124641e+02 2.468796e+01 2.406346e+01 5.766979e+01 4.707995e+01 6.336434e+01 4.507796e+01 5.161752e+01 5.201933e+01 5.190225e+01 4.373169e+01
<GCONST> 6.707095e+01
<STATE> 3
<MEAN> 12
 -3.770290e+00 -1.838840e+00 4.986021e+00 -1.089363e+00 -9.471770e+00 -7.174120e+00 -7.233843e+00 -6.020789e+00 -3.012311e+00 -2.579983e+00 -2.515677e+00 -4.270272e+00
<VARIANCE> 12
 2.699226e+01 1.620238e+02 3.574788e+01 3.128862e+01 8.968234e+01 6.258765e+01 5.269400e+01 3.797746e+01 5.764875e+01 5.006934e+01 2.987466e+01 4.962796e+01
<GCONST> 6.896124e+01
<STATE> 4
<MEAN> 12
 -1.635226e+00 -1.134826e+01 1.758750e+00 -5.828522e+00 -1.265705e+01 -3.744714e+00 -1.149988e+01 -3.908614e+00 1.550085e+00 -4.145312e+00 -1.132267e+00 -4.523470e+00
<VARIANCE> 12
 2.527842e+01 2.191861e+02 5.222013e+01 3.347184e+01 1.178845e+02 6.762625e+01 6.517144e+01 5.666771e+01 6.571217e+01 5.849405e+01 4.552620e+01 6.522594e+01
<GCONST> 7.158885e+01
<TRANSP> 5
 0.000000e+00 1.000000e+00 0.000000e+00 0.000000e+00 0.000000e+00
 0.000000e+00 6.818541e-01 3.181459e-01 0.000000e+00 0.000000e+00
 0.000000e+00 0.000000e+00 3.269683e-01 6.730317e-01 0.000000e+00
 0.000000e+00 0.000000e+00 0.000000e+00 4.255274e-01 5.744727e-01
 0.000000e+00 0.000000e+00 0.000000e+00 0.000000e+00 0.000000e+00
<ENDHMM>
