~o
<STREAMINFO> 1 12
<VECSIZE> 12<NULLD><MFCC><DIAGC>
~h "o"
<BEGINHMM>
<NUMSTATES> 5
<STATE> 2
<MEAN> 12
 1.437463e+00 -6.440037e+00 -1.001172e+00 -1.234256e+01 -1.505850e+01 1.001037e+00 -1.209687e+01 -6.759394e+00 -1.997089e+00 -5.947128e+00 6.257237e+00 -1.807965e+00
<VARIANCE> 12
 1.810179e+01 1.736291e+02 1.979094e+01 5.775260e+01 5.236077e+01 5.208318e+01 9.053836e+01 7.716861e+01 6.680497e+01 6.738557e+01 7.746943e+01 3.989532e+01
<GCONST> 7.035996e+01
<STATE> 3
<MEAN> 12
 1.741482e+00 9.331096e-01 -4.281171e-01 -8.339050e+00 -1.081726e+01 -1.758584e+00 -8.474204e+00 -1.283696e+01 -5.128877e+00 -4.079637e-01 4.608151e+00 3.444981e-01
<VARIANCE> 12
 9.482293e+00 8.393368e+01 1.765306e+01 4.582728e+01 4.453320e+01 4.530476e+01 5.085595e+01 5.815990e+01 6.569908e+01 7.002810e+01 5.806950e+01 4.158561e+01
<GCONST> 6.725499e+01
<STATE> 4
<MEAN> 12
 -3.510670e+00 -1.816234e+00 3.096233e+00 -1.714871e+00 -6.749497e+00 -5.161845e+00 -1.003806e+01 -8.372850e+00 -1.722346e+00 5.926971e-01 1.422142e+00 -2.285356e+00
<VARIANCE> 12
 3.565649e+01 1.230784e+02 4.132074e+01 5.770279e+01 1.018294e+02 6.423052e+01 6.920377e+01 4.946185e+01 6.319149e+01 5.970306e+01 4.586383e+01 5.113597e+01
<GCONST> 7.113770e+01
<TRANSP> 5
 0.000000e+00 1.000000e+00 0.000000e+00 0.000000e+00 0.000000e+00
 0.000000e+00 6.097317e-01 3.902684e-01 0.000000e+00 0.000000e+00
 0.000000e+00 0.000000e+00 6.034898e-01 3.965102e-01 0.000000e+00
 0.000000e+00 0.000000e+00 0.000000e+00 3.472329e-01 6.527671e-01
 0.000000e+00 0.000000e+00 0.000000e+00 0.000000e+00 0.000000e+00
<ENDHMM>
