~o
<STREAMINFO> 1 12
<VECSIZE> 12<NULLD><MFCC><DIAGC>
~h "o#"
<BEGINHMM>
<NUMSTATES> 5
<STATE> 2
<MEAN> 12
 4.248075e+00 -2.122052e+01 -2.609033e+00 -1.333804e+01 -2.428449e+01 7.662449e-01 -1.092607e+01 -8.106736e+00 2.159386e+00 -7.159350e+00 1.517133e+00 5.796735e-01
<VARIANCE> 12
 1.153484e+01 1.496953e+02 1.685429e+01 2.536306e+01 8.274147e+01 4.035946e+01 4.824750e+01 3.772797e+01 3.372077e+01 3.956250e+01 2.995063e+01 3.240229e+01
<GCONST> 6.526047e+01
<STATE> 3
<MEAN> 12
 1.633602e+00 2.956206e+00 -2.604566e+00 -1.259584e+01 -1.155763e+01 -2.098380e+00 -1.147366e+00 -4.136488e+00 -4.326540e+00 -6.063920e-01 -2.333120e+00 -4.741177e+00
<VARIANCE> 12
 7.033976e+00 5.740584e+01 1.971067e+01 3.464980e+01 3.774567e+01 4.245053e+01 6.433168e+01 3.599553e+01 4.419373e+01 3.445162e+01 4.662106e+01 3.742110e+01
<GCONST> 6.450095e+01
<STATE> 4
<MEAN> 12
 -2.527126e+00 9.440506e-01 1.512394e+00 -2.788146e+00 -6.150472e+00 -6.237853e+00 -9.130086e+00 -4.538395e+00 -2.814668e+00 3.086823e+00 -1.252084e+00 -4.310608e+00
<VARIANCE> 12
 2.015345e+01 9.264991e+01 2.219066e+01 3.622380e+01 5.289175e+01 4.680571e+01 8.769486e+01 4.954376e+01 4.255576e+01 5.722644e+01 4.529282e+01 3.894143e+01
<GCONST> 6.774012e+01
<TRANSP> 5
 0.000000e+00 1.000000e+00 0.000000e+00 0.000000e+00 0.000000e+00
 0.000000e+00 7.964846e-01 2.035155e-01 0.000000e+00 0.000000e+00
 0.000000e+00 0.000000e+00 8.473148e-01 1.526852e-01 0.000000e+00
 0.000000e+00 0.000000e+00 0.000000e+00 7.046154e-01 2.953846e-01
 0.000000e+00 0.000000e+00 0.000000e+00 0.000000e+00 0.000000e+00
<ENDHMM>
