~o
<STREAMINFO> 1 12
<VECSIZE> 12<NULLD><MFCC><DIAGC>
~h "oo"
<BEGINHMM>
<NUMSTATES> 5
<STATE> 2
<MEAN> 12
 4.459574e+00 -1.951587e+01 -3.511245e+00 -1.549023e+01 -2.250076e+01 6.834193e+00 -1.038324e+01 -9.059898e+00 1.734795e+00 -4.869390e+00 2.091133e-01 -3.174065e+00
<VARIANCE> 12
 1.296404e+01 1.845424e+02 1.617956e+01 2.615352e+01 7.811623e+01 3.669149e+01 4.510012e+01 3.137950e+01 4.622437e+01 5.087268e+01 4.929320e+01 3.771434e+01
<GCONST> 6.638876e+01
<STATE> 3
<MEAN> 12
 1.038244e+00 5.706126e-01 -2.224832e+00 -1.464936e+01 -1.111219e+01 1.734281e+00 -8.641585e+00 -1.489599e+01 -2.629887e+00 7.309459e-01 6.837874e+00 -1.522945e+00
<VARIANCE> 12
 1.758498e+01 6.970278e+01 2.486244e+01 5.723668e+01 4.375911e+01 5.675970e+01 6.391899e+01 4.299100e+01 6.554509e+01 4.388338e+01 4.327116e+01 6.135265e+01
<GCONST> 6.801089e+01
<STATE> 4
<MEAN> 12
 1.559475e+00 -9.343334e+00 -1.861559e+00 -1.683388e+00 -1.290597e+01 -5.827041e+00 -1.476925e+01 -9.932599e+00 -2.184505e+00 6.326233e-01 -7.793086e-01 -1.921513e+00
<VARIANCE> 12
 3.484402e+01 1.895425e+02 3.657665e+01 8.638052e+01 9.141116e+01 8.115237e+01 1.021609e+02 5.996281e+01 6.891363e+01 4.870970e+01 4.677734e+01 4.199268e+01
<GCONST> 7.224178e+01
<TRANSP> 5
 0.000000e+00 1.000000e+00 0.000000e+00 0.000000e+00 0.000000e+00
 0.000000e+00 7.418436e-01 2.581564e-01 0.000000e+00 0.000000e+00
 0.000000e+00 0.000000e+00 6.796608e-01 3.203392e-01 0.000000e+00
 0.000000e+00 0.000000e+00 0.000000e+00 5.824336e-01 4.175663e-01
 0.000000e+00 0.000000e+00 0.000000e+00 0.000000e+00 0.000000e+00
<ENDHMM>
