~o
<STREAMINFO> 1 12
<VECSIZE> 12<NULLD><MFCC><DIAGC>
~h "p"
<BEGINHMM>
<NUMSTATES> 5
<STATE> 2
<MEAN> 12
 -4.998151e+00 2.572646e+00 1.388663e+00 1.903967e+00 -4.740335e+00 -1.871963e+00 -6.795350e+00 -1.128555e+00 -2.151195e+00 1.432965e+00 -1.137302e+00 -6.935109e-01
<VARIANCE> 12
 2.618602e+01 7.315133e+01 2.207383e+01 2.941159e+01 3.846965e+01 2.566739e+01 2.872484e+01 3.383203e+01 2.938427e+01 3.073129e+01 1.843355e+01 2.080767e+01
<GCONST> 6.261756e+01
<STATE> 3
<MEAN> 12
 -7.217456e+00 -4.846809e+00 1.462027e-01 -6.655778e-01 -5.277634e+00 -5.047429e+00 -6.819064e+00 -2.370496e+00 1.303470e+00 7.521299e-01 -3.500170e-01 -1.200373e+00
<VARIANCE> 12
 4.332093e+01 8.541445e+01 2.593867e+01 4.449525e+01 6.495815e+01 4.379295e+01 3.080480e+01 3.162715e+01 4.029676e+01 3.833266e+01 3.065694e+01 2.302083e+01
<GCONST> 6.605853e+01
<STATE> 4
<MEAN> 12
 3.686555e-01 -1.752169e+01 -1.030057e+00 -6.946237e+00 -1.545616e+01 -1.652449e+00 -1.112744e+01 -5.155494e+00 6.562882e+00 -4.650541e+00 1.486022e+00 -5.543615e+00
<VARIANCE> 12
 1.800358e+01 1.814474e+02 3.738578e+01 5.997949e+01 8.960970e+01 5.016273e+01 6.074733e+01 4.619715e+01 6.355641e+01 7.383121e+01 7.427605e+01 7.145220e+01
<GCONST> 7.124226e+01
<TRANSP> 5
 0.000000e+00 1.000000e+00 0.000000e+00 0.000000e+00 0.000000e+00
 0.000000e+00 7.222040e-01 2.777960e-01 0.000000e+00 0.000000e+00
 0.000000e+00 0.000000e+00 5.602250e-01 4.397750e-01 0.000000e+00
 0.000000e+00 0.000000e+00 0.000000e+00 7.085868e-01 2.914132e-01
 0.000000e+00 0.000000e+00 0.000000e+00 0.000000e+00 0.000000e+00
<ENDHMM>
