~o
<STREAMINFO> 1 12
<VECSIZE> 12<NULLD><MFCC><DIAGC>
~h "rr"
<BEGINHMM>
<NUMSTATES> 5
<STATE> 2
<MEAN> 12
 -1.142567e+00 -1.575109e+01 -3.490876e+00 -1.109406e+01 -1.230161e+01 5.159883e+00 -8.956553e+00 -6.812641e+00 4.387045e+00 -2.234244e+00 1.358109e+00 -1.944799e+00
<VARIANCE> 12
 3.518031e+01 2.391462e+02 3.127947e+01 4.019064e+01 9.800115e+01 7.373752e+01 6.880399e+01 4.354747e+01 5.331474e+01 4.837273e+01 4.719075e+01 4.656594e+01
<GCONST> 7.066950e+01
<STATE> 3
<MEAN> 12
 -4.207538e+00 -1.260981e+00 -3.962698e+00 -1.054801e+01 -5.027378e+00 5.935276e-01 -3.552961e+00 -4.424345e+00 7.556201e-01 1.614456e+00 9.165102e-01 -1.621435e+00
<VARIANCE> 12
 4.456458e+01 1.018787e+02 2.853868e+01 4.658972e+01 7.920706e+01 4.360306e+01 5.916146e+01 4.280083e+01 5.020971e+01 4.609787e+01 4.334798e+01 4.085591e+01
<GCONST> 6.887819e+01
<STATE> 4
<MEAN> 12
 -1.862575e+00 -4.974513e+00 -1.668211e-01 -7.090087e+00 -1.003070e+01 -3.927022e+00 -6.792200e+00 -4.687321e+00 1.411541e+00 5.442828e-02 3.524982e-01 -2.789308e+00
<VARIANCE> 12
 3.418078e+01 1.678973e+02 4.229433e+01 5.686489e+01 7.765349e+01 7.490627e+01 7.380416e+01 5.265654e+01 5.060720e+01 5.383302e+01 3.885756e+01 4.592769e+01
<GCONST> 7.082553e+01
<TRANSP> 5
 0.000000e+00 1.000000e+00 0.000000e+00 0.000000e+00 0.000000e+00
 0.000000e+00 4.728851e-01 5.271149e-01 0.000000e+00 0.000000e+00
 0.000000e+00 0.000000e+00 6.675865e-01 3.324135e-01 0.000000e+00
 0.000000e+00 0.000000e+00 0.000000e+00 2.826381e-01 7.173619e-01
 0.000000e+00 0.000000e+00 0.000000e+00 0.000000e+00 0.000000e+00
<ENDHMM>
