~o
<STREAMINFO> 1 12
<VECSIZE> 12<NULLD><MFCC><DIAGC>
~h "s"
<BEGINHMM>
<NUMSTATES> 5
<STATE> 2
<MEAN> 12
 -1.317017e+01 2.261527e+00 4.403676e+00 -2.205459e+00 -3.995155e+00 -6.198339e+00 -7.780083e+00 -2.560911e+00 7.288674e-01 -1.864531e+00 -1.391307e+00 2.303094e-01
<VARIANCE> 12
 5.653836e+01 1.905527e+02 5.027044e+01 3.292475e+01 8.330417e+01 8.722803e+01 4.144244e+01 3.742773e+01 4.604831e+01 3.410250e+01 3.324216e+01 2.611019e+01
<GCONST> 6.911397e+01
<STATE> 3
<MEAN> 12
 -2.420711e+01 2.934113e+00 1.990374e-01 -2.434823e+00 -1.381564e+00 -5.628152e+00 -2.849178e+00 1.610574e+00 1.401891e+00 -5.050192e-01 -3.761835e-01 1.828470e+00
<VARIANCE> 12
 3.976263e+01 5.847125e+01 4.992643e+01 2.641920e+01 5.407533e+01 4.548420e+01 3.983532e+01 3.588788e+01 3.224564e+01 2.410683e+01 2.383335e+01 2.035074e+01
<GCONST> 6.490360e+01
<STATE> 4
<MEAN> 12
 -7.554843e+00 -6.211002e+00 4.122806e+00 -2.181584e+00 -9.982273e+00 -7.347219e+00 -9.502370e+00 -3.608689e+00 1.879324e+00 -2.858629e+00 -3.906579e-01 -2.031023e+00
<VARIANCE> 12
 4.250334e+01 2.037098e+02 5.998857e+01 3.790652e+01 8.441815e+01 1.170092e+02 4.854237e+01 3.837959e+01 5.445091e+01 5.439064e+01 3.424463e+01 4.756294e+01
<GCONST> 7.096716e+01
<TRANSP> 5
 0.000000e+00 1.000000e+00 0.000000e+00 0.000000e+00 0.000000e+00
 0.000000e+00 3.023740e-01 6.976260e-01 0.000000e+00 0.000000e+00
 0.000000e+00 0.000000e+00 8.552852e-01 1.447148e-01 0.000000e+00
 0.000000e+00 0.000000e+00 0.000000e+00 5.163823e-01 4.836177e-01
 0.000000e+00 0.000000e+00 0.000000e+00 0.000000e+00 0.000000e+00
<ENDHMM>
