~o
<STREAMINFO> 1 12
<VECSIZE> 12<NULLD><MFCC><DIAGC>
~h "sil"
<BEGINHMM>
<NUMSTATES> 5
<STATE> 2
<MEAN> 12
 -2.509508e+00 -2.643223e+01 2.164358e+00 -5.251704e+00 -2.001742e+01 2.250820e+00 -1.152116e+01 -5.494662e+00 6.572314e+00 -7.262539e+00 4.558473e-01 2.557265e+00
<VARIANCE> 12
 1.809364e+01 1.167123e+02 2.457740e+01 3.089013e+01 6.132591e+01 4.719841e+01 3.719747e+01 3.882769e+01 3.724479e+01 4.326720e+01 2.834236e+01 3.602848e+01
<GCONST> 6.590157e+01
<STATE> 3
<MEAN> 12
 -1.320037e+01 -5.994802e+00 -1.520400e+00 -1.538152e+00 -1.833217e-01 -5.386235e+00 -5.078131e+00 1.934335e+00 3.689878e+00 -1.664738e-01 -2.814303e+00 1.150075e+00
<VARIANCE> 12
 3.349007e+01 3.975444e+01 1.845343e+01 2.560888e+01 4.159803e+01 4.751424e+01 2.437354e+01 2.962635e+01 3.392848e+01 3.116731e+01 2.450654e+01 2.310396e+01
<GCONST> 6.288050e+01
<STATE> 4
<MEAN> 12
 -7.895484e+00 1.078360e+00 -1.266333e-01 1.915659e+00 -5.050929e+00 -1.819642e+00 -5.259425e+00 -7.885422e-01 -8.048351e-01 1.130833e+00 -1.736151e+00 -8.486402e-01
<VARIANCE> 12
 3.545959e+01 3.636657e+01 3.804390e+01 4.380754e+01 4.247300e+01 5.711201e+01 4.176416e+01 3.863649e+01 3.211317e+01 3.413119e+01 2.827251e+01 2.746891e+01
<GCONST> 6.546965e+01
<TRANSP> 5
 0.000000e+00 1.000000e+00 0.000000e+00 0.000000e+00 0.000000e+00
 0.000000e+00 8.593077e-01 1.406923e-01 0.000000e+00 0.000000e+00
 0.000000e+00 0.000000e+00 8.916364e-01 1.083636e-01 0.000000e+00
 0.000000e+00 0.000000e+00 0.000000e+00 9.202686e-01 7.973140e-02
 0.000000e+00 0.000000e+00 0.000000e+00 0.000000e+00 0.000000e+00
<ENDHMM>
