~o
<STREAMINFO> 1 12
<VECSIZE> 12<NULLD><MFCC><DIAGC>
~h "ss"
<BEGINHMM>
<NUMSTATES> 5
<STATE> 2
<MEAN> 12
 -2.211963e+01 -6.694259e+00 7.609464e+00 -5.701635e-01 -8.813353e+00 -1.654487e+00 -1.049341e+00 -1.292588e+00 3.969974e+00 -2.961784e+00 8.697063e-02 3.100115e+00
<VARIANCE> 12
 9.050679e+01 9.776908e+01 2.314083e+01 3.714237e+01 2.220465e+01 2.028401e+01 2.403401e+01 3.038043e+01 2.421884e+01 2.626346e+01 2.132157e+01 2.023446e+01
<GCONST> 6.312473e+01
<STATE> 3
<MEAN> 12
 -2.066454e+01 -5.466689e+00 3.699686e+00 1.723993e+00 -1.896567e+00 -7.481073e+00 -6.054378e-01 -7.216393e+00 5.719815e+00 1.600063e+00 -1.274182e+00 1.285292e+00
<VARIANCE> 12
 6.182290e+01 4.359991e+01 3.703306e+01 1.751964e+01 6.328470e+01 3.915100e+01 4.288829e+01 3.485967e+01 5.705954e+01 3.622057e+01 2.569819e+01 2.016928e+01
<GCONST> 6.543829e+01
<STATE> 4
<MEAN> 12
 -3.790061e+00 -3.427165e+00 2.417465e+00 -2.192402e+00 -8.304303e+00 -8.103556e+00 -1.079065e+01 -8.328195e+00 2.027615e+00 1.669613e+00 5.480362e-01 -2.661744e+00
<VARIANCE> 12
 2.924734e+01 9.702929e+01 2.727666e+01 2.937952e+01 4.601525e+01 7.666842e+01 3.594381e+01 6.347468e+01 3.668290e+01 6.148715e+01 2.964087e+01 3.442797e+01
<GCONST> 6.724187e+01
<TRANSP> 5
 0.000000e+00 1.000000e+00 0.000000e+00 0.000000e+00 0.000000e+00
 0.000000e+00 8.028105e-01 1.971895e-01 0.000000e+00 0.000000e+00
 0.000000e+00 0.000000e+00 7.327358e-01 2.672642e-01 0.000000e+00
 0.000000e+00 0.000000e+00 0.000000e+00 5.950019e-01 4.049980e-01
 0.000000e+00 0.000000e+00 0.000000e+00 0.000000e+00 0.000000e+00
<ENDHMM>
