~o
<STREAMINFO> 1 12
<VECSIZE> 12<NULLD><MFCC><DIAGC>
~h "t"
<BEGINHMM>
<NUMSTATES> 5
<STATE> 2
<MEAN> 12
 -6.247601e+00 1.663223e+00 1.816020e+00 4.779852e-01 -5.516140e+00 -3.183579e+00 -6.980903e+00 -2.106719e+00 -7.470619e-01 1.118659e+00 -2.464403e+00 -1.238457e+00
<VARIANCE> 12
 3.181280e+01 9.280962e+01 2.991280e+01 3.365932e+01 4.592713e+01 3.590136e+01 3.470068e+01 4.416123e+01 4.421052e+01 2.974915e+01 2.533310e+01 2.392852e+01
<GCONST> 6.529090e+01
<STATE> 3
<MEAN> 12
 -1.595436e+01 -3.433193e+00 5.992284e-01 -4.908831e+00 -3.889509e+00 -4.033659e+00 -4.385473e+00 -4.367869e-01 1.177810e+00 1.070969e+00 -3.530023e-01 4.382605e-01
<VARIANCE> 12
 5.381960e+01 6.672707e+01 3.632907e+01 3.131811e+01 4.954790e+01 3.851344e+01 3.613866e+01 3.699258e+01 3.323085e+01 2.934879e+01 2.177825e+01 2.350164e+01
<GCONST> 6.515033e+01
<STATE> 4
<MEAN> 12
 -6.491843e+00 -5.885497e+00 2.636291e+00 -3.904669e+00 -8.438730e+00 -4.325146e+00 -1.012439e+01 -3.318375e+00 1.700770e+00 -1.897721e+00 9.561603e-01 -2.278649e+00
<VARIANCE> 12
 4.510192e+01 1.675456e+02 5.751917e+01 5.688585e+01 7.801939e+01 9.546094e+01 4.606294e+01 4.284643e+01 6.258082e+01 5.149826e+01 3.863253e+01 5.564573e+01
<GCONST> 7.133228e+01
<TRANSP> 5
 0.000000e+00 1.000000e+00 0.000000e+00 0.000000e+00 0.000000e+00
 0.000000e+00 6.079642e-01 3.920358e-01 0.000000e+00 0.000000e+00
 0.000000e+00 0.000000e+00 7.298399e-01 2.701602e-01 0.000000e+00
 0.000000e+00 0.000000e+00 0.000000e+00 5.283230e-01 4.716770e-01
 0.000000e+00 0.000000e+00 0.000000e+00 0.000000e+00 0.000000e+00
<ENDHMM>
