~o
<STREAMINFO> 1 12
<VECSIZE> 12<NULLD><MFCC><DIAGC>
~h "u"
<BEGINHMM>
<NUMSTATES> 5
<STATE> 2
<MEAN> 12
 8.001105e-01 1.755591e+00 8.687714e-01 -4.383008e+00 -6.239689e+00 -2.963842e+00 -9.509813e+00 -1.160832e+01 -5.984065e+00 -1.293010e+00 1.793512e+00 5.621493e-01
<VARIANCE> 12
 1.837060e+01 1.023178e+02 1.718702e+01 5.589706e+01 7.548080e+01 4.397932e+01 3.841703e+01 4.151260e+01 4.863631e+01 4.984546e+01 3.301676e+01 3.028573e+01
<GCONST> 6.664412e+01
<STATE> 3
<MEAN> 12
 1.849989e+00 -7.787412e+00 2.380983e-02 -9.370206e+00 -1.775468e+01 1.092165e+00 -1.124721e+01 -1.200605e+01 -2.852080e+00 -8.073486e+00 1.377041e+00 5.855568e-01
<VARIANCE> 12
 1.409292e+01 2.255446e+02 2.814001e+01 6.432551e+01 8.500862e+01 5.549921e+01 6.142926e+01 5.335580e+01 5.602997e+01 7.918092e+01 4.496098e+01 3.088863e+01
<GCONST> 6.980766e+01
<STATE> 4
<MEAN> 12
 -1.161391e+00 5.041244e+00 1.613843e+00 -5.496183e+00 -8.943162e+00 -4.166034e+00 -7.390321e+00 -6.245534e+00 -2.094341e+00 -1.966830e+00 -2.349393e+00 -3.144725e+00
<VARIANCE> 12
 3.565791e+01 9.890297e+01 3.060307e+01 7.650162e+01 6.203844e+01 5.231150e+01 7.198696e+01 4.729745e+01 4.010137e+01 5.388420e+01 3.660758e+01 3.034700e+01
<GCONST> 6.889016e+01
<TRANSP> 5
 0.000000e+00 1.000000e+00 0.000000e+00 0.000000e+00 0.000000e+00
 0.000000e+00 5.249685e-01 4.750315e-01 0.000000e+00 0.000000e+00
 0.000000e+00 0.000000e+00 6.619291e-01 3.380708e-01 0.000000e+00
 0.000000e+00 0.000000e+00 0.000000e+00 6.702008e-01 3.297992e-01
 0.000000e+00 0.000000e+00 0.000000e+00 0.000000e+00 0.000000e+00
<ENDHMM>
