~o
<STREAMINFO> 1 12
<VECSIZE> 12<NULLD><MFCC><DIAGC>
~h "v"
<BEGINHMM>
<NUMSTATES> 5
<STATE> 2
<MEAN> 12
 -2.198878e+00 -3.414418e+00 1.441449e+00 -2.314316e+00 -8.382867e+00 -4.996603e+00 -9.966348e+00 -7.650149e+00 -8.108335e-01 -1.046269e-01 1.889936e+00 -2.053674e+00
<VARIANCE> 12
 2.556835e+01 1.906688e+02 2.930138e+01 4.092548e+01 7.193626e+01 4.979189e+01 4.052146e+01 3.839005e+01 3.743330e+01 5.077604e+01 2.990999e+01 3.477431e+01
<GCONST> 6.766612e+01
<STATE> 3
<MEAN> 12
 -2.710166e+00 1.986766e+00 1.181565e+00 -5.847368e-01 -6.065651e+00 -5.544693e+00 -8.977175e+00 -7.261746e+00 -3.235704e+00 2.347672e-01 2.917160e+00 -1.929403e+00
<VARIANCE> 12
 2.858993e+01 7.971407e+01 2.590461e+01 4.163774e+01 3.343491e+01 4.608850e+01 3.413425e+01 3.468272e+01 3.223021e+01 3.698918e+01 4.842396e+01 3.088977e+01
<GCONST> 6.558011e+01
<STATE> 4
<MEAN> 12
 -1.151850e+00 -6.949472e+00 1.699903e+00 -5.143117e+00 -1.281326e+01 -4.090479e+00 -9.555958e+00 -6.329646e+00 2.541279e-01 -3.529583e+00 1.052056e+00 -2.390830e+00
<VARIANCE> 12
 2.818085e+01 2.220577e+02 4.322218e+01 4.436300e+01 8.225626e+01 6.641110e+01 6.764581e+01 4.881825e+01 4.851871e+01 6.358813e+01 4.054529e+01 4.810195e+01
<GCONST> 7.067308e+01
<TRANSP> 5
 0.000000e+00 1.000000e+00 0.000000e+00 0.000000e+00 0.000000e+00
 0.000000e+00 0.000000e+00 1.000000e+00 0.000000e+00 0.000000e+00
 0.000000e+00 0.000000e+00 7.245522e-01 2.754478e-01 0.000000e+00
 0.000000e+00 0.000000e+00 0.000000e+00 3.229533e-01 6.770467e-01
 0.000000e+00 0.000000e+00 0.000000e+00 0.000000e+00 0.000000e+00
<ENDHMM>
