~o
<STREAMINFO> 1 12
<VECSIZE> 12<NULLD><MFCC><DIAGC>
~h "w"
<BEGINHMM>
<NUMSTATES> 5
<STATE> 2
<MEAN> 12
 1.593224e+00 -2.252381e+01 -2.697711e+00 -1.099904e+01 -2.015175e+01 2.895499e+00 -9.940078e+00 -6.502905e+00 4.216305e+00 -5.213036e+00 2.283879e+00 4.941427e-01
<VARIANCE> 12
 2.311207e+01 1.985771e+02 1.828206e+01 4.247705e+01 6.664647e+01 3.632411e+01 3.590994e+01 3.928217e+01 5.504093e+01 3.079575e+01 3.058304e+01 1.803116e+01
<GCONST> 6.593261e+01
<STATE> 3
<MEAN> 12
 3.501778e+00 -5.415424e-01 -4.676252e+00 -1.457226e+01 -9.876449e+00 4.388354e-02 -6.164046e+00 -3.963352e+00 -2.824960e+00 8.124384e-01 5.558066e+00 -4.011694e+00
<VARIANCE> 12
 9.265715e+00 9.060099e+01 2.483490e+01 5.639995e+01 3.526970e+01 4.356142e+01 4.486549e+01 3.923764e+01 4.167629e+01 6.066929e+01 7.694063e+01 4.620950e+01
<GCONST> 6.685412e+01
<STATE> 4
<MEAN> 12
 2.705729e+00 -2.496925e+01 -6.242149e+00 -1.021852e+01 -1.385546e+01 6.350424e+00 -5.745856e+00 -5.181459e+00 5.329411e+00 -3.357627e+00 -2.105216e+00 -6.876355e+00
<VARIANCE> 12
 7.095335e+00 1.797240e+02 2.490028e+01 2.792510e+01 3.111773e+01 5.614857e+01 3.706559e+01 4.607728e+01 4.228706e+01 4.340940e+01 6.440527e+01 2.741860e+01
<GCONST> 6.565015e+01
<TRANSP> 5
 0.000000e+00 1.000000e+00 0.000000e+00 0.000000e+00 0.000000e+00
 0.000000e+00 7.641330e-01 2.358670e-01 0.000000e+00 0.000000e+00
 0.000000e+00 0.000000e+00 7.773370e-01 2.226631e-01 0.000000e+00
 0.000000e+00 0.000000e+00 0.000000e+00 7.018964e-01 2.981036e-01
 0.000000e+00 0.000000e+00 0.000000e+00 0.000000e+00 0.000000e+00
<ENDHMM>
