~o
<STREAMINFO> 1 12
<VECSIZE> 12<NULLD><MFCC><DIAGC>
~h "y"
<BEGINHMM>
<NUMSTATES> 5
<STATE> 2
<MEAN> 12
 -5.017309e+00 -8.258461e+00 1.024861e+01 3.114999e+00 -1.579938e+01 -8.876448e+00 -1.143364e+01 -4.468984e+00 -1.892467e+00 -7.405198e+00 -3.882865e-01 5.218167e-01
<VARIANCE> 12
 4.607621e+01 1.938646e+02 3.948083e+01 4.685167e+01 8.663149e+01 3.987003e+01 4.795841e+01 4.550436e+01 4.160616e+01 5.846345e+01 3.904187e+01 3.331369e+01
<GCONST> 6.947746e+01
<STATE> 3
<MEAN> 12
 -2.930631e+00 -1.512597e+00 1.314668e+01 4.145118e+00 -1.275675e+01 -1.243124e+01 -1.303098e+01 -1.388604e+00 -3.715534e+00 -7.553940e+00 5.431928e-02 -1.325862e+00
<VARIANCE> 12
 1.802940e+01 6.838143e+01 3.378616e+01 3.923133e+01 3.912699e+01 4.643059e+01 4.140163e+01 3.614360e+01 3.729345e+01 3.718877e+01 2.493938e+01 2.435065e+01
<GCONST> 6.482059e+01
<STATE> 4
<MEAN> 12
 -4.116740e+00 1.184256e+00 6.532720e+00 -2.889146e-01 -1.014466e+01 -7.081875e+00 -6.120559e+00 -9.448273e+00 -1.627406e+00 2.220148e-01 8.454866e-01 -2.841162e+00
<VARIANCE> 12
 6.306330e+01 8.910407e+01 4.919940e+01 8.377039e+01 5.576406e+01 5.849525e+01 8.383873e+01 3.655662e+01 3.087671e+01 5.299155e+01 4.069976e+01 2.606476e+01
<GCONST> 6.949720e+01
<TRANSP> 5
 0.000000e+00 1.000000e+00 0.000000e+00 0.000000e+00 0.000000e+00
 0.000000e+00 2.475612e-01 7.524388e-01 0.000000e+00 0.000000e+00
 0.000000e+00 0.000000e+00 7.260934e-01 2.739066e-01 0.000000e+00
 0.000000e+00 0.000000e+00 0.000000e+00 6.545870e-01 3.454131e-01
 0.000000e+00 0.000000e+00 0.000000e+00 0.000000e+00 0.000000e+00
<ENDHMM>
