~o
<STREAMINFO> 1 12
<VECSIZE> 12<NULLD><MFCC><DIAGC>
~h "z"
<BEGINHMM>
<NUMSTATES> 5
<STATE> 2
<MEAN> 12
 -7.671645e+00 4.497130e+00 5.641217e+00 -1.478129e+00 -3.907389e+00 -1.134355e+01 -1.397582e+01 -6.765573e+00 1.654200e+00 5.840730e-01 -1.922117e+00 -2.409386e+00
<VARIANCE> 12
 3.586480e+01 1.310142e+02 4.427126e+01 2.775589e+01 7.309395e+01 5.129165e+01 4.752662e+01 4.151093e+01 5.839285e+01 3.128650e+01 5.488035e+01 3.391511e+01
<GCONST> 6.847928e+01
<STATE> 3
<MEAN> 12
 -1.467892e+01 7.643125e+00 7.223511e+00 7.027104e-01 -1.878561e+00 -1.100507e+01 -6.417466e+00 -2.119476e+00 -8.115811e-01 -2.100627e+00 -1.880541e+00 1.831603e+00
<VARIANCE> 12
 3.854698e+01 7.661922e+01 2.886337e+01 2.135684e+01 5.065044e+01 6.331223e+01 3.621984e+01 3.824968e+01 3.664783e+01 2.555702e+01 2.578327e+01 1.942237e+01
<GCONST> 6.483438e+01
<STATE> 4
<MEAN> 12
 -5.392983e+00 -3.405670e+00 3.249983e+00 -2.334894e+00 -9.669062e+00 -1.071528e+01 -1.137457e+01 -5.139332e+00 1.904930e+00 -1.524493e+00 -9.750713e-01 -1.460402e+00
<VARIANCE> 12
 4.326825e+01 1.566830e+02 5.124082e+01 2.715302e+01 8.093272e+01 7.468214e+01 4.369185e+01 4.044888e+01 6.008451e+01 5.171637e+01 4.286612e+01 4.458674e+01
<GCONST> 6.989530e+01
<TRANSP> 5
 0.000000e+00 1.000000e+00 0.000000e+00 0.000000e+00 0.000000e+00
 0.000000e+00 5.107415e-01 4.892586e-01 0.000000e+00 0.000000e+00
 0.000000e+00 0.000000e+00 7.959751e-01 2.040249e-01 0.000000e+00
 0.000000e+00 0.000000e+00 0.000000e+00 4.369543e-01 5.630457e-01
 0.000000e+00 0.000000e+00 0.000000e+00 0.000000e+00 0.000000e+00
<ENDHMM>
