~o
<STREAMINFO> 1 12
<VECSIZE> 12<NULLD><MFCC><DIAGC>
~h "zz"
<BEGINHMM>
<NUMSTATES> 5
<STATE> 2
<MEAN> 12
 -1.524062e+01 7.640221e-01 1.102697e+01 1.834084e+00 -7.639314e+00 -8.739477e+00 -4.249868e+00 -6.732258e+00 4.049736e+00 -3.383177e+00 -2.405948e+00 7.847480e-01
<VARIANCE> 12
 5.797366e+01 5.576665e+01 3.566684e+01 3.205289e+01 7.147559e+01 5.127960e+01 4.717039e+01 4.397995e+01 4.069979e+01 3.079551e+01 2.004606e+01 2.104172e+01
<GCONST> 6.619958e+01
<STATE> 3
<MEAN> 12
 -2.306766e+00 3.184621e-02 6.459023e+00 -7.079102e+00 -5.769778e+00 -3.741227e+00 -9.580112e+00 -9.775801e+00 -3.136173e+00 -3.215744e-01 -2.489478e+00 2.204356e+00
<VARIANCE> 12
 5.724836e+01 1.128011e+02 2.216670e+01 9.990381e+01 1.213116e+02 6.523240e+01 2.662181e+01 4.036046e+01 4.505795e+01 5.060700e+01 5.400690e+01 2.958772e+01
<GCONST> 6.959476e+01
<STATE> 4
<MEAN> 12
 -2.524365e+00 -2.507003e+01 1.024592e+01 -7.047154e+00 -2.299607e+01 3.725532e+00 -1.532937e+01 -1.022893e+01 1.899288e+00 -1.094380e+01 1.716419e+00 2.649189e+00
<VARIANCE> 12
 2.059161e+01 1.017096e+02 3.990609e+01 3.934850e+01 5.358706e+01 6.017534e+01 4.054627e+01 4.459996e+01 4.022223e+01 4.395034e+01 2.153063e+01 2.288110e+01
<GCONST> 6.631654e+01
<TRANSP> 5
 0.000000e+00 1.000000e+00 0.000000e+00 0.000000e+00 0.000000e+00
 0.000000e+00 8.027443e-01 1.972557e-01 0.000000e+00 0.000000e+00
 0.000000e+00 0.000000e+00 5.879723e-01 4.120277e-01 0.000000e+00
 0.000000e+00 0.000000e+00 0.000000e+00 8.451534e-01 1.548466e-01
 0.000000e+00 0.000000e+00 0.000000e+00 0.000000e+00 0.000000e+00
<ENDHMM>
