~o
<STREAMINFO> 1 12
<VECSIZE> 12<NULLD><MFCC><DIAGC>
~h "@"
<BEGINHMM>
<NUMSTATES> 5
<STATE> 2
<MEAN> 12
 -1.908621e-01 -2.283387e+00 2.037689e+00 -2.729871e+00 -7.640706e+00 -1.294341e+01 -1.676029e+01 -7.517127e+00 -7.785320e-01 4.078479e+00 4.969264e+00 -7.531765e+00
<VARIANCE> 12
 7.155595e+00 5.412543e+01 2.424477e+01 3.523247e+01 3.334069e+01 6.539143e+01 4.023353e+01 4.582485e+01 2.652633e+01 6.026859e+01 3.353289e+01 3.261852e+01
<GCONST> 6.434495e+01
<STATE> 3
<MEAN> 12
 1.415542e+00 -2.171514e+01 4.626683e+00 -3.443270e+00 -2.328928e+01 -7.187887e+00 -1.719836e+01 -1.220724e+01 2.522449e+00 -1.623247e+00 3.564745e+00 2.299521e+00
<VARIANCE> 12
 7.142910e+00 1.726761e+02 2.035362e+01 2.146680e+01 9.988885e+01 3.397879e+01 4.307139e+01 4.162466e+01 4.150187e+01 4.841139e+01 4.635683e+01 4.451300e+01
<GCONST> 6.611080e+01
<STATE> 4
<MEAN> 12
 -1.601242e+00 3.295185e-02 3.681182e+00 3.192747e+00 -7.720953e+00 -1.310780e+01 -1.381560e+01 -3.848106e+00 -3.982155e-01 4.342020e-01 -2.675090e+00 -1.089787e+00
<VARIANCE> 12
 1.534221e+01 7.144051e+01 3.200863e+01 3.835714e+01 5.589238e+01 8.577242e+01 5.262806e+01 6.249507e+01 4.613372e+01 7.160548e+01 6.431157e+01 2.926605e+01
<GCONST> 6.838329e+01
<TRANSP> 5
 0.000000e+00 1.000000e+00 0.000000e+00 0.000000e+00 0.000000e+00
 0.000000e+00 7.928680e-01 2.071320e-01 0.000000e+00 0.000000e+00
 0.000000e+00 0.000000e+00 7.030705e-01 2.969296e-01 0.000000e+00
 0.000000e+00 0.000000e+00 0.000000e+00 6.892005e-01 3.107995e-01
 0.000000e+00 0.000000e+00 0.000000e+00 0.000000e+00 0.000000e+00
<ENDHMM>
~h "a"
<BEGINHMM>
<NUMSTATES> 5
<STATE> 2
<MEAN> 12
 -1.795087e+00 -1.203134e+01 -2.576754e+00 -9.266047e+00 -9.876599e+00 -6.529018e+00 -8.327931e+00 -3.460732e-01 6.702024e+00 -8.532568e-01 7.616972e-01 -1.019635e+01
<VARIANCE> 12
 2.002604e+01 1.343663e+02 3.929892e+01 3.386890e+01 4.719690e+01 8.875616e+01 5.625622e+01 6.859497e+01 5.193197e+01 5.315428e+01 6.257104e+01 4.743583e+01
<GCONST> 6.966299e+01
<STATE> 3
<MEAN> 12
 -1.235970e+00 -6.661805e+00 -6.347402e+00 -9.254870e+00 -4.213076e+00 -6.656384e+00 -5.459867e+00 -4.873277e-01 4.574110e+00 3.867588e+00 -1.255629e+00 -1.132373e+01
<VARIANCE> 12
 1.196988e+01 5.694936e+01 3.566697e+01 3.139805e+01 4.295948e+01 6.831746e+01 4.958301e+01 5.062032e+01 4.075423e+01 4.739749e+01 5.768553e+01 3.564705e+01
<GCONST> 6.660728e+01
<STATE> 4
<MEAN> 12
 -1.911289e+00 -5.842870e+00 -1.378499e+00 -5.229636e+00 -7.931618e+00 -7.905004e+00 -8.375153e+00 -1.497327e+00 4.157168e+00 2.566889e+00 -2.347288e-01 -6.023285e+00
<VARIANCE> 12
 2.060470e+01 1.441813e+02 4.426145e+01 4.105037e+01 6.900537e+01 9.848283e+01 5.138433e+01 6.270447e+01 4.879211e+01 5.365487e+01 5.466496e+01 3.297211e+01
<GCONST> 6.982488e+01
<TRANSP> 5
 0.000000e+00 1.000000e+00 0.000000e+00 0.000000e+00 0.000000e+00
 0.000000e+00 4.480286e-01 5.519714e-01 0.000000e+00 0.000000e+00
 0.000000e+00 0.000000e+00 7.165083e-01 2.834917e-01 0.000000e+00
 0.000000e+00 0.000000e+00 0.000000e+00 1.714531e-01 8.285469e-01
 0.000000e+00 0.000000e+00 0.000000e+00 0.000000e+00 0.000000e+00
<ENDHMM>
~h "b"
<BEGINHMM>
<NUMSTATES> 5
<STATE> 2
<MEAN> 12
 1.906160e+00 4.884537e+00 3.904726e+00 2.840867e+00 -5.672976e+00 -2.199787e+00 -1.024274e+01 -3.750010e+00 -3.944898e+00 -2.995116e-01 -2.615905e+00 -3.895632e+00
<VARIANCE> 12
 1.343753e+01 1.385966e+02 1.432922e+01 3.613136e+01 4.167267e+01 3.758020e+01 2.527774e+01 4.239407e+01 3.015886e+01 3.072582e+01 2.390554e+01 2.154385e+01
<GCONST> 6.324265e+01
<STATE> 3
<MEAN> 12
 1.673200e-01 -6.581986e+00 1.886288e+00 -3.039833e+00 -1.012316e+01 -9.811202e-01 -9.588217e+00 -7.442393e+00 -2.760573e+00 -3.951650e+00 -1.169029e+00 -1.348940e+00
<VARIANCE> 12
 1.457588e+01 2.097710e+02 1.968601e+01 6.131538e+01 7.074298e+01 4.369221e+01 4.568734e+01 3.811007e+01 5.802395e+01 6.001244e+01 3.723281e+01 2.095996e+01
<GCONST> 6.748958e+01
<STATE> 4
<MEAN> 12
 2.553648e+00 -1.960254e+01 1.646114e-01 -9.732704e+00 -1.836335e+01 2.132404e+00 -1.287046e+01 -9.945485e+00 -5.719579e-01 -9.622304e+00 2.694239e-01 -9.418838e-01
<VARIANCE> 12
 1.117417e+01 2.120834e+02 2.693828e+01 4.997093e+01 6.857315e+01 4.341407e+01 3.964415e+01 4.038555e+01 4.407254e+01 7.303257e+01 3.964079e+01 4.591517e+01
<GCONST> 6.799059e+01
<TRANSP> 5
 0.000000e+00 1.000000e+00 0.000000e+00 0.000000e+00 0.000000e+00
 0.000000e+00 6.970889e-01 3.029111e-01 0.000000e+00 0.000000e+00
 0.000000e+00 0.000000e+00 9.535233e-03 9.904648e-01 0.000000e+00
 0.000000e+00 0.000000e+00 0.000000e+00 6.165369e-01 3.834632e-01
 0.000000e+00 0.000000e+00 0.000000e+00 0.000000e+00 0.000000e+00
<ENDHMM>
~h "d"
<BEGINHMM>
<NUMSTATES> 5
<STATE> 2
<MEAN> 12
 -1.049131e-01 5.010730e+00 5.604963e+00 2.128988e+00 -6.711230e+00 -4.586307e+00 -9.266607e+00 -3.675311e+00 -1.906762e+00 2.825072e-01 -3.996753e+00 -5.339139e+00
<VARIANCE> 12
 1.426528e+01 1.208888e+02 1.959709e+01 2.879635e+01 4.676804e+01 4.508736e+01 2.912429e+01 6.199799e+01 3.493395e+01 2.506125e+01 2.578232e+01 2.327945e+01
<GCONST> 6.416737e+01
<STATE> 3
<MEAN> 12
 -3.950726e+00 -3.111281e+00 7.187705e+00 -4.637881e-01 -7.473837e+00 -4.809102e+00 -1.073594e+01 -5.419951e+00 -3.336425e-01 -2.134503e+00 -3.568142e+00 -1.980507e+00
<VARIANCE> 12
 2.259173e+01 1.634151e+02 3.658313e+01 3.139204e+01 8.363929e+01 5.566459e+01 6.025307e+01 4.266793e+01 4.084265e+01 3.769833e+01 3.269059e+01 2.914028e+01
<GCONST> 6.781097e+01
<STATE> 4
<MEAN> 12
 -3.670745e+00 -4.467399e+00 6.808126e+00 -1.251886e+00 -9.421478e+00 -6.733220e+00 -1.257386e+01 -6.237071e+00 -2.168248e-01 -1.843298e+00 -1.557777e+00 -1.987753e+00
<VARIANCE> 12
 2.311300e+01 1.785337e+02 3.401281e+01 3.602399e+01 7.933936e+01 7.469833e+01 5.229190e+01 4.480535e+01 4.663647e+01 4.235503e+01 3.223570e+01 3.296114e+01
<GCONST> 6.849385e+01
<TRANSP> 5
 0.000000e+00 1.000000e+00 0.000000e+00 0.000000e+00 0.000000e+00
 0.000000e+00 6.500576e-01 3.499424e-01 0.000000e+00 0.000000e+00
 0.000000e+00 0.000000e+00 1.370327e-01 8.629673e-01 0.000000e+00
 0.000000e+00 0.000000e+00 0.000000e+00 1.398927e-02 9.860107e-01
 0.000000e+00 0.000000e+00 0.000000e+00 0.000000e+00 0.000000e+00
<ENDHMM>
~h "e"
<BEGINHMM>
<NUMSTATES> 5
<STATE> 2
<MEAN> 12
 -1.248494e+00 -2.369277e+01 8.076889e+00 -4.832319e+00 -2.526553e+01 -4.613444e+00 -1.453962e+01 -8.524905e+00 2.067668e+00 -8.349715e+00 2.539496e+00 3.731184e+00
<VARIANCE> 12
 1.530435e+01 1.341364e+02 2.602754e+01 2.369381e+01 7.069476e+01 7.812515e+01 4.333683e+01 4.752052e+01 4.449930e+01 4.246013e+01 2.850442e+01 3.194516e+01
<GCONST> 6.671085e+01
<STATE> 3
<MEAN> 12
 -4.885729e+00 -1.513790e+00 1.022823e+01 9.062547e-01 -1.545875e+01 -1.736218e+01 -8.434731e+00 -2.430976e+00 -5.029735e+00 -3.768475e+00 3.605356e+00 -9.049488e-01
<VARIANCE> 12
 1.202066e+01 9.450040e+01 3.450039e+01 4.213004e+01 4.409851e+01 6.317719e+01 5.891439e+01 3.989871e+01 4.053743e+01 3.094531e+01 2.530049e+01 2.807278e+01
<GCONST> 6.576635e+01
<STATE> 4
<MEAN> 12
 -4.146830e+00 -5.679594e+00 7.449840e+00 1.057610e-01 -1.373486e+01 -1.094689e+01 -9.384037e+00 -3.259739e+00 -1.236790e+00 -3.899370e+00 8.143842e-01 -1.482734e+00
<VARIANCE> 12
 2.600833e+01 1.959194e+02 3.886521e+01 3.890306e+01 6.970367e+01 7.462586e+01 5.903397e+01 5.235040e+01 5.004414e+01 4.907344e+01 3.571146e+01 3.850890e+01
<GCONST> 6.953721e+01
<TRANSP> 5
 0.000000e+00 1.000000e+00 0.000000e+00 0.000000e+00 0.000000e+00
 0.000000e+00 7.899031e-01 2.100969e-01 0.000000e+00 0.000000e+00
 0.000000e+00 0.000000e+00 6.974058e-01 3.025942e-01 0.000000e+00
 0.000000e+00 0.000000e+00 0.000000e+00 1.311079e-01 8.688921e-01
 0.000000e+00 0.000000e+00 0.000000e+00 0.000000e+00 0.000000e+00
<ENDHMM>
~h "f"
<BEGINHMM>
<NUMSTATES> 5
<STATE> 2
<MEAN> 12
 -1.080112e+01 -1.905951e+00 2.673694e+00 3.230511e+00 -4.841150e+00 -4.697703e+00 -6.587050e+00 -3.239870e+00 3.496354e-01 1.543450e+00 -3.834541e-01 5.340873e-01
<VARIANCE> 12
 3.027247e+01 8.798566e+01 2.034489e+01 2.645625e+01 7.267850e+01 2.601675e+01 3.525465e+01 3.285467e+01 3.459130e+01 2.091509e+01 2.137521e+01 1.195773e+01
<GCONST> 6.295741e+01
<STATE> 3
<MEAN> 12
 -1.949451e+01 -4.740481e+00 -3.497304e+00 1.450088e+00 -2.589622e+00 -4.467614e+00 -2.944865e+00 -1.573756e+00 2.273603e+00 2.297483e+00 -7.203575e-01 1.221191e+00
<VARIANCE> 12
 2.082984e+01 2.503821e+01 3.182087e+01 1.943688e+01 3.805077e+01 2.563854e+01 2.757332e+01 3.502341e+01 2.202755e+01 1.987217e+01 2.604073e+01 1.639179e+01
<GCONST> 6.063254e+01
<STATE> 4
<MEAN> 12
 -1.012073e+01 -5.473417e+00 -4.131282e-01 -1.865730e+00 -4.896610e+00 -1.583207e+00 -5.226464e+00 -1.811590e+00 6.774589e-01 -1.937724e+00 2.384150e-01 -8.246698e-01
<VARIANCE> 12
 5.286200e+01 1.034010e+02 4.643111e+01 3.216153e+01 7.176608e+01 6.084159e+01 3.437642e+01 3.939676e+01 4.566246e+01 2.504052e+01 3.975787e+01 1.908796e+01
<GCONST> 6.723595e+01
<TRANSP> 5
 0.000000e+00 1.000000e+00 0.000000e+00 0.000000e+00 0.000000e+00
 0.000000e+00 3.490421e-01 6.509579e-01 0.000000e+00 0.000000e+00
 0.000000e+00 0.000000e+00 8.427261e-01 1.572740e-01 0.000000e+00
 0.000000e+00 0.000000e+00 0.000000e+00 2.445615e-01 7.554385e-01
 0.000000e+00 0.000000e+00 0.000000e+00 0.000000e+00 0.000000e+00
<ENDHMM>
~h "g"
<BEGINHMM>
<NUMSTATES> 5
<STATE> 2
<MEAN> 12
 -6.122837e+00 1.180896e-02 8.586860e+00 2.656961e+00 -1.320309e+01 -9.309115e+00 -7.143154e+00 -1.165773e+00 -6.933395e+00 -3.886336e+00 1.860587e+00 -4.055758e+00
<VARIANCE> 12
 3.615102e+01 5.780313e+01 6.969350e+01 3.916433e+01 6.701707e+01 4.620730e+01 4.408356e+01 5.159088e+01 2.287917e+01 3.247715e+01 4.638251e+01 2.902510e+01
<GCONST> 6.719451e+01
<STATE> 3
<MEAN> 12
 -4.392761e+00 2.164271e+00 5.847025e+00 2.104612e-02 -9.244205e+00 -1.344521e+01 -6.975055e+00 -6.323833e+00 -7.969218e+00 2.706930e+00 7.374434e+00 -8.624471e+00
<VARIANCE> 12
 1.512621e+01 5.169357e+01 3.912005e+01 6.783299e+01 3.322637e+01 6.442986e+01 8.350214e+01 5.526628e+01 6.022607e+01 3.537429e+01 3.148520e+01 2.530349e+01
<GCONST> 6.705048e+01
<STATE> 4
<MEAN> 12
 -2.032058e+00 -6.317731e+00 2.198371e+00 -4.341932e+00 -1.282789e+01 -7.330913e+00 -9.740792e+00 -4.968699e+00 -9.215374e-01 -9.227183e-02 6.384874e+00 -2.677465e+00
<VARIANCE> 12
 1.159216e+01 1.807605e+02 2.736213e+01 5.568460e+01 1.401281e+02 8.609734e+01 3.104310e+01 2.615165e+01 7.229090e+01 4.235157e+01 4.570580e+01 3.297570e+01
<GCONST> 6.847292e+01
<TRANSP> 5
 0.000000e+00 1.000000e+00 0.000000e+00 0.000000e+00 0.000000e+00
 0.000000e+00 7.844624e-01 2.155376e-01 0.000000e+00 0.000000e+00
 0.000000e+00 0.000000e+00 7.831701e-01 2.168299e-01 0.000000e+00
 0.000000e+00 0.000000e+00 0.000000e+00 2.799045e-01 7.200955e-01
 0.000000e+00 0.000000e+00 0.000000e+00 0.000000e+00 0.000000e+00
<ENDHMM>
~h "i"
<BEGINHMM>
<NUMSTATES> 5
<STATE> 2
<MEAN> 12
 -6.945937e+00 -1.030632e+01 1.404918e+01 -3.147631e+00 -1.865238e+01 -3.887660e+00 -1.379492e+01 -7.173429e+00 -8.646623e-01 -1.151582e+01 -2.010623e-01 8.051513e-01
<VARIANCE> 12
 3.193995e+01 1.999924e+02 4.287392e+01 2.873662e+01 1.072220e+02 8.005735e+01 5.172523e+01 5.555534e+01 3.735746e+01 7.613958e+01 2.601141e+01 3.761347e+01
<GCONST> 6.979307e+01
<STATE> 3
<MEAN> 12
 -6.531514e+00 4.214858e+00 1.527630e+01 -5.725283e-01 -1.457036e+01 -1.306257e+01 -6.086275e+00 -6.480474e+00 -5.566609e+00 -4.219776e+00 1.099176e+00 -1.227042e+00
<VARIANCE> 12
 1.684393e+01 9.822789e+01 3.419754e+01 2.645723e+01 4.062663e+01 4.796271e+01 4.311665e+01 5.171093e+01 4.142553e+01 3.466782e+01 2.741982e+01 2.939438e+01
<GCONST> 6.551968e+01
<STATE> 4
<MEAN> 12
 -6.715321e+00 -2.341275e+00 8.779699e+00 -1.270568e+00 -1.153822e+01 -7.958563e+00 -7.390781e+00 -3.601499e+00 -1.242157e+00 -2.538009e+00 -7.804522e-01 -4.775769e-01
<VARIANCE> 12
 5.044009e+01 1.790596e+02 4.262427e+01 3.624321e+01 7.284708e+01 6.550597e+01 4.636971e+01 4.463838e+01 5.457122e+01 4.934055e+01 2.676189e+01 2.981718e+01
<GCONST> 6.919177e+01
<TRANSP> 5
 0.000000e+00 1.000000e+00 0.000000e+00 0.000000e+00 0.000000e+00
 0.000000e+00 5.590895e-01 4.409105e-01 0.000000e+00 0.000000e+00
 0.000000e+00 0.000000e+00 7.123013e-01 2.876988e-01 0.000000e+00
 0.000000e+00 0.000000e+00 0.000000e+00 2.374751e-01 7.625248e-01
 0.000000e+00 0.000000e+00 0.000000e+00 0.000000e+00 0.000000e+00
<ENDHMM>
~h "j"
<BEGINHMM>
<NUMSTATES> 5
<STATE> 2
<MEAN> 12
 -6.183249e+00 -6.730856e+00 1.087864e+01 -7.278787e-02 -1.653663e+01 -7.683741e+00 -8.851476e+00 -2.558107e+00 4.516487e-01 -4.650578e+00 -1.172427e-01 -1.634516e-01
<VARIANCE> 12
 3.572976e+01 1.549643e+02 3.895100e+01 5.170221e+01 6.976646e+01 6.363161e+01 4.975565e+01 4.176590e+01 6.698240e+01 4.131872e+01 2.121514e+01 3.232096e+01
<GCONST> 6.877515e+01
<STATE> 3
<MEAN> 12
 -7.156107e+00 -4.295339e+00 1.359391e+01 -4.749227e+00 -1.564765e+01 -8.925672e+00 -1.249306e+01 -1.647297e-01 -2.286224e+00 -8.020438e+00 4.320114e+00 -3.127734e+00
<VARIANCE> 12
 1.732723e+01 8.656630e+01 4.127233e+01 3.161807e+01 3.861938e+01 5.367157e+01 5.001978e+01 3.851974e+01 4.735345e+01 8.097311e+01 4.157436e+01 2.579910e+01
<GCONST> 6.697145e+01
<STATE> 4
<MEAN> 12
 -3.283762e+00 -1.191027e+01 3.473140e+00 -6.847361e+00 -1.432024e+01 -6.556317e+00 -1.139177e+01 -3.895433e+00 4.112680e+00 -7.391121e+00 9.973242e-01 -4.520821e+00
<VARIANCE> 12
 1.749217e+01 1.231204e+02 4.532693e+01 5.522598e+01 6.091781e+01 5.022647e+01 3.400661e+01 7.081259e+01 6.094638e+01 1.035597e+02 3.900457e+01 8.571272e+01
<GCONST> 7.023225e+01
<TRANSP> 5
 0.000000e+00 1.000000e+00 0.000000e+00 0.000000e+00 0.000000e+00
 0.000000e+00 2.436439e-01 7.563561e-01 0.000000e+00 0.000000e+00
 0.000000e+00 0.000000e+00 7.197495e-01 2.802505e-01 0.000000e+00
 0.000000e+00 0.000000e+00 0.000000e+00 4.177701e-01 5.822299e-01
 0.000000e+00 0.000000e+00 0.000000e+00 0.000000e+00 0.000000e+00
<ENDHMM>
~h "k"
<BEGINHMM>
<NUMSTATES> 5
<STATE> 2
<MEAN> 12
 -7.607708e+00 1.005186e-01 2.223248e+00 8.073006e-01 -6.121990e+00 -3.875290e+00 -6.704532e+00 -5.925043e-01 -3.771400e+00 1.969876e+00 1.850522e-01 -2.179311e-01
<VARIANCE> 12
 2.357002e+01 9.180019e+01 5.577946e+01 3.086251e+01 5.067185e+01 4.143267e+01 3.320311e+01 4.631548e+01 4.274380e+01 3.521941e+01 3.023028e+01 2.302409e+01
<GCONST> 6.603483e+01
<STATE> 3
<MEAN> 12
 -1.488386e+01 -2.933273e+00 2.962512e+00 -3.812525e+00 -3.707368e+00 -3.807979e+00 -5.578338e+00 -1.820023e+00 -7.751608e-01 1.638000e+00 -3.067228e-01 1.125172e+00
<VARIANCE> 12
 5.218379e+01 8.271938e+01 6.992443e+01 5.436819e+01 6.234648e+01 4.649345e+01 3.408680e+01 3.919129e+01 3.613961e+01 3.073894e+01 2.386100e+01 2.134622e+01
<GCONST> 6.708337e+01
<STATE> 4
<MEAN> 12
 -7.637911e+00 -6.716549e+00 3.226593e+00 -2.095409e+00 -8.720416e+00 -5.799017e+00 -9.818988e+00 -1.655111e+00 -2.335053e+00 -2.490718e+00 2.878363e+00 -1.099903e+00
<VARIANCE> 12
 3.446313e+01 1.529843e+02 8.394651e+01 4.736312e+01 1.032054e+02 8.695409e+01 7.307427e+01 5.821321e+01 5.282226e+01 4.063458e+01 4.222629e+01 2.553524e+01
<GCONST> 7.102512e+01
<TRANSP> 5
 0.000000e+00 1.000000e+00 0.000000e+00 0.000000e+00 0.000000e+00
 0.000000e+00 5.741437e-01 4.258563e-01 0.000000e+00 0.000000e+00
 0.000000e+00 0.000000e+00 6.467227e-01 3.532772e-01 0.000000e+00
 0.000000e+00 0.000000e+00 0.000000e+00 3.275598e-01 6.724402e-01
 0.000000e+00 0.000000e+00 0.000000e+00 0.000000e+00 0.000000e+00
<ENDHMM>
~h "l"
<BEGINHMM>
<NUMSTATES> 5
<STATE> 2
<MEAN> 12
 3.478728e-01 -4.815530e+00 6.049494e-01 2.153846e+00 -4.841855e+00 -1.222168e+01 -1.720237e+01 -8.494191e+00 1.158442e+00 -8.475220e-01 -2.126980e+00 -7.853522e+00
<VARIANCE> 12
 1.954445e+01 1.463807e+02 6.024064e+01 6.335335e+01 1.849472e+02 8.154859e+01 8.295557e+01 6.897672e+01 4.747822e+01 6.247345e+01 5.111358e+01 6.886828e+01
<GCONST> 7.269510e+01
<STATE> 3
<MEAN> 12
 -4.726603e-01 -3.543030e+00 2.888632e+00 2.209526e+00 -6.655420e+00 -1.513303e+01 -1.553499e+01 -3.788921e+00 -4.736355e-01 1.107015e+00 -1.362700e+00 -7.466878e+00
<VARIANCE> 12
 1.484370e+01 1.057962e+02 4.385067e+01 6.244144e+01 8.293001e+01 1.009088e+02 4.942454e+01 7.294435e+01 4.987563e+01 7.304031e+01 4.875512e+01 5.098835e+01
<GCONST> 7.056993e+01
<STATE> 4
<MEAN> 12
 -9.420062e-01 -6.919152e+00 3.685270e+00 -1.084748e-01 -1.092637e+01 -1.041554e+01 -1.302441e+01 -4.837025e+00 1.524216e-01 -6.326048e-01 -5.386732e-01 -5.156204e+00
<VARIANCE> 12
 1.816953e+01 1.566497e+02 4.959967e+01 5.069526e+01 8.138000e+01 7.626933e+01 5.156587e+01 7.068880e+01 5.911549e+01 6.902032e+01 5.346397e+01 4.789642e+01
<GCONST> 7.093459e+01
<TRANSP> 5
 0.000000e+00 1.000000e+00 0.000000e+00 0.000000e+00 0.000000e+00
 0.000000e+00 3.341524e-01 6.658476e-01 0.000000e+00 0.000000e+00
 0.000000e+00 0.000000e+00 4.939027e-01 5.060972e-01 0.000000e+00
 0.000000e+00 0.000000e+00 0.000000e+00 8.088870e-03 9.919111e-01
 0.000000e+00 0.000000e+00 0.000000e+00 0.000000e+00 0.000000e+00
<ENDHMM>
~h "m"
<BEGINHMM>
<NUMSTATES> 5
<STATE> 2
<MEAN> 12
 -1.078922e+00 2.914627e+00 4.985322e+00 2.543504e+00 -4.098239e+00 -9.443562e+00 -4.871251e+00 -8.197102e+00 -7.986686e+00 1.187610e-01 -9.632468e-01 -6.215028e+00
<VARIANCE> 12
 1.024382e+01 7.449227e+01 1.826636e+01 2.378140e+01 3.583433e+01 7.162004e+01 5.549973e+01 4.116802e+01 4.869555e+01 4.006284e+01 4.262731e+01 3.667054e+01
<GCONST> 6.528069e+01
<STATE> 3
<MEAN> 12
 -1.929225e-01 1.901842e+00 3.341305e+00 -1.032133e+00 -7.108200e+00 -2.305819e+00 -5.961898e+00 -1.113936e+01 -7.037714e+00 -1.871796e+00 1.099096e+00 -3.745695e+00
<VARIANCE> 12
 6.677087e+00 8.212669e+01 2.743884e+01 2.987023e+01 2.982564e+01 5.130723e+01 6.984993e+01 2.661595e+01 4.617504e+01 5.113695e+01 7.762930e+01 5.220343e+01
<GCONST> 6.600539e+01
<STATE> 4
<MEAN> 12
 4.826915e-01 -2.929036e+00 -2.127194e-01 -5.720348e+00 -9.359348e+00 -1.855695e+00 -7.007532e+00 -7.992292e+00 5.379220e-01 -3.282868e+00 4.962143e-01 -5.033295e+00
<VARIANCE> 12
 1.119581e+01 1.131019e+02 2.783422e+01 5.741802e+01 4.244472e+01 8.341968e+01 6.577026e+01 3.584640e+01 6.298549e+01 5.532469e+01 5.344921e+01 4.725721e+01
<GCONST> 6.850294e+01
<TRANSP> 5
 0.000000e+00 1.000000e+00 0.000000e+00 0.000000e+00 0.000000e+00
 0.000000e+00 6.220002e-01 3.779999e-01 0.000000e+00 0.000000e+00
 0.000000e+00 0.000000e+00 5.322663e-01 4.677337e-01 0.000000e+00
 0.000000e+00 0.000000e+00 0.000000e+00 2.366433e-01 7.633567e-01
 0.000000e+00 0.000000e+00 0.000000e+00 0.000000e+00 0.000000e+00
<ENDHMM>
~h "n"
<BEGINHMM>
<NUMSTATES> 5
<STATE> 2
<MEAN> 12
 -2.856379e-01 2.834114e+00 3.740130e+00 -2.305540e-01 -8.544133e+00 -9.553473e+00 -3.172372e+00 -9.660689e+00 -6.506479e+00 2.818493e+00 -6.261512e+00 -7.825310e+00
<VARIANCE> 12
 9.370756e+00 1.178036e+02 3.187706e+01 2.156697e+01 5.107704e+01 4.916171e+01 7.476632e+01 4.053651e+01 5.103981e+01 4.577424e+01 5.432195e+01 4.030482e+01
<GCONST> 6.688694e+01
<STATE> 3
<MEAN> 12
 -3.279717e+00 -2.583481e+00 4.478837e+00 -7.748758e-01 -9.730591e+00 -8.527930e+00 -6.728806e+00 -6.615130e+00 -2.188673e+00 -1.434244e+00 -3.478560e+00 -4.945459e+00
<VARIANCE> 12
 2.796382e+01 1.838461e+02 4.689872e+01 2.888185e+01 7.751620e+01 6.328010e+01 5.556264e+01 4.399121e+01 6.107210e+01 4.072950e+01 3.245740e+01 4.486380e+01
<GCONST> 6.921287e+01
<STATE> 4
<MEAN> 12
 -2.219024e+00 -6.546584e+00 2.997778e+00 -4.533695e+00 -1.044836e+01 -5.242100e+00 -1.219330e+01 -4.081072e+00 3.421676e-01 -3.066366e+00 -8.135033e-01 -6.092593e+00
<VARIANCE> 12
 2.213169e+01 1.967706e+02 4.465386e+01 3.617220e+01 9.249763e+01 6.774729e+01 6.954517e+01 5.919751e+01 6.641263e+01 5.816518e+01 3.559991e+01 6.876037e+01
<GCONST> 7.094878e+01
<TRANSP> 5
 0.000000e+00 1.000000e+00 0.000000e+00 0.000000e+00 0.000000e+00
 0.000000e+00 6.550207e-01 3.449793e-01 0.000000e+00 0.000000e+00
 0.000000e+00 0.000000e+00 1.986376e-01 8.013625e-01 0.000000e+00
 0.000000e+00 0.000000e+00 0.000000e+00 2.871224e-01 7.128776e-01
 0.000000e+00 0.000000e+00 0.000000e+00 0.000000e+00 0.000000e+00
<ENDHMM>
~h "o"
<BEGINHMM>
<NUMSTATES> 5
<STATE> 2
<MEAN> 12
 7.686391e-01 -4.790958e+00 -7.863092e-01 -1.202747e+01 -1.367698e+01 6.013126e-01 -1.284758e+01 -6.205933e+00 -2.933161e+00 -5.819462e+00 6.548147e+00 -2.741339e+00
<VARIANCE> 12
 2.003916e+01 1.290951e+02 1.888569e+01 6.235934e+01 4.743355e+01 5.486394e+01 9.087966e+01 8.283297e+01 5.842653e+01 7.059327e+01 9.083474e+01 4.134667e+01
<GCONST> 7.033038e+01
<STATE> 3
<MEAN> 12
 2.120328e+00 7.478886e-01 -6.841591e-01 -9.972798e+00 -1.111893e+01 -1.268147e+00 -8.088182e+00 -1.194982e+01 -5.230561e+00 -1.612478e+00 4.189089e+00 2.603337e-01
<VARIANCE> 12
 8.958756e+00 9.572195e+01 1.755182e+01 3.473814e+01 4.019099e+01 4.960393e+01 4.902248e+01 7.065390e+01 6.388233e+01 7.951292e+01 7.115503e+01 3.775917e+01
<GCONST> 6.739844e+01
<STATE> 4
<MEAN> 12
 2.083225e-01 -2.947678e+00 2.272598e-01 -5.515928e+00 -1.085379e+01 -3.357101e+00 -9.501227e+00 -9.896803e+00 -2.507281e+00 -5.776025e-01 2.899669e+00 -1.673481e+00
<VARIANCE> 12
 1.180065e+01 1.613929e+02 2.649925e+01 4.707040e+01 6.162193e+01 4.663615e+01 6.245771e+01 4.482164e+01 6.578466e+01 7.532536e+01 6.327720e+01 4.699505e+01
<GCONST> 6.914162e+01
<TRANSP> 5
 0.000000e+00 1.000000e+00 0.000000e+00 0.000000e+00 0.000000e+00
 0.000000e+00 4.933168e-01 5.066832e-01 0.000000e+00 0.000000e+00
 0.000000e+00 0.000000e+00 5.595917e-01 4.404083e-01 0.000000e+00
 0.000000e+00 0.000000e+00 0.000000e+00 6.203829e-03 9.937961e-01
 0.000000e+00 0.000000e+00 0.000000e+00 0.000000e+00 0.000000e+00
<ENDHMM>
~h "p"
<BEGINHMM>
<NUMSTATES> 5
<STATE> 2
<MEAN> 12
 -4.742954e+00 2.934397e+00 1.405661e+00 2.427952e+00 -5.119341e+00 -1.324730e+00 -6.868719e+00 -1.105423e+00 -2.580404e+00 1.086628e+00 -1.120407e+00 -2.281455e-01
<VARIANCE> 12
 2.265123e+01 7.642555e+01 2.145269e+01 2.615742e+01 3.499597e+01 2.349787e+01 2.712146e+01 3.095230e+01 2.701072e+01 3.129004e+01 1.949920e+01 1.797779e+01
<GCONST> 6.188500e+01
<STATE> 3
<MEAN> 12
 -1.010556e+01 -2.634705e+00 1.302385e+00 1.011678e+00 -4.759637e+00 -5.640360e+00 -6.392479e+00 -2.045496e+00 1.091513e+00 4.097644e-01 -1.015126e+00 -6.369197e-01
<VARIANCE> 12
 5.852262e+01 7.913605e+01 3.122007e+01 3.076706e+01 6.159987e+01 4.585934e+01 2.615176e+01 3.127383e+01 3.387940e+01 3.463610e+01 2.599617e+01 1.966682e+01
<GCONST> 6.532014e+01
<STATE> 4
<MEAN> 12
 -8.886216e-01 -1.390348e+01 3.691095e-02 -4.031725e+00 -1.321238e+01 -2.949189e+00 -1.092578e+01 -4.874847e+00 6.079811e+00 -4.426444e+00 1.223832e+00 -6.030975e+00
<VARIANCE> 12
 2.245044e+01 1.989595e+02 2.262894e+01 5.460992e+01 8.157245e+01 4.170410e+01 4.662102e+01 3.894733e+01 6.828835e+01 8.694727e+01 6.998235e+01 6.718307e+01
<GCONST> 7.035944e+01
<TRANSP> 5
 0.000000e+00 1.000000e+00 0.000000e+00 0.000000e+00 0.000000e+00
 0.000000e+00 6.891645e-01 3.108355e-01 0.000000e+00 0.000000e+00
 0.000000e+00 0.000000e+00 6.092390e-01 3.907611e-01 0.000000e+00
 0.000000e+00 0.000000e+00 0.000000e+00 5.171685e-01 4.828315e-01
 0.000000e+00 0.000000e+00 0.000000e+00 0.000000e+00 0.000000e+00
<ENDHMM>
~h "s"
<BEGINHMM>
<NUMSTATES> 5
<STATE> 2
<MEAN> 12
 -1.258796e+01 2.554802e+00 4.442733e+00 -1.523814e+00 -3.946725e+00 -6.185462e+00 -6.912241e+00 -3.034750e+00 4.908670e-01 -1.581952e+00 -2.327004e+00 5.696838e-01
<VARIANCE> 12
 4.836062e+01 1.461991e+02 4.629494e+01 3.961461e+01 7.423277e+01 7.663158e+01 5.654538e+01 3.473159e+01 4.661366e+01 3.465207e+01 3.545593e+01 2.453559e+01
<GCONST> 6.881699e+01
<STATE> 3
<MEAN> 12
 -2.508684e+01 3.043465e+00 -2.312886e-01 -2.903769e+00 -9.040841e-01 -5.517067e+00 -2.887883e+00 1.841124e+00 1.438773e+00 -4.528654e-01 -1.842337e-01 1.823550e+00
<VARIANCE> 12
 3.297583e+01 5.988079e+01 4.741244e+01 2.353108e+01 5.348496e+01 4.272023e+01 4.030163e+01 3.577790e+01 3.052924e+01 2.336253e+01 2.411837e+01 1.948809e+01
<GCONST> 6.439026e+01
<STATE> 4
<MEAN> 12
 -1.170893e+01 -2.987065e+00 3.391942e+00 -1.868098e+00 -7.409764e+00 -6.217156e+00 -7.332100e+00 -2.386368e+00 1.178927e+00 -1.251474e+00 -8.616318e-01 -8.914906e-01
<VARIANCE> 12
 7.193856e+01 1.532344e+02 6.451160e+01 3.549304e+01 8.536364e+01 7.586494e+01 4.491555e+01 4.446800e+01 4.745524e+01 4.912580e+01 3.557555e+01 4.642860e+01
<GCONST> 7.063766e+01
<TRANSP> 5
 0.000000e+00 1.000000e+00 0.000000e+00 0.000000e+00 0.000000e+00
 0.000000e+00 4.675564e-01 5.324436e-01 0.000000e+00 0.000000e+00
 0.000000e+00 0.000000e+00 8.397918e-01 1.602082e-01 0.000000e+00
 0.000000e+00 0.000000e+00 0.000000e+00 3.737769e-01 6.262231e-01
 0.000000e+00 0.000000e+00 0.000000e+00 0.000000e+00 0.000000e+00
<ENDHMM>
~h "t"
<BEGINHMM>
<NUMSTATES> 5
<STATE> 2
<MEAN> 12
 -6.429922e+00 1.522205e+00 1.999844e+00 4.949828e-01 -5.666244e+00 -3.073465e+00 -6.895029e+00 -2.015607e+00 -9.980727e-01 1.389925e+00 -1.974611e+00 -1.166736e+00
<VARIANCE> 12
 2.830947e+01 9.012651e+01 3.179966e+01 3.311320e+01 4.133241e+01 3.343563e+01 3.230997e+01 3.303947e+01 3.810491e+01 3.065734e+01 2.678700e+01 2.489133e+01
<GCONST> 6.462832e+01
<STATE> 3
<MEAN> 12
 -1.576202e+01 -3.703654e+00 -1.909538e-01 -5.563545e+00 -3.872807e+00 -3.813405e+00 -4.078776e+00 1.002247e-01 1.494076e+00 9.137365e-01 -5.340399e-01 2.240316e-01
<VARIANCE> 12
 6.463809e+01 7.255701e+01 3.547995e+01 2.869150e+01 5.238930e+01 3.679148e+01 3.764047e+01 4.208422e+01 3.754321e+01 3.402454e+01 2.808436e+01 2.514188e+01
<GCONST> 6.607731e+01
<STATE> 4
<MEAN> 12
 -9.242041e+00 -4.859116e+00 2.965780e+00 -3.697184e+00 -6.798280e+00 -4.872209e+00 -8.455202e+00 -2.644734e+00 1.986517e+00 -8.384991e-01 7.038798e-01 -2.417773e+00
<VARIANCE> 12
 6.124643e+01 1.216257e+02 4.788540e+01 5.257383e+01 7.079391e+01 8.159372e+01 6.094403e+01 4.546629e+01 5.682606e+01 4.310455e+01 3.996749e+01 5.062731e+01
<GCONST> 7.080605e+01
<TRANSP> 5
 0.000000e+00 1.000000e+00 0.000000e+00 0.000000e+00 0.000000e+00
 0.000000e+00 5.796174e-01 4.203826e-01 0.000000e+00 0.000000e+00
 0.000000e+00 0.000000e+00 6.839709e-01 3.160291e-01 0.000000e+00
 0.000000e+00 0.000000e+00 0.000000e+00 3.978629e-01 6.021371e-01
 0.000000e+00 0.000000e+00 0.000000e+00 0.000000e+00 0.000000e+00
<ENDHMM>
~h "u"
<BEGINHMM>
<NUMSTATES> 5
<STATE> 2
<MEAN> 12
 9.347711e-01 1.849078e+00 7.289642e-01 -4.701122e+00 -6.528523e+00 -2.414114e+00 -9.685783e+00 -1.166059e+01 -5.790927e+00 -1.655340e+00 1.589010e+00 4.398349e-01
<VARIANCE> 12
 1.807187e+01 1.064362e+02 1.625913e+01 4.581616e+01 6.368370e+01 4.206874e+01 3.460082e+01 4.774009e+01 5.101467e+01 4.052206e+01 3.872442e+01 2.774214e+01
<GCONST> 6.614599e+01
<STATE> 3
<MEAN> 12
 1.788851e+00 -3.131778e+00 2.989407e-01 -9.085819e+00 -1.622319e+01 6.659612e-01 -1.032129e+01 -1.237939e+01 -4.652640e+00 -8.344289e+00 2.217388e+00 9.473289e-01
<VARIANCE> 12
 1.266818e+01 1.827943e+02 1.969463e+01 6.307534e+01 8.992857e+01 6.062395e+01 6.146300e+01 5.360147e+01 5.837062e+01 8.253628e+01 4.670709e+01 3.146453e+01
<GCONST> 6.940318e+01
<STATE> 4
<MEAN> 12
 4.849577e-01 4.345095e+00 2.022744e+00 -8.561835e+00 -1.065784e+01 -3.933063e+00 -7.788043e+00 -6.966635e+00 -2.536636e+00 -1.854570e+00 -2.737488e+00 -2.077579e+00
<VARIANCE> 12
 2.104535e+01 9.948210e+01 2.434560e+01 7.889757e+01 5.419865e+01 6.249193e+01 6.442368e+01 4.138979e+01 3.135093e+01 6.584556e+01 4.553903e+01 3.063018e+01
<GCONST> 6.815101e+01
<TRANSP> 5
 0.000000e+00 1.000000e+00 0.000000e+00 0.000000e+00 0.000000e+00
 0.000000e+00 4.520411e-01 5.479589e-01 0.000000e+00 0.000000e+00
 0.000000e+00 0.000000e+00 5.735070e-01 4.264931e-01 0.000000e+00
 0.000000e+00 0.000000e+00 0.000000e+00 6.104138e-01 3.895861e-01
 0.000000e+00 0.000000e+00 0.000000e+00 0.000000e+00 0.000000e+00
<ENDHMM>
~h "v"
<BEGINHMM>
<NUMSTATES> 5
<STATE> 2
<MEAN> 12
 -2.156977e+00 -3.595976e+00 1.756265e+00 -1.616424e+00 -8.470772e+00 -5.386067e+00 -1.059589e+01 -6.955692e+00 -1.243188e+00 -4.201179e-01 1.366381e+00 -1.784361e+00
<VARIANCE> 12
 2.395027e+01 1.838652e+02 3.201431e+01 3.720189e+01 6.905699e+01 4.844151e+01 4.865847e+01 3.324134e+01 2.721135e+01 4.317856e+01 3.676853e+01 2.691207e+01
<GCONST> 6.699735e+01
<STATE> 3
<MEAN> 12
 -2.413104e+00 1.266035e+00 9.973733e-01 -1.252775e-01 -6.187545e+00 -6.796417e+00 -9.356967e+00 -7.255079e+00 -2.483455e+00 1.189543e-01 2.585994e+00 -2.698196e+00
<VARIANCE> 12
 2.714123e+01 9.686395e+01 2.478572e+01 3.271199e+01 4.381051e+01 4.244595e+01 3.467974e+01 3.445720e+01 3.514224e+01 3.998778e+01 5.128492e+01 2.602939e+01
<GCONST> 6.568547e+01
<STATE> 4
<MEAN> 12
 -2.915995e+00 -4.084836e+00 2.142059e+00 -1.836544e+00 -9.345366e+00 -5.461097e+00 -1.009375e+01 -5.673340e+00 -1.098139e+00 -2.450161e+00 1.272984e+00 -1.793229e+00
<VARIANCE> 12
 3.342078e+01 1.780498e+02 3.715981e+01 4.352514e+01 8.017274e+01 5.045129e+01 5.067980e+01 4.228925e+01 4.040984e+01 5.822718e+01 2.918543e+01 3.520738e+01
<GCONST> 6.880794e+01
<TRANSP> 5
 0.000000e+00 1.000000e+00 0.000000e+00 0.000000e+00 0.000000e+00
 0.000000e+00 0.000000e+00 1.000000e+00 0.000000e+00 0.000000e+00
 0.000000e+00 0.000000e+00 6.387103e-01 3.612897e-01 0.000000e+00
 0.000000e+00 0.000000e+00 0.000000e+00 7.012551e-02 9.298744e-01
 0.000000e+00 0.000000e+00 0.000000e+00 0.000000e+00 0.000000e+00
<ENDHMM>
~h "w"
<BEGINHMM>
<NUMSTATES> 5
<STATE> 2
<MEAN> 12
 1.657659e+00 -2.168086e+01 -2.898992e+00 -1.131970e+01 -2.072072e+01 2.653208e+00 -8.410709e+00 -4.291182e+00 4.821278e+00 -5.791831e+00 1.918990e+00 6.299374e-01
<VARIANCE> 12
 1.872049e+01 2.148461e+02 1.852983e+01 3.119496e+01 6.675222e+01 3.515349e+01 3.056270e+01 4.013044e+01 6.478064e+01 2.845401e+01 2.964955e+01 1.999942e+01
<GCONST> 6.549078e+01
<STATE> 3
<MEAN> 12
 4.287154e+00 5.438101e-01 -4.331767e+00 -1.691360e+01 -9.666105e+00 9.675188e-01 -5.376494e+00 -3.531263e+00 -3.999095e+00 1.687779e+00 4.573815e+00 -2.422330e+00
<VARIANCE> 12
 6.118217e+00 8.563586e+01 1.927891e+01 5.522498e+01 4.519434e+01 3.022214e+01 3.191469e+01 4.343700e+01 3.565057e+01 5.619654e+01 6.880228e+01 3.918503e+01
<GCONST> 6.524240e+01
<STATE> 4
<MEAN> 12
 3.459592e+00 -2.666286e+01 -6.709902e+00 -1.138814e+01 -1.522850e+01 6.925382e+00 -7.211519e+00 -5.956882e+00 6.086914e+00 -2.916031e+00 -1.417141e+00 -6.310735e+00
<VARIANCE> 12
 4.670611e+00 1.685809e+02 1.946292e+01 2.900278e+01 3.482246e+01 5.039796e+01 4.374618e+01 4.177831e+01 5.210865e+01 4.082497e+01 7.493980e+01 2.530029e+01
<GCONST> 6.525026e+01
<TRANSP> 5
 0.000000e+00 1.000000e+00 0.000000e+00 0.000000e+00 0.000000e+00
 0.000000e+00 7.182323e-01 2.817677e-01 0.000000e+00 0.000000e+00
 0.000000e+00 0.000000e+00 7.626171e-01 2.373830e-01 0.000000e+00
 0.000000e+00 0.000000e+00 0.000000e+00 7.445376e-01 2.554624e-01
 0.000000e+00 0.000000e+00 0.000000e+00 0.000000e+00 0.000000e+00
<ENDHMM>
~h "y"
<BEGINHMM>
<NUMSTATES> 5
<STATE> 2
<MEAN> 12
 -6.898209e+00 -6.550002e+00 1.113899e+01 4.179038e+00 -1.502926e+01 -8.378488e+00 -1.256192e+01 -3.636928e+00 -1.895933e+00 -8.570026e+00 4.365242e-01 -1.711576e-01
<VARIANCE> 12
 3.704943e+01 1.358652e+02 4.557208e+01 4.399762e+01 7.818833e+01 3.122873e+01 5.676036e+01 4.078006e+01 3.806279e+01 8.089692e+01 4.403289e+01 2.822680e+01
<GCONST> 6.888698e+01
<STATE> 3
<MEAN> 12
 -2.433779e+00 -1.780134e+00 1.286168e+01 4.808276e+00 -1.273824e+01 -1.269177e+01 -1.305711e+01 -1.013235e+00 -3.793388e+00 -7.795190e+00 6.535359e-02 -1.078562e+00
<VARIANCE> 12
 1.430707e+01 7.217493e+01 3.507381e+01 4.402687e+01 3.755874e+01 4.673962e+01 4.255407e+01 3.887875e+01 3.849429e+01 3.234623e+01 2.715559e+01 2.415442e+01
<GCONST> 6.483141e+01
<STATE> 4
<MEAN> 12
 -4.445675e+00 1.150150e+00 8.035635e+00 6.253631e-01 -1.110998e+01 -8.390693e+00 -6.005911e+00 -9.089602e+00 -1.089397e+00 -7.843461e-01 2.369113e-01 -2.644327e+00
<VARIANCE> 12
 5.672681e+01 9.377701e+01 4.313686e+01 7.563982e+01 3.819860e+01 5.670708e+01 8.940162e+01 3.565094e+01 2.923379e+01 5.052464e+01 3.474442e+01 2.379654e+01
<GCONST> 6.848701e+01
<TRANSP> 5
 0.000000e+00 1.000000e+00 0.000000e+00 0.000000e+00 0.000000e+00
 0.000000e+00 2.476422e-01 7.523578e-01 0.000000e+00 0.000000e+00
 0.000000e+00 0.000000e+00 7.047516e-01 2.952483e-01 0.000000e+00
 0.000000e+00 0.000000e+00 0.000000e+00 6.213889e-01 3.786111e-01
 0.000000e+00 0.000000e+00 0.000000e+00 0.000000e+00 0.000000e+00
<ENDHMM>
~h "z"
<BEGINHMM>
<NUMSTATES> 5
<STATE> 2
<MEAN> 12
 -7.419131e+00 4.513453e+00 6.029290e+00 -2.101684e+00 -3.790851e+00 -1.087774e+01 -1.477735e+01 -6.625608e+00 1.230399e+00 1.222442e+00 -1.329950e+00 -2.243990e+00
<VARIANCE> 12
 2.485566e+01 1.316316e+02 4.116311e+01 2.134750e+01 7.245176e+01 5.100928e+01 3.809224e+01 3.455239e+01 4.538103e+01 3.555284e+01 5.375666e+01 2.563420e+01
<GCONST> 6.693802e+01
<STATE> 3
<MEAN> 12
 -1.476528e+01 7.730000e+00 7.056807e+00 1.085037e+00 -1.367330e+00 -1.093650e+01 -6.359971e+00 -2.224928e+00 -9.348950e-01 -1.852036e+00 -1.935187e+00 1.414135e+00
<VARIANCE> 12
 3.384537e+01 8.535991e+01 2.545022e+01 2.089268e+01 5.294267e+01 5.717391e+01 3.867550e+01 3.920064e+01 4.024011e+01 2.508033e+01 2.564379e+01 1.821533e+01
<GCONST> 6.470204e+01
<STATE> 4
<MEAN> 12
 -8.139662e+00 1.029312e-01 5.515623e+00 -1.152183e+00 -7.041501e+00 -1.145162e+01 -9.810782e+00 -4.844195e+00 1.454288e+00 -9.249648e-01 -1.729068e+00 7.336473e-01
<VARIANCE> 12
 4.946443e+01 1.760491e+02 4.160458e+01 1.905315e+01 6.986906e+01 7.281024e+01 3.652856e+01 2.787541e+01 6.088918e+01 3.861028e+01 3.630373e+01 3.696677e+01
<GCONST> 6.822681e+01
<TRANSP> 5
 0.000000e+00 1.000000e+00 0.000000e+00 0.000000e+00 0.000000e+00
 0.000000e+00 4.780326e-01 5.219674e-01 0.000000e+00 0.000000e+00
 0.000000e+00 0.000000e+00 7.688932e-01 2.311068e-01 0.000000e+00
 0.000000e+00 0.000000e+00 0.000000e+00 3.889393e-03 9.961106e-01
 0.000000e+00 0.000000e+00 0.000000e+00 0.000000e+00 0.000000e+00
<ENDHMM>
~h "#2"
<BEGINHMM>
<NUMSTATES> 5
<STATE> 2
<MEAN> 12
 7.611086e-01 -2.664856e+01 3.853863e+00 -7.921731e+00 -2.410372e+01 4.493803e-01 -1.430272e+01 -1.020225e+01 5.368563e+00 -7.124343e+00 -2.980404e-01 1.286004e+00
<VARIANCE> 12
 1.329252e+01 7.351997e+01 3.572593e+01 3.460313e+01 4.956067e+01 5.945576e+01 3.628476e+01 4.996104e+01 3.661356e+01 6.308453e+01 4.524453e+01 3.009374e+01
<GCONST> 6.651147e+01
<STATE> 3
<MEAN> 12
 5.524296e+00 -2.933323e+01 -2.525896e+00 -1.043202e+01 -2.624684e+01 -6.069954e+00 -1.734166e+01 -9.053723e+00 1.197066e+01 3.867034e+00 6.744760e-01 -3.990904e+00
<VARIANCE> 12
 4.673373e+00 2.758714e+01 1.346513e+01 1.484423e+01 2.376638e+01 3.444786e+01 3.037404e+01 2.823075e+01 3.006839e+01 2.016220e+01 2.211312e+01 1.794513e+01
<GCONST> 5.806397e+01
<STATE> 4
<MEAN> 12
 -1.234289e+00 -4.104344e+00 3.594380e+00 -2.042277e+00 -8.674458e+00 -1.227330e+01 -1.617036e+01 -4.182184e+00 1.632715e-01 7.754520e+00 -3.453547e+00 -2.485821e+00
<VARIANCE> 12
 1.154641e+01 9.979660e+01 1.447793e+01 2.290780e+01 5.550903e+01 4.392752e+01 4.264061e+01 5.184266e+01 2.894828e+01 7.354625e+01 5.970321e+01 5.731960e+01
<GCONST> 6.620969e+01
<TRANSP> 5
 0.000000e+00 1.000000e+00 0.000000e+00 0.000000e+00 0.000000e+00
 0.000000e+00 8.290532e-01 1.709468e-01 0.000000e+00 0.000000e+00
 0.000000e+00 0.000000e+00 9.414279e-01 5.857202e-02 0.000000e+00
 0.000000e+00 0.000000e+00 0.000000e+00 7.824518e-01 2.175482e-01
 0.000000e+00 0.000000e+00 0.000000e+00 0.000000e+00 0.000000e+00
<ENDHMM>
~h "#9"
<BEGINHMM>
<NUMSTATES> 5
<STATE> 2
<MEAN> 12
 5.623063e-01 -5.533456e+00 2.733123e+00 -6.705329e+00 -9.762048e+00 -9.606441e+00 -1.454642e+01 -9.209172e-01 7.698245e+00 5.081109e+00 8.961538e-01 -8.981160e+00
<VARIANCE> 12
 3.782933e+00 5.590425e+01 1.443867e+01 1.740910e+01 1.818076e+01 5.395950e+01 1.765886e+01 4.118567e+01 2.858861e+01 3.980924e+01 2.799656e+01 1.498671e+01
<GCONST> 5.948985e+01
<STATE> 3
<MEAN> 12
 1.899285e+00 -1.462392e+00 -2.446882e+00 -6.749947e+00 -6.843100e+00 -1.191605e+01 -1.414487e+01 -5.925081e+00 2.318182e+00 1.413829e+01 1.437045e+00 -7.836156e+00
<VARIANCE> 12
 4.754865e+00 4.213363e+01 1.206752e+01 2.311901e+01 1.553347e+01 3.343086e+01 2.720938e+01 1.156530e+01 2.114412e+01 3.367744e+01 2.974868e+01 2.070298e+01
<GCONST> 5.798101e+01
<STATE> 4
<MEAN> 12
 -1.875048e+00 -2.949811e+00 2.018797e+00 -5.153315e+00 -7.042150e+00 -5.811141e+00 -1.317789e+01 -4.816195e+00 1.491936e+00 8.578184e+00 1.602793e+00 -4.923644e+00
<VARIANCE> 12
 1.777381e+01 7.855119e+01 4.556133e+01 3.296046e+01 2.893101e+01 3.460482e+01 5.368406e+01 3.124628e+01 3.666897e+01 4.766295e+01 6.689746e+01 2.752576e+01
<GCONST> 6.592867e+01
<TRANSP> 5
 0.000000e+00 1.000000e+00 0.000000e+00 0.000000e+00 0.000000e+00
 0.000000e+00 7.267302e-01 2.732699e-01 0.000000e+00 0.000000e+00
 0.000000e+00 0.000000e+00 8.348429e-01 1.651571e-01 0.000000e+00
 0.000000e+00 0.000000e+00 0.000000e+00 6.649120e-01 3.350879e-01
 0.000000e+00 0.000000e+00 0.000000e+00 0.000000e+00 0.000000e+00
<ENDHMM>
~h "a#"
<BEGINHMM>
<NUMSTATES> 5
<STATE> 2
<MEAN> 12
 2.728669e+00 -2.081564e+01 -4.604949e+00 -1.615313e+01 -1.695571e+01 6.834495e+00 -5.841587e+00 -6.294087e+00 2.236229e+00 -8.718189e+00 3.416405e+00 -1.255528e+00
<VARIANCE> 12
 1.862180e+01 1.615407e+02 2.550950e+01 3.673954e+01 7.668788e+01 3.370863e+01 6.157271e+01 4.753812e+01 4.906577e+01 5.580976e+01 3.636967e+01 6.819807e+01
<GCONST> 6.847704e+01
<STATE> 3
<MEAN> 12
 2.446761e+00 -3.183702e-01 -7.555092e+00 -1.342257e+01 -1.043614e+01 3.072503e-01 3.224220e+00 -2.893133e+00 -2.760576e+00 -2.213670e+00 -1.659788e+00 -5.667258e+00
<VARIANCE> 12
 8.392777e+00 8.633941e+01 2.619361e+01 3.690567e+01 3.485619e+01 3.561496e+01 7.443659e+01 4.778276e+01 3.152099e+01 7.509856e+01 3.944656e+01 4.938964e+01
<GCONST> 6.615881e+01
<STATE> 4
<MEAN> 12
 -1.103427e+00 -5.210986e+00 -2.633005e-01 -1.109554e+01 -7.330812e+00 -2.301744e-01 -5.325902e+00 -4.904120e+00 -7.256529e+00 -3.365974e+00 1.592031e+00 -7.958545e+00
<VARIANCE> 12
 2.297901e+01 1.463470e+02 2.248008e+01 5.216470e+01 6.601817e+01 3.310934e+01 6.082405e+01 8.688940e+01 5.817149e+01 4.959084e+01 4.229582e+01 6.198571e+01
<GCONST> 6.934329e+01
<TRANSP> 5
 0.000000e+00 1.000000e+00 0.000000e+00 0.000000e+00 0.000000e+00
 0.000000e+00 7.829999e-01 2.170002e-01 0.000000e+00 0.000000e+00
 0.000000e+00 0.000000e+00 7.474744e-01 2.525256e-01 0.000000e+00
 0.000000e+00 0.000000e+00 0.000000e+00 5.259668e-01 4.740332e-01
 0.000000e+00 0.000000e+00 0.000000e+00 0.000000e+00 0.000000e+00
<ENDHMM>
~h "e#"
<BEGINHMM>
<NUMSTATES> 5
<STATE> 2
<MEAN> 12
 -1.564095e+00 -4.828117e+00 -4.091747e+00 -3.842918e+00 -4.788731e+00 -8.860965e+00 -9.725118e+00 2.054021e-01 7.471232e+00 -2.815412e+00 7.390534e-01 -1.250253e+01
<VARIANCE> 12
 6.805601e+00 1.770281e+01 2.259595e+01 2.456297e+01 4.253870e+01 3.508994e+01 2.399316e+01 6.569835e+01 4.737936e+01 4.181093e+01 2.670506e+01 2.795909e+01
<GCONST> 6.204312e+01
<STATE> 3
<MEAN> 12
 -1.159034e+00 9.139469e-01 1.623075e+00 -1.823877e+00 -1.074443e+01 -8.492032e+00 -2.539760e+00 -4.038012e+00 -4.234030e+00 7.648815e-01 -1.590980e+00 -7.599762e+00
<VARIANCE> 12
 1.266796e+01 3.663410e+01 1.015483e+02 2.496799e+01 7.356450e+01 3.636201e+01 3.953073e+01 4.954008e+01 9.019770e+01 1.058453e+02 4.898822e+01 4.481715e+01
<GCONST> 6.836241e+01
<STATE> 4
<MEAN> 12
 -3.734387e+00 4.628616e+00 2.162926e+00 -4.384525e-01 -5.674620e+00 -5.512037e+00 -5.042025e+00 -4.298796e+00 -3.952127e+00 2.363835e+00 -5.555984e+00 -5.035152e+00
<VARIANCE> 12
 2.555347e+01 3.175167e+01 2.873209e+01 2.242255e+01 3.028963e+01 2.522676e+01 3.048908e+01 3.966017e+01 6.016339e+01 3.418060e+01 3.005659e+01 3.646972e+01
<GCONST> 6.358604e+01
<TRANSP> 5
 0.000000e+00 1.000000e+00 0.000000e+00 0.000000e+00 0.000000e+00
 0.000000e+00 8.263909e-01 1.736091e-01 0.000000e+00 0.000000e+00
 0.000000e+00 0.000000e+00 6.389748e-01 3.610252e-01 0.000000e+00
 0.000000e+00 0.000000e+00 0.000000e+00 5.960543e-01 4.039458e-01
 0.000000e+00 0.000000e+00 0.000000e+00 0.000000e+00 0.000000e+00
<ENDHMM>
~h "ee"
<BEGINHMM>
<NUMSTATES> 5
<STATE> 2
<MEAN> 12
 -3.541568e+00 -5.632487e+00 3.975475e+00 -2.957089e+00 -1.298368e+01 -1.641878e+01 -9.302534e+00 1.520737e+00 3.087082e+00 -2.225543e+00 3.394915e+00 -4.640883e+00
<VARIANCE> 12
 1.325000e+01 5.270287e+01 3.047654e+01 3.327389e+01 3.562479e+01 5.958140e+01 3.639594e+01 4.762218e+01 3.898872e+01 2.923195e+01 4.225111e+01 4.066240e+01
<GCONST> 6.513053e+01
<STATE> 3
<MEAN> 12
 -2.492968e+00 -2.966341e+00 4.437660e+00 -1.963552e+00 -1.229257e+01 -1.479037e+01 -7.192707e+00 -2.037446e+00 -1.433445e+00 1.134785e+00 1.122159e+00 -3.774837e+00
<VARIANCE> 12
 1.288845e+01 9.662531e+01 5.651257e+01 3.868082e+01 4.591026e+01 7.912840e+01 5.356511e+01 5.670374e+01 6.393508e+01 5.323784e+01 3.855079e+01 3.462488e+01
<GCONST> 6.841719e+01
<STATE> 4
<MEAN> 12
 4.240536e-01 -2.462187e+01 2.444168e+00 -7.423008e+00 -2.292832e+01 -2.474837e+00 -1.096533e+01 -4.080574e+00 7.148934e+00 -5.335974e+00 -2.885375e-01 1.110690e+00
<VARIANCE> 12
 1.679192e+01 1.723896e+02 3.155043e+01 3.258330e+01 8.962891e+01 9.669969e+01 4.399808e+01 6.180740e+01 5.776453e+01 4.500993e+01 3.908885e+01 4.338243e+01
<GCONST> 6.923518e+01
<TRANSP> 5
 0.000000e+00 1.000000e+00 0.000000e+00 0.000000e+00 0.000000e+00
 0.000000e+00 6.898147e-01 3.101853e-01 0.000000e+00 0.000000e+00
 0.000000e+00 0.000000e+00 4.182081e-01 5.817919e-01 0.000000e+00
 0.000000e+00 0.000000e+00 0.000000e+00 7.722043e-01 2.277957e-01
 0.000000e+00 0.000000e+00 0.000000e+00 0.000000e+00 0.000000e+00
<ENDHMM>
~h "hh"
<BEGINHMM>
<NUMSTATES> 5
<STATE> 2
<MEAN> 12
 -1.642444e+01 -7.582438e+00 7.845289e+00 7.761570e+00 -1.228467e+01 -9.366122e+00 -3.250592e+00 6.281462e-01 2.744458e-01 -4.731855e+00 -8.512536e-01 7.249838e-01
<VARIANCE> 12
 6.449381e+01 5.537930e+01 3.755020e+01 3.550733e+01 3.383621e+01 5.613192e+01 5.463852e+01 2.503549e+01 4.236094e+01 1.962479e+01 2.498296e+01 1.820774e+01
<GCONST> 6.504405e+01
<STATE> 3
<MEAN> 12
 -3.979363e+00 -8.712485e+00 1.376837e+01 1.008724e+01 -1.681464e+01 -1.123643e+01 -1.120091e+01 -1.616533e+00 -3.924227e+00 -1.447197e+01 2.264684e-02 -1.899652e+00
<VARIANCE> 12
 1.295778e+01 1.424344e+02 1.787881e+01 2.483137e+01 5.583458e+01 1.172994e+02 2.484270e+01 2.431044e+01 3.578839e+01 4.278594e+01 3.789929e+01 2.546432e+01
<GCONST> 6.506747e+01
<STATE> 4
<MEAN> 12
 -3.993814e+00 9.130677e-01 1.973083e+01 -6.220146e-01 -1.492546e+01 -1.507269e+01 -1.010555e+01 -3.868080e+00 -1.078135e+01 -4.289205e+00 2.689363e-01 -7.224248e+00
<VARIANCE> 12
 1.055657e+01 5.690292e+01 3.805144e+01 5.650788e+01 3.798700e+01 3.570089e+01 4.419633e+01 3.094990e+01 3.583038e+01 3.475520e+01 1.869485e+01 2.168102e+01
<GCONST> 6.369118e+01
<TRANSP> 5
 0.000000e+00 1.000000e+00 0.000000e+00 0.000000e+00 0.000000e+00
 0.000000e+00 5.189355e-01 4.810645e-01 0.000000e+00 0.000000e+00
 0.000000e+00 0.000000e+00 6.152658e-01 3.847342e-01 0.000000e+00
 0.000000e+00 0.000000e+00 0.000000e+00 6.926625e-01 3.073375e-01
 0.000000e+00 0.000000e+00 0.000000e+00 0.000000e+00 0.000000e+00
<ENDHMM>
~h "jj"
<BEGINHMM>
<NUMSTATES> 5
<STATE> 2
<MEAN> 12
 -1.510228e+00 5.802139e+00 7.855139e+00 2.088195e+00 -8.235619e+00 -1.703778e+01 -6.723756e+00 -1.889030e+00 -8.717381e+00 -5.164859e+00 2.091921e+00 -1.463333e+00
<VARIANCE> 12
 1.426293e+01 1.199793e+01 1.744651e+01 1.324392e+01 3.299341e+01 2.151392e+01 2.698970e+01 3.554523e+01 5.211859e+01 1.039516e+01 1.937240e+01 6.480145e+00
<GCONST> 5.719832e+01
<STATE> 3
<MEAN> 12
 -6.482182e+00 4.415250e+00 1.792150e+01 -3.086429e+00 -1.284282e+01 -1.655554e+01 -8.661449e+00 -5.027962e+00 -3.456857e+00 -8.044024e+00 -1.261165e+00 -1.919298e+00
<VARIANCE> 12
 2.410304e+01 1.880875e+01 3.795399e+01 1.608541e+01 1.368970e+01 6.722840e+01 2.545640e+01 3.386105e+01 9.615502e+00 4.964572e+00 1.837542e+01 6.023088e+00
<GCONST> 5.674176e+01
<STATE> 4
<MEAN> 12
 -5.259757e+00 2.192664e+00 1.675484e+01 -1.220219e+00 -1.846026e+01 -1.370426e+01 -7.539267e+00 -2.237276e+00 -1.226704e+01 -4.126104e-01 5.695182e+00 -3.124364e+00
<VARIANCE> 12
 7.870266e+00 2.128072e+01 3.570277e+01 5.729758e+00 4.145689e+01 6.365879e+01 3.700538e+01 2.719340e+01 4.846437e+01 2.822364e+01 1.180072e+01 4.788302e+00
<GCONST> 5.854388e+01
<TRANSP> 5
 0.000000e+00 1.000000e+00 0.000000e+00 0.000000e+00 0.000000e+00
 0.000000e+00 7.921948e-01 2.078052e-01 0.000000e+00 0.000000e+00
 0.000000e+00 0.000000e+00 7.218798e-01 2.781202e-01 0.000000e+00
 0.000000e+00 0.000000e+00 0.000000e+00 7.096541e-01 2.903459e-01
 0.000000e+00 0.000000e+00 0.000000e+00 0.000000e+00 0.000000e+00
<ENDHMM>
~h "o#"
<BEGINHMM>
<NUMSTATES> 5
<STATE> 2
<MEAN> 12
 4.133746e+00 -2.169357e+01 -2.407777e+00 -1.330662e+01 -2.415852e+01 7.224386e-01 -1.153671e+01 -8.114435e+00 2.731943e+00 -7.235256e+00 1.373380e+00 7.470810e-01
<VARIANCE> 12
 1.117785e+01 1.506652e+02 1.668838e+01 2.442952e+01 8.095883e+01 3.881638e+01 4.833863e+01 3.777283e+01 3.637018e+01 3.942322e+01 2.644498e+01 3.060190e+01
<GCONST> 6.502087e+01
<STATE> 3
<MEAN> 12
 1.763297e+00 2.754386e+00 -2.720740e+00 -1.276526e+01 -1.150177e+01 -1.929928e+00 -1.233447e+00 -3.874538e+00 -4.523628e+00 -8.439441e-01 -2.741286e+00 -4.769758e+00
<VARIANCE> 12
 6.956881e+00 5.483015e+01 1.916146e+01 3.299628e+01 3.586695e+01 4.061369e+01 6.387774e+01 3.960814e+01 4.431613e+01 3.266180e+01 4.385739e+01 3.622441e+01
<GCONST> 6.421595e+01
<STATE> 4
<MEAN> 12
 -1.040963e+00 5.448521e-01 5.895500e-01 -4.580882e+00 -7.238868e+00 -6.165339e+00 -1.006757e+01 -5.113233e+00 -3.141649e+00 3.650727e+00 -6.217637e-01 -5.017312e+00
<VARIANCE> 12
 1.164270e+01 8.781947e+01 2.288075e+01 3.336541e+01 4.872763e+01 5.260975e+01 1.006273e+02 5.085989e+01 4.178774e+01 6.442054e+01 5.516089e+01 3.836901e+01
<GCONST> 6.756749e+01
<TRANSP> 5
 0.000000e+00 1.000000e+00 0.000000e+00 0.000000e+00 0.000000e+00
 0.000000e+00 7.952278e-01 2.047722e-01 0.000000e+00 0.000000e+00
 0.000000e+00 0.000000e+00 8.419070e-01 1.580930e-01 0.000000e+00
 0.000000e+00 0.000000e+00 0.000000e+00 6.376005e-01 3.623995e-01
 0.000000e+00 0.000000e+00 0.000000e+00 0.000000e+00 0.000000e+00
<ENDHMM>
~h "oo"
<BEGINHMM>
<NUMSTATES> 5
<STATE> 2
<MEAN> 12
 4.022999e+00 -2.319885e+01 -2.469166e+00 -1.394410e+01 -2.277051e+01 6.242799e+00 -1.042045e+01 -8.607344e+00 2.774178e+00 -5.969953e+00 7.540517e-01 -1.726850e+00
<VARIANCE> 12
 1.203206e+01 1.633925e+02 2.327802e+01 2.952811e+01 7.085723e+01 4.518663e+01 3.839054e+01 3.506817e+01 4.321681e+01 4.678107e+01 4.182839e+01 3.593553e+01
<GCONST> 6.637469e+01
<STATE> 3
<MEAN> 12
 1.689846e+00 1.339472e+00 -2.071127e+00 -1.373273e+01 -1.055708e+01 1.188410e+00 -8.624858e+00 -1.411561e+01 -4.299594e+00 1.445629e+00 6.619434e+00 -8.400794e-01
<VARIANCE> 12
 1.539092e+01 5.182692e+01 2.663566e+01 5.079402e+01 4.157368e+01 5.331008e+01 6.045553e+01 4.943375e+01 6.091328e+01 4.071622e+01 5.249436e+01 6.650963e+01
<GCONST> 6.762651e+01
<STATE> 4
<MEAN> 12
 2.076354e+00 -8.867944e+00 -3.169441e+00 -4.346173e+00 -1.212428e+01 -4.979398e+00 -1.568227e+01 -1.053353e+01 -1.914354e+00 1.530086e-01 1.315200e+00 -3.526795e+00
<VARIANCE> 12
 3.861046e+01 2.051338e+02 3.322420e+01 1.077876e+02 8.335307e+01 5.478190e+01 1.110368e+02 5.154893e+01 6.437231e+01 4.542637e+01 4.525823e+01 5.966739e+01
<GCONST> 7.217593e+01
<TRANSP> 5
 0.000000e+00 1.000000e+00 0.000000e+00 0.000000e+00 0.000000e+00
 0.000000e+00 8.141773e-01 1.858227e-01 0.000000e+00 0.000000e+00
 0.000000e+00 0.000000e+00 7.674170e-01 2.325830e-01 0.000000e+00
 0.000000e+00 0.000000e+00 0.000000e+00 4.364282e-01 5.635719e-01
 0.000000e+00 0.000000e+00 0.000000e+00 0.000000e+00 0.000000e+00
<ENDHMM>
~h "rr"
<BEGINHMM>
<NUMSTATES> 5
<STATE> 2
<MEAN> 12
 -2.024732e+00 -1.232222e+01 -4.091228e+00 -1.133130e+01 -1.040615e+01 3.334099e+00 -7.036381e+00 -5.873359e+00 3.737327e+00 -1.149177e+00 1.642191e+00 -2.953825e+00
<VARIANCE> 12
 3.661853e+01 2.085676e+02 3.642631e+01 4.508519e+01 1.003272e+02 7.948656e+01 6.273013e+01 4.719102e+01 5.800904e+01 4.620333e+01 4.844925e+01 5.688442e+01
<GCONST> 7.119144e+01
<STATE> 3
<MEAN> 12
 -3.044389e+00 -1.437577e+00 -4.230075e+00 -1.189184e+01 -6.711353e+00 1.155616e+00 -2.939904e+00 -5.230093e+00 9.175091e-01 1.483175e+00 3.809730e-01 -8.367483e-01
<VARIANCE> 12
 3.464085e+01 1.128745e+02 2.821493e+01 4.433310e+01 8.035204e+01 4.372817e+01 5.454844e+01 4.294403e+01 4.639316e+01 5.064780e+01 4.048127e+01 4.061889e+01
<GCONST> 6.854794e+01
<STATE> 4
<MEAN> 12
 -2.125301e+00 -6.441355e+00 -2.022303e+00 -9.178885e+00 -9.378766e+00 -3.416708e-01 -6.444144e+00 -5.963191e+00 1.294239e+00 -1.000712e-01 1.072357e+00 -2.268175e+00
<VARIANCE> 12
 3.166875e+01 1.893789e+02 3.128973e+01 4.359648e+01 9.051981e+01 5.978091e+01 7.047952e+01 4.765735e+01 5.280275e+01 5.685562e+01 4.423146e+01 4.235747e+01
<GCONST> 7.023015e+01
<TRANSP> 5
 0.000000e+00 1.000000e+00 0.000000e+00 0.000000e+00 0.000000e+00
 0.000000e+00 3.302976e-01 6.697024e-01 0.000000e+00 0.000000e+00
 0.000000e+00 0.000000e+00 6.267792e-01 3.732207e-01 0.000000e+00
 0.000000e+00 0.000000e+00 0.000000e+00 7.692986e-03 9.923070e-01
 0.000000e+00 0.000000e+00 0.000000e+00 0.000000e+00 0.000000e+00
<ENDHMM>
~h "ss"
<BEGINHMM>
<NUMSTATES> 5
<STATE> 2
<MEAN> 12
 -1.811162e+01 -2.807148e+00 7.503550e+00 -6.028820e-03 -8.916490e+00 -2.123638e+00 -3.811822e+00 -3.633746e+00 2.441217e+00 -4.049843e+00 -5.598156e-01 2.279098e+00
<VARIANCE> 12
 1.384861e+02 1.096618e+02 2.589928e+01 5.194732e+01 2.471414e+01 3.306948e+01 3.401241e+01 5.450256e+01 3.323700e+01 2.399111e+01 2.790143e+01 2.199600e+01
<GCONST> 6.621899e+01
<STATE> 3
<MEAN> 12
 -2.112239e+01 -5.100662e+00 4.578844e+00 1.598213e+00 -3.883956e+00 -7.190522e+00 -1.723855e+00 -5.572269e+00 4.893245e+00 9.722616e-01 -4.499483e-02 1.232434e+00
<VARIANCE> 12
 6.935239e+01 3.914478e+01 3.239088e+01 2.266782e+01 6.071128e+01 4.213116e+01 5.401620e+01 3.532322e+01 4.851136e+01 2.864146e+01 2.210822e+01 1.799346e+01
<GCONST> 6.518317e+01
<STATE> 4
<MEAN> 12
 -3.107596e+00 -2.598024e+00 -7.348133e-01 -4.855406e+00 -7.743146e+00 -6.555090e+00 -7.041706e+00 -8.414689e+00 3.628949e+00 3.263705e-01 4.390451e-01 -5.103948e+00
<VARIANCE> 12
 3.903054e+01 6.579308e+01 3.390081e+01 3.339266e+01 5.229054e+01 6.734895e+01 5.399655e+01 6.074308e+01 5.432196e+01 6.466127e+01 2.716359e+01 3.299902e+01
<GCONST> 6.816188e+01
<TRANSP> 5
 0.000000e+00 1.000000e+00 0.000000e+00 0.000000e+00 0.000000e+00
 0.000000e+00 8.500655e-01 1.499345e-01 0.000000e+00 0.000000e+00
 0.000000e+00 0.000000e+00 8.078365e-01 1.921635e-01 0.000000e+00
 0.000000e+00 0.000000e+00 0.000000e+00 6.620110e-01 3.379890e-01
 0.000000e+00 0.000000e+00 0.000000e+00 0.000000e+00 0.000000e+00
<ENDHMM>
~h "zz"
<BEGINHMM>
<NUMSTATES> 5
<STATE> 2
<MEAN> 12
 -1.549858e+01 1.155285e+00 1.204583e+01 1.633637e+00 -7.336475e+00 -8.327267e+00 -4.281408e+00 -6.319285e+00 4.091974e+00 -3.825119e+00 -2.259477e+00 1.006115e+00
<VARIANCE> 12
 6.118581e+01 5.307785e+01 3.452094e+01 2.813794e+01 5.967155e+01 5.813752e+01 4.394135e+01 4.442688e+01 3.980994e+01 2.639852e+01 2.094589e+01 2.132511e+01
<GCONST> 6.580651e+01
<STATE> 3
<MEAN> 12
 -7.270745e+00 -3.173504e+00 7.670505e+00 7.241139e-01 -1.829158e+00 -8.399602e+00 -1.011129e+01 -1.126203e+01 -2.843936e+00 1.397836e+00 8.107581e-02 2.195938e+00
<VARIANCE> 12
 4.258976e+01 9.663330e+01 2.617793e+01 3.899763e+01 1.826630e+02 5.310588e+01 3.425505e+01 3.259481e+01 6.761079e+01 5.387513e+01 2.699441e+01 2.913022e+01
<GCONST> 6.837123e+01
<STATE> 4
<MEAN> 12
 -2.467593e+00 -2.493907e+01 1.025492e+01 -7.171815e+00 -2.324676e+01 3.490077e+00 -1.515921e+01 -1.049854e+01 1.845536e+00 -1.117311e+01 1.466826e+00 2.616193e+00
<VARIANCE> 12
 2.140128e+01 1.031615e+02 3.837223e+01 3.854172e+01 5.272072e+01 6.334395e+01 4.053053e+01 4.150681e+01 4.118547e+01 4.169761e+01 2.480922e+01 2.275015e+01
<GCONST> 6.637916e+01
<TRANSP> 5
 0.000000e+00 1.000000e+00 0.000000e+00 0.000000e+00 0.000000e+00
 0.000000e+00 7.907796e-01 2.092205e-01 0.000000e+00 0.000000e+00
 0.000000e+00 0.000000e+00 4.819705e-01 5.180295e-01 0.000000e+00
 0.000000e+00 0.000000e+00 0.000000e+00 8.441046e-01 1.558954e-01
 0.000000e+00 0.000000e+00 0.000000e+00 0.000000e+00 0.000000e+00
<ENDHMM>
~h "sil"
<BEGINHMM>
<NUMSTATES> 5
<STATE> 2
<MEAN> 12
 -2.422767e+00 -2.640996e+01 1.785050e+00 -5.339182e+00 -1.994914e+01 2.017240e+00 -1.140459e+01 -5.434595e+00 6.777318e+00 -7.106536e+00 2.485642e-01 2.330349e+00
<VARIANCE> 12
 1.757033e+01 1.160122e+02 2.526838e+01 2.912919e+01 5.695672e+01 4.573364e+01 3.612344e+01 3.976113e+01 3.858497e+01 4.234162e+01 2.713772e+01 3.821122e+01
<GCONST> 6.575338e+01
<STATE> 3
<MEAN> 12
 -1.410199e+01 -6.427089e+00 -1.556654e+00 -1.991254e+00 1.438986e-01 -6.732736e+00 -5.174860e+00 1.764917e+00 4.428441e+00 -3.031576e-01 -2.816741e+00 1.303922e+00
<VARIANCE> 12
 2.915150e+01 3.770869e+01 2.054434e+01 2.376428e+01 4.262641e+01 4.427259e+01 2.961777e+01 3.121915e+01 3.260998e+01 2.867614e+01 2.126250e+01 2.373524e+01
<GCONST> 6.268453e+01
<STATE> 4
<MEAN> 12
 -8.556107e+00 1.004624e+00 -1.275491e+00 3.433933e+00 -2.757788e+00 7.634067e-01 -4.410338e+00 1.080087e+00 -1.255579e+00 1.667999e+00 -2.222435e+00 2.205110e-01
<VARIANCE> 12
 1.252291e+01 3.206426e+01 1.764388e+01 2.295040e+01 2.850617e+01 2.820957e+01 2.562844e+01 2.331161e+01 2.373113e+01 2.343955e+01 2.234066e+01 1.864017e+01
<GCONST> 5.948893e+01
<TRANSP> 5
 0.000000e+00 1.000000e+00 0.000000e+00 0.000000e+00 0.000000e+00
 0.000000e+00 8.552181e-01 1.447819e-01 0.000000e+00 0.000000e+00
 0.000000e+00 0.000000e+00 8.715574e-01 1.284426e-01 0.000000e+00
 0.000000e+00 0.000000e+00 0.000000e+00 9.029839e-01 9.701612e-02
 0.000000e+00 0.000000e+00 0.000000e+00 0.000000e+00 0.000000e+00
<ENDHMM>
