~o
<STREAMINFO> 1 12
<VECSIZE> 12<NULLD><MFCC><DIAGC>
~h "#2"
<BEGINHMM>
<NUMSTATES> 5
<STATE> 2
<MEAN> 12
 1.192562e+00 -2.470613e+01 2.564428e+00 -7.874891e+00 -2.323871e+01 2.469046e-01 -1.389543e+01 -1.047548e+01 4.944063e+00 -5.193032e+00 2.165449e-01 7.192693e-01
<VARIANCE> 12
 1.557260e+01 9.201728e+01 4.061010e+01 3.598581e+01 5.584217e+01 5.339388e+01 3.548714e+01 4.335151e+01 3.581671e+01 6.617273e+01 4.615178e+01 3.120032e+01
<GCONST> 6.699094e+01
<STATE> 3
<MEAN> 12
 5.430219e+00 -2.930788e+01 -2.338391e+00 -1.032397e+01 -2.631425e+01 -6.236822e+00 -1.741931e+01 -8.990942e+00 1.191411e+01 3.721378e+00 6.441226e-01 -3.899002e+00
<VARIANCE> 12
 5.345475e+00 2.833200e+01 1.382264e+01 1.467830e+01 2.429046e+01 3.376674e+01 3.025627e+01 2.791712e+01 2.935645e+01 2.076261e+01 2.182709e+01 1.900307e+01
<GCONST> 5.827637e+01
<STATE> 4
<MEAN> 12
 -1.714072e+00 -2.874743e+00 3.474332e+00 -2.241145e+00 -8.895065e+00 -1.156329e+01 -1.510039e+01 -3.904949e+00 8.223639e-01 6.346115e+00 -3.229960e+00 -1.992250e+00
<VARIANCE> 12
 1.646427e+01 9.859590e+01 1.806277e+01 4.068401e+01 5.279740e+01 4.847873e+01 4.967152e+01 4.862397e+01 2.640120e+01 7.862424e+01 5.840170e+01 5.097828e+01
<GCONST> 6.732040e+01
<TRANSP> 5
 0.000000e+00 1.000000e+00 0.000000e+00 0.000000e+00 0.000000e+00
 0.000000e+00 7.720588e-01 2.279412e-01 0.000000e+00 0.000000e+00
 0.000000e+00 0.000000e+00 9.413989e-01 5.860113e-02 0.000000e+00
 0.000000e+00 0.000000e+00 0.000000e+00 8.092307e-01 1.907692e-01
 0.000000e+00 0.000000e+00 0.000000e+00 0.000000e+00 0.000000e+00
<ENDHMM>
