~o
<STREAMINFO> 1 12
<VECSIZE> 12<NULLD><MFCC><DIAGC>
~h "#9"
<BEGINHMM>
<NUMSTATES> 5
<STATE> 2
<MEAN> 12
 5.275849e-01 -6.061199e+00 2.448026e+00 -6.992313e+00 -1.004832e+01 -8.752116e+00 -1.447311e+01 -1.525576e+00 7.701981e+00 4.171519e+00 1.559588e+00 -8.217264e+00
<VARIANCE> 12
 4.565127e+00 8.617393e+01 1.790657e+01 1.857645e+01 2.347698e+01 5.911079e+01 2.051888e+01 5.510645e+01 3.159285e+01 4.238483e+01 4.774057e+01 1.587745e+01
<GCONST> 6.193285e+01
<STATE> 3
<MEAN> 12
 1.930200e+00 -1.396414e+00 -2.578566e+00 -6.777626e+00 -6.703765e+00 -1.168131e+01 -1.401544e+01 -5.905632e+00 2.187145e+00 1.402892e+01 1.531608e+00 -7.826509e+00
<VARIANCE> 12
 4.881611e+00 4.097785e+01 1.223121e+01 2.393297e+01 1.467695e+01 3.483743e+01 2.653982e+01 1.115375e+01 2.189612e+01 3.301620e+01 3.121170e+01 2.025283e+01
<GCONST> 5.799207e+01
<STATE> 4
<MEAN> 12
 -1.425660e+00 -3.236203e+00 1.014873e+00 -5.374452e+00 -7.507435e+00 -3.749835e+00 -1.060802e+01 -4.951234e+00 1.654202e+00 7.469325e+00 6.289101e-01 -3.755871e+00
<VARIANCE> 12
 1.833463e+01 8.298182e+01 4.703123e+01 4.437545e+01 2.740388e+01 4.529624e+01 6.964776e+01 4.097308e+01 4.125281e+01 5.252023e+01 5.900704e+01 2.630520e+01
<GCONST> 6.713405e+01
<TRANSP> 5
 0.000000e+00 1.000000e+00 0.000000e+00 0.000000e+00 0.000000e+00
 0.000000e+00 7.520661e-01 2.479339e-01 0.000000e+00 0.000000e+00
 0.000000e+00 0.000000e+00 8.412699e-01 1.587302e-01 0.000000e+00
 0.000000e+00 0.000000e+00 0.000000e+00 7.196262e-01 2.803739e-01
 0.000000e+00 0.000000e+00 0.000000e+00 0.000000e+00 0.000000e+00
<ENDHMM>
