~o
<STREAMINFO> 1 12
<VECSIZE> 12<NULLD><MFCC><DIAGC>
~h "@"
<BEGINHMM>
<NUMSTATES> 5
<STATE> 2
<MEAN> 12
 -4.570239e-01 -2.219814e+00 2.948895e+00 -2.652967e+00 -8.349723e+00 -1.285495e+01 -1.534892e+01 -7.728556e+00 -7.020082e-01 3.977184e+00 4.047971e+00 -6.279887e+00
<VARIANCE> 12
 1.030616e+01 5.583175e+01 3.173757e+01 3.691064e+01 3.273870e+01 6.756278e+01 4.892471e+01 4.701728e+01 3.422507e+01 6.142113e+01 3.375879e+01 3.474258e+01
<GCONST> 6.563595e+01
<STATE> 3
<MEAN> 12
 9.902548e-01 -2.265696e+01 5.060865e+00 -3.705948e+00 -2.387807e+01 -6.464906e+00 -1.682003e+01 -1.210529e+01 2.675413e+00 -2.992473e+00 3.321845e+00 2.683267e+00
<VARIANCE> 12
 7.395022e+00 1.495490e+02 2.206653e+01 2.260686e+01 8.693589e+01 3.903316e+01 4.233043e+01 4.265251e+01 3.520185e+01 4.791532e+01 4.687914e+01 4.098087e+01
<GCONST> 6.589466e+01
<STATE> 4
<MEAN> 12
 -2.523327e+00 1.443459e+00 3.446794e+00 3.064433e+00 -5.948654e+00 -1.140892e+01 -1.162546e+01 -3.575896e+00 -1.274437e+00 5.175747e-01 -2.450351e+00 -8.975269e-01
<VARIANCE> 12
 2.651455e+01 7.496026e+01 3.506264e+01 3.448438e+01 5.717431e+01 9.462311e+01 5.414932e+01 5.779593e+01 4.799934e+01 6.112482e+01 5.534757e+01 2.832057e+01
<GCONST> 6.873281e+01
<TRANSP> 5
 0.000000e+00 1.000000e+00 0.000000e+00 0.000000e+00 0.000000e+00
 0.000000e+00 8.004926e-01 1.995074e-01 0.000000e+00 0.000000e+00
 0.000000e+00 0.000000e+00 7.552870e-01 2.447130e-01 0.000000e+00
 0.000000e+00 0.000000e+00 0.000000e+00 7.202073e-01 2.797928e-01
 0.000000e+00 0.000000e+00 0.000000e+00 0.000000e+00 0.000000e+00
<ENDHMM>
