~o
<STREAMINFO> 1 12
<VECSIZE> 12<NULLD><MFCC><DIAGC>
~h "a"
<BEGINHMM>
<NUMSTATES> 5
<STATE> 2
<MEAN> 12
 -1.429641e+00 -1.488395e+01 -3.384726e+00 -9.717089e+00 -1.087247e+01 -4.111006e+00 -7.885388e+00 -8.871108e-01 7.391650e+00 -1.125409e+00 -4.128149e-01 -9.938622e+00
<VARIANCE> 12
 2.121814e+01 1.427536e+02 4.305810e+01 3.394041e+01 6.218151e+01 9.732283e+01 6.264005e+01 6.735421e+01 5.026350e+01 5.592873e+01 6.421805e+01 5.239807e+01
<GCONST> 7.047563e+01
<STATE> 3
<MEAN> 12
 -1.029177e+00 -6.410100e+00 -5.767382e+00 -8.997245e+00 -4.493313e+00 -6.566081e+00 -5.401493e+00 -4.769672e-01 4.565364e+00 3.420483e+00 -9.747654e-01 -1.082889e+01
<VARIANCE> 12
 1.109465e+01 5.704169e+01 3.810086e+01 3.474110e+01 4.704848e+01 7.149320e+01 5.317807e+01 5.354525e+01 4.050755e+01 4.569437e+01 5.979536e+01 3.737749e+01
<GCONST> 6.700335e+01
<STATE> 4
<MEAN> 12
 -2.665781e+00 -3.579645e+00 6.762627e-01 -2.772366e+00 -7.699550e+00 -7.971712e+00 -8.629395e+00 -2.234011e+00 1.518923e+00 1.253631e+00 1.696556e-01 -3.860433e+00
<VARIANCE> 12
 2.660154e+01 1.381905e+02 4.722944e+01 5.198068e+01 6.877960e+01 9.762366e+01 5.367982e+01 5.690720e+01 4.863406e+01 4.434376e+01 4.714791e+01 3.444081e+01
<GCONST> 6.997533e+01
<TRANSP> 5
 0.000000e+00 1.000000e+00 0.000000e+00 0.000000e+00 0.000000e+00
 0.000000e+00 4.702703e-01 5.297297e-01 0.000000e+00 0.000000e+00
 0.000000e+00 0.000000e+00 7.279667e-01 2.720333e-01 0.000000e+00
 0.000000e+00 0.000000e+00 0.000000e+00 3.573771e-01 6.426229e-01
 0.000000e+00 0.000000e+00 0.000000e+00 0.000000e+00 0.000000e+00
<ENDHMM>
