~o
<STREAMINFO> 1 12
<VECSIZE> 12<NULLD><MFCC><DIAGC>
~h "a#"
<BEGINHMM>
<NUMSTATES> 5
<STATE> 2
<MEAN> 12
 2.829940e+00 -2.080040e+01 -4.807769e+00 -1.684008e+01 -1.669819e+01 6.086984e+00 -6.702176e+00 -7.061116e+00 1.918225e+00 -8.904453e+00 3.511850e+00 -1.813704e+00
<VARIANCE> 12
 1.910996e+01 1.462333e+02 2.165896e+01 3.396614e+01 7.981511e+01 3.781034e+01 6.827687e+01 5.160618e+01 4.774751e+01 6.046349e+01 3.294837e+01 7.044393e+01
<GCONST> 6.848795e+01
<STATE> 3
<MEAN> 12
 2.177892e+00 -6.291357e-01 -6.668407e+00 -1.298916e+01 -9.714829e+00 2.783357e-01 2.019371e+00 -2.392953e+00 -3.520611e+00 -1.691017e+00 -8.873158e-01 -6.776261e+00
<VARIANCE> 12
 8.476386e+00 8.157190e+01 2.880231e+01 3.864749e+01 3.698891e+01 3.541199e+01 7.439045e+01 5.321106e+01 3.762727e+01 6.933135e+01 4.049462e+01 5.185013e+01
<GCONST> 6.658565e+01
<STATE> 4
<MEAN> 12
 -3.242065e+00 -6.637576e-01 1.075223e+00 -6.716613e+00 -6.545006e+00 -1.744612e+00 -4.615811e+00 -6.159005e+00 -5.498664e+00 -1.667396e+00 -9.331716e-01 -4.731544e+00
<VARIANCE> 12
 4.121196e+01 1.790215e+02 2.111282e+01 4.438584e+01 7.948594e+01 3.701854e+01 5.616737e+01 7.697507e+01 7.006441e+01 3.829245e+01 4.210123e+01 4.383131e+01
<GCONST> 6.957747e+01
<TRANSP> 5
 0.000000e+00 1.000000e+00 0.000000e+00 0.000000e+00 0.000000e+00
 0.000000e+00 7.987013e-01 2.012987e-01 0.000000e+00 0.000000e+00
 0.000000e+00 0.000000e+00 7.766570e-01 2.233430e-01 0.000000e+00
 0.000000e+00 0.000000e+00 0.000000e+00 5.201238e-01 4.798762e-01
 0.000000e+00 0.000000e+00 0.000000e+00 0.000000e+00 0.000000e+00
<ENDHMM>
