~o
<STREAMINFO> 1 12
<VECSIZE> 12<NULLD><MFCC><DIAGC>
~h "b"
<BEGINHMM>
<NUMSTATES> 5
<STATE> 2
<MEAN> 12
 1.085479e+00 3.172110e+00 3.693431e+00 2.135276e+00 -5.378917e+00 -2.609420e+00 -1.067300e+01 -5.217846e+00 -4.189353e+00 -1.736881e-01 -1.458862e+00 -4.559097e+00
<VARIANCE> 12
 1.647942e+01 1.271816e+02 1.941174e+01 3.797542e+01 3.980375e+01 4.513049e+01 3.856986e+01 3.998915e+01 2.677180e+01 3.585161e+01 2.983052e+01 3.029276e+01
<GCONST> 6.481285e+01
<STATE> 3
<MEAN> 12
 3.976423e-01 -6.806452e+00 1.978616e+00 -4.159873e+00 -1.139835e+01 -1.670419e+00 -9.876101e+00 -6.362695e+00 -1.383771e+00 -4.117922e+00 -4.761426e-01 -1.754967e+00
<VARIANCE> 12
 1.469866e+01 1.783078e+02 3.534736e+01 6.399057e+01 4.821404e+01 9.047250e+01 5.162762e+01 4.186920e+01 4.633181e+01 8.380892e+01 3.365177e+01 2.928126e+01
<GCONST> 6.886643e+01
<STATE> 4
<MEAN> 12
 1.495361e+00 -1.591383e+01 -7.404523e-01 -1.092002e+01 -1.623161e+01 1.568167e+00 -1.246972e+01 -8.869133e+00 9.833360e-01 -7.430557e+00 5.135289e-01 -3.063437e+00
<VARIANCE> 12
 1.495347e+01 2.081101e+02 2.656287e+01 5.026333e+01 6.598381e+01 5.392398e+01 4.400780e+01 4.473818e+01 6.060274e+01 1.161220e+02 6.344659e+01 6.075359e+01
<GCONST> 7.017251e+01
<TRANSP> 5
 0.000000e+00 1.000000e+00 0.000000e+00 0.000000e+00 0.000000e+00
 0.000000e+00 7.375000e-01 2.625000e-01 0.000000e+00 0.000000e+00
 0.000000e+00 0.000000e+00 1.250000e-01 8.750000e-01 0.000000e+00
 0.000000e+00 0.000000e+00 0.000000e+00 6.181818e-01 3.818182e-01
 0.000000e+00 0.000000e+00 0.000000e+00 0.000000e+00 0.000000e+00
<ENDHMM>
