~o
<STREAMINFO> 1 12
<VECSIZE> 12<NULLD><MFCC><DIAGC>
~h "d"
<BEGINHMM>
<NUMSTATES> 5
<STATE> 2
<MEAN> 12
 2.808000e-01 4.917831e+00 5.708958e+00 1.848387e+00 -7.385910e+00 -5.199829e+00 -8.844227e+00 -3.835066e+00 -2.535905e+00 4.340363e-01 -4.290462e+00 -4.983915e+00
<VARIANCE> 12
 1.458065e+01 1.269646e+02 2.168707e+01 3.246718e+01 4.401314e+01 5.064618e+01 3.364688e+01 6.026072e+01 3.491528e+01 2.696440e+01 2.964124e+01 2.985337e+01
<GCONST> 6.509194e+01
<STATE> 3
<MEAN> 12
 -5.435997e+00 -1.242840e+00 7.598559e+00 -2.065008e-02 -6.882840e+00 -8.132960e+00 -1.032014e+01 -5.153740e+00 -7.137653e-01 -2.299848e+00 -2.555758e+00 -1.910392e+00
<VARIANCE> 12
 2.486134e+01 1.199447e+02 3.355088e+01 2.925264e+01 7.263401e+01 7.501358e+01 5.269085e+01 4.657690e+01 3.904421e+01 3.121048e+01 2.733140e+01 2.669513e+01
<GCONST> 6.705052e+01
<STATE> 4
<MEAN> 12
 -2.407534e+00 -8.026168e+00 5.994550e+00 -3.271761e+00 -1.286641e+01 -6.205661e+00 -1.445814e+01 -7.591020e+00 1.026250e+00 -2.001206e+00 5.909066e-01 -2.259683e+00
<VARIANCE> 12
 2.692244e+01 2.144203e+02 4.594107e+01 4.599402e+01 8.547614e+01 8.655588e+01 5.897146e+01 5.608288e+01 5.785378e+01 6.475262e+01 3.628736e+01 4.595760e+01
<GCONST> 7.103188e+01
<TRANSP> 5
 0.000000e+00 1.000000e+00 0.000000e+00 0.000000e+00 0.000000e+00
 0.000000e+00 6.215278e-01 3.784722e-01 0.000000e+00 0.000000e+00
 0.000000e+00 0.000000e+00 4.467005e-01 5.532995e-01 0.000000e+00
 0.000000e+00 0.000000e+00 0.000000e+00 3.433735e-01 6.566265e-01
 0.000000e+00 0.000000e+00 0.000000e+00 0.000000e+00 0.000000e+00
<ENDHMM>
