~o
<STREAMINFO> 1 12
<VECSIZE> 12<NULLD><MFCC><DIAGC>
~h "e"
<BEGINHMM>
<NUMSTATES> 5
<STATE> 2
<MEAN> 12
 -1.307697e+00 -2.317105e+01 8.427580e+00 -4.234088e+00 -2.533606e+01 -5.775001e+00 -1.417303e+01 -8.562486e+00 1.639870e+00 -7.769900e+00 2.832217e+00 3.850214e+00
<VARIANCE> 12
 1.291330e+01 1.429332e+02 2.263796e+01 2.334493e+01 6.795741e+01 7.376540e+01 4.553251e+01 4.968454e+01 4.157511e+01 4.430430e+01 2.519586e+01 3.181743e+01
<GCONST> 6.629433e+01
<STATE> 3
<MEAN> 12
 -5.354003e+00 -1.353921e+00 1.083465e+01 3.845981e-01 -1.580879e+01 -1.653531e+01 -8.325652e+00 -2.619320e+00 -4.898741e+00 -4.256041e+00 3.522806e+00 -1.637146e+00
<VARIANCE> 12
 1.289951e+01 1.030787e+02 3.228053e+01 4.329101e+01 4.139521e+01 6.202569e+01 6.536757e+01 4.816761e+01 4.262657e+01 4.059803e+01 2.948071e+01 2.867184e+01
<GCONST> 6.659090e+01
<STATE> 4
<MEAN> 12
 -4.902244e+00 -2.311246e+00 5.350846e+00 1.023507e-01 -8.698133e+00 -8.742788e+00 -9.140025e+00 -3.335421e+00 -1.510693e+00 -1.384575e+00 9.173674e-02 -2.498023e+00
<VARIANCE> 12
 3.519302e+01 1.590561e+02 3.662376e+01 3.940500e+01 7.017979e+01 7.264747e+01 4.542311e+01 5.440612e+01 4.352628e+01 4.491728e+01 3.340899e+01 3.847444e+01
<GCONST> 6.904540e+01
<TRANSP> 5
 0.000000e+00 1.000000e+00 0.000000e+00 0.000000e+00 0.000000e+00
 0.000000e+00 7.559354e-01 2.440646e-01 0.000000e+00 0.000000e+00
 0.000000e+00 0.000000e+00 7.314525e-01 2.685475e-01 0.000000e+00
 0.000000e+00 0.000000e+00 0.000000e+00 4.960784e-01 5.039216e-01
 0.000000e+00 0.000000e+00 0.000000e+00 0.000000e+00 0.000000e+00
<ENDHMM>
