~o
<STREAMINFO> 1 12
<VECSIZE> 12<NULLD><MFCC><DIAGC>
~h "e#"
<BEGINHMM>
<NUMSTATES> 5
<STATE> 2
<MEAN> 12
 -1.354435e+00 -4.996326e+00 -4.487255e+00 -3.891173e+00 -4.704980e+00 -8.190698e+00 -9.367454e+00 7.397185e-02 7.271667e+00 -1.896009e+00 3.488107e-02 -1.245367e+01
<VARIANCE> 12
 7.594159e+00 1.821276e+01 2.069234e+01 2.498754e+01 4.290772e+01 4.355303e+01 2.263172e+01 6.686495e+01 4.800026e+01 5.945952e+01 2.960427e+01 2.748147e+01
<GCONST> 6.274516e+01
<STATE> 3
<MEAN> 12
 -7.797154e-01 2.401357e+00 1.940346e+00 4.293783e-02 -9.170743e+00 -9.339381e+00 -3.938207e+00 -4.316421e+00 -3.454950e+00 4.888421e-01 -1.008501e+00 -9.288610e+00
<VARIANCE> 12
 1.291713e+01 5.264699e+01 9.480369e+01 2.785809e+01 5.689387e+01 3.650172e+01 3.558527e+01 5.818105e+01 8.622771e+01 5.401176e+01 3.742467e+01 4.682501e+01
<GCONST> 6.764460e+01
<STATE> 4
<MEAN> 12
 -6.068479e+00 3.818099e+00 3.273428e+00 -1.126309e+00 -5.052264e+00 -5.215169e+00 -5.108550e+00 -2.926151e+00 -3.057914e+00 1.564854e-01 -4.655517e+00 -2.062585e+00
<VARIANCE> 12
 3.246290e+01 3.790004e+01 3.369449e+01 2.376312e+01 2.618761e+01 2.775705e+01 3.282589e+01 4.023886e+01 4.946038e+01 2.766172e+01 3.224268e+01 2.738695e+01
<GCONST> 6.363445e+01
<TRANSP> 5
 0.000000e+00 1.000000e+00 0.000000e+00 0.000000e+00 0.000000e+00
 0.000000e+00 8.333333e-01 1.666667e-01 0.000000e+00 0.000000e+00
 0.000000e+00 0.000000e+00 5.376344e-01 4.623656e-01 0.000000e+00
 0.000000e+00 0.000000e+00 0.000000e+00 6.884058e-01 3.115942e-01
 0.000000e+00 0.000000e+00 0.000000e+00 0.000000e+00 0.000000e+00
<ENDHMM>
