~o
<STREAMINFO> 1 12
<VECSIZE> 12<NULLD><MFCC><DIAGC>
~h "ee"
<BEGINHMM>
<NUMSTATES> 5
<STATE> 2
<MEAN> 12
 -3.289922e+00 -4.851822e+00 3.956476e+00 -2.572146e+00 -1.252743e+01 -1.632303e+01 -9.204651e+00 1.108070e+00 2.369537e+00 -2.004516e+00 3.172336e+00 -4.688384e+00
<VARIANCE> 12
 1.422470e+01 5.548201e+01 3.661525e+01 3.925889e+01 4.128226e+01 5.457125e+01 3.607053e+01 4.912821e+01 4.777219e+01 3.361103e+01 4.332815e+01 4.308163e+01
<GCONST> 6.610925e+01
<STATE> 3
<MEAN> 12
 -1.837532e+00 -2.621703e+00 3.206967e+00 -3.658873e+00 -1.164451e+01 -1.003031e+01 -7.240718e+00 -2.378797e+00 2.901854e-01 9.775367e-01 -9.446003e-01 -3.402442e+00
<VARIANCE> 12
 1.493164e+01 1.361508e+02 4.474766e+01 4.918331e+01 6.380029e+01 7.503073e+01 6.683182e+01 4.265279e+01 7.008226e+01 6.297668e+01 5.226305e+01 5.118546e+01
<GCONST> 7.008147e+01
<STATE> 4
<MEAN> 12
 5.159195e-01 -2.487291e+01 2.460162e+00 -7.233427e+00 -2.290170e+01 -2.634313e+00 -1.022471e+01 -4.222329e+00 6.809303e+00 -5.394367e+00 -4.876398e-01 1.441654e+00
<VARIANCE> 12
 1.808166e+01 1.775479e+02 3.404495e+01 3.281739e+01 9.756780e+01 7.234891e+01 4.420116e+01 5.884839e+01 5.902064e+01 4.890648e+01 4.388434e+01 3.840731e+01
<GCONST> 6.927067e+01
<TRANSP> 5
 0.000000e+00 1.000000e+00 0.000000e+00 0.000000e+00 0.000000e+00
 0.000000e+00 7.588152e-01 2.411848e-01 0.000000e+00 0.000000e+00
 0.000000e+00 0.000000e+00 3.346303e-01 6.653696e-01 0.000000e+00
 0.000000e+00 0.000000e+00 0.000000e+00 7.804878e-01 2.195122e-01
 0.000000e+00 0.000000e+00 0.000000e+00 0.000000e+00 0.000000e+00
<ENDHMM>
