~o
<STREAMINFO> 1 12
<VECSIZE> 12<NULLD><MFCC><DIAGC>
~h "f"
<BEGINHMM>
<NUMSTATES> 5
<STATE> 2
<MEAN> 12
 -1.086149e+01 -2.049346e+00 2.093233e+00 2.810841e+00 -4.173099e+00 -4.351184e+00 -5.584735e+00 -2.752736e+00 -1.909826e-01 9.000307e-01 -7.896119e-01 2.420962e-01
<VARIANCE> 12
 3.522033e+01 1.094489e+02 1.857494e+01 3.149176e+01 7.521891e+01 2.918493e+01 2.979071e+01 2.195802e+01 3.229545e+01 2.007183e+01 2.030433e+01 1.286042e+01
<GCONST> 6.289976e+01
<STATE> 3
<MEAN> 12
 -1.917079e+01 -4.708893e+00 -3.339624e+00 1.224326e+00 -2.532648e+00 -4.478313e+00 -2.882240e+00 -1.295150e+00 2.266780e+00 2.022817e+00 -7.077027e-01 1.088350e+00
<VARIANCE> 12
 2.225995e+01 2.629179e+01 3.472745e+01 1.928067e+01 3.869153e+01 2.593843e+01 2.488739e+01 3.506527e+01 2.298641e+01 2.048033e+01 2.589068e+01 1.600796e+01
<GCONST> 6.079747e+01
<STATE> 4
<MEAN> 12
 -4.313755e+00 -3.819989e+00 1.102555e+00 -4.536998e+00 -7.995520e+00 -4.448043e+00 -6.692339e+00 -3.820308e+00 -3.435231e-01 -1.728286e+00 5.560448e-01 -1.764457e+00
<VARIANCE> 12
 3.590304e+01 1.614418e+02 4.866550e+01 3.926447e+01 7.928624e+01 8.027623e+01 4.829107e+01 4.898807e+01 5.408744e+01 4.554089e+01 3.535202e+01 2.634042e+01
<GCONST> 6.944781e+01
<TRANSP> 5
 0.000000e+00 1.000000e+00 0.000000e+00 0.000000e+00 0.000000e+00
 0.000000e+00 2.704918e-01 7.295082e-01 0.000000e+00 0.000000e+00
 0.000000e+00 0.000000e+00 8.519135e-01 1.480865e-01 0.000000e+00
 0.000000e+00 0.000000e+00 0.000000e+00 5.265958e-01 4.734043e-01
 0.000000e+00 0.000000e+00 0.000000e+00 0.000000e+00 0.000000e+00
<ENDHMM>
