~o
<STREAMINFO> 1 12
<VECSIZE> 12<NULLD><MFCC><DIAGC>
~h "g"
<BEGINHMM>
<NUMSTATES> 5
<STATE> 2
<MEAN> 12
 -4.871542e+00 4.235049e+00 1.136415e+01 1.481145e+00 -1.378623e+01 -1.037942e+01 -5.342585e+00 -6.305904e+00 -7.143617e+00 -8.398863e-01 3.821902e+00 -5.831676e+00
<VARIANCE> 12
 1.768417e+01 8.049780e+01 3.672551e+01 3.302050e+01 5.049245e+01 4.568947e+01 7.879900e+01 3.917198e+01 2.159554e+01 4.696167e+01 4.791412e+01 3.083763e+01
<GCONST> 6.641454e+01
<STATE> 3
<MEAN> 12
 -3.653310e+00 1.264740e+00 7.129483e+00 1.986919e+00 -8.458872e+00 -1.181338e+01 -7.806197e+00 -1.761427e+00 -9.758189e+00 2.713315e-01 7.500906e+00 -8.447380e+00
<VARIANCE> 12
 1.329251e+01 5.166707e+01 5.318955e+01 5.871727e+01 4.088330e+01 9.240403e+01 6.378445e+01 5.082913e+01 7.017899e+01 3.824490e+01 3.893227e+01 3.100364e+01
<GCONST> 6.794500e+01
<STATE> 4
<MEAN> 12
 -3.968482e+00 -5.561757e+00 3.660288e-01 -7.294769e+00 -1.012728e+01 -4.501276e+00 -8.400283e+00 -4.475419e+00 4.856637e-01 -2.290954e+00 2.733786e+00 -1.981882e+00
<VARIANCE> 12
 2.729622e+01 1.879763e+02 4.029743e+01 5.002057e+01 1.065280e+02 8.288580e+01 2.940250e+01 2.380203e+01 8.636142e+01 4.110316e+01 4.106362e+01 3.501287e+01
<GCONST> 6.928850e+01
<TRANSP> 5
 0.000000e+00 1.000000e+00 0.000000e+00 0.000000e+00 0.000000e+00
 0.000000e+00 6.756757e-01 3.243243e-01 0.000000e+00 0.000000e+00
 0.000000e+00 0.000000e+00 6.842105e-01 3.157895e-01 0.000000e+00
 0.000000e+00 0.000000e+00 0.000000e+00 5.102041e-01 4.897959e-01
 0.000000e+00 0.000000e+00 0.000000e+00 0.000000e+00 0.000000e+00
<ENDHMM>
