~o
<STREAMINFO> 1 12
<VECSIZE> 12<NULLD><MFCC><DIAGC>
~h "hh"
<BEGINHMM>
<NUMSTATES> 5
<STATE> 2
<MEAN> 12
 -1.371757e+01 -6.241810e+00 9.462970e+00 8.550877e+00 -1.182578e+01 -1.086498e+01 -4.885794e+00 -1.216656e-01 -3.841678e-01 -6.271344e+00 -6.573476e-01 -1.019560e-01
<VARIANCE> 12
 7.584007e+01 7.152896e+01 3.504432e+01 4.152164e+01 3.985080e+01 6.409453e+01 7.074015e+01 2.813133e+01 5.222822e+01 2.385731e+01 3.034354e+01 1.661840e+01
<GCONST> 6.672829e+01
<STATE> 3
<MEAN> 12
 -4.182685e+00 -9.270978e+00 1.453725e+01 8.684813e+00 -1.774376e+01 -1.191733e+01 -1.154798e+01 -2.296195e+00 -3.497853e+00 -1.449133e+01 1.354867e+00 -1.558111e+00
<VARIANCE> 12
 1.228750e+01 1.537109e+02 2.637750e+01 3.194334e+01 6.972900e+01 1.258480e+02 3.048732e+01 2.552331e+01 3.541017e+01 3.801422e+01 3.399399e+01 2.472870e+01
<GCONST> 6.601036e+01
<STATE> 4
<MEAN> 12
 -4.693508e+00 -5.347896e-01 2.057151e+01 1.013363e+00 -1.567979e+01 -1.210708e+01 -9.158312e+00 -4.474679e+00 -9.425227e+00 -4.592404e+00 4.309469e-01 -5.752531e+00
<VARIANCE> 12
 1.598774e+01 9.083317e+01 4.361955e+01 3.658560e+01 4.392299e+01 6.437910e+01 3.354776e+01 3.732183e+01 4.791489e+01 3.323799e+01 2.732303e+01 2.441098e+01
<GCONST> 6.566619e+01
<TRANSP> 5
 0.000000e+00 1.000000e+00 0.000000e+00 0.000000e+00 0.000000e+00
 0.000000e+00 4.634146e-01 5.365854e-01 0.000000e+00 0.000000e+00
 0.000000e+00 0.000000e+00 6.615385e-01 3.384615e-01 0.000000e+00
 0.000000e+00 0.000000e+00 0.000000e+00 6.451613e-01 3.548387e-01
 0.000000e+00 0.000000e+00 0.000000e+00 0.000000e+00 0.000000e+00
<ENDHMM>
