~o
<STREAMINFO> 1 12
<VECSIZE> 12<NULLD><MFCC><DIAGC>
~h "i"
<BEGINHMM>
<NUMSTATES> 5
<STATE> 2
<MEAN> 12
 -6.087240e+00 -1.219890e+01 1.397218e+01 -3.761545e+00 -1.990166e+01 -3.256008e+00 -1.418585e+01 -7.467069e+00 -6.113074e-01 -1.207459e+01 2.974931e-01 1.117793e+00
<VARIANCE> 12
 3.099559e+01 2.043412e+02 4.171163e+01 2.618785e+01 1.007620e+02 7.396572e+01 4.889768e+01 5.560852e+01 4.014089e+01 6.788257e+01 2.627400e+01 3.597265e+01
<GCONST> 6.939017e+01
<STATE> 3
<MEAN> 12
 -6.492074e+00 4.070621e+00 1.516974e+01 -8.416554e-01 -1.388440e+01 -1.308747e+01 -6.072964e+00 -5.979777e+00 -5.667255e+00 -4.178437e+00 7.917038e-01 -1.536412e+00
<VARIANCE> 12
 1.764762e+01 1.058203e+02 3.343304e+01 2.902855e+01 4.020572e+01 5.189064e+01 3.910778e+01 5.005193e+01 4.509646e+01 3.405458e+01 2.614686e+01 3.179702e+01
<GCONST> 6.574709e+01
<STATE> 4
<MEAN> 12
 -6.516326e+00 -1.981959e+00 6.010710e+00 -7.000067e-01 -9.268269e+00 -6.400887e+00 -7.130329e+00 -3.379684e+00 -4.785795e-01 -8.495210e-01 -1.286040e+00 -1.596695e+00
<VARIANCE> 12
 6.343959e+01 1.720811e+02 4.673811e+01 3.888107e+01 7.670361e+01 6.653744e+01 4.858524e+01 4.432731e+01 5.124117e+01 4.283522e+01 2.559086e+01 2.899593e+01
<GCONST> 6.937357e+01
<TRANSP> 5
 0.000000e+00 1.000000e+00 0.000000e+00 0.000000e+00 0.000000e+00
 0.000000e+00 6.123499e-01 3.876501e-01 0.000000e+00 0.000000e+00
 0.000000e+00 0.000000e+00 7.053455e-01 2.946545e-01 0.000000e+00
 0.000000e+00 0.000000e+00 0.000000e+00 3.924731e-01 6.075269e-01
 0.000000e+00 0.000000e+00 0.000000e+00 0.000000e+00 0.000000e+00
<ENDHMM>
