~o
<STREAMINFO> 1 12
<VECSIZE> 12<NULLD><MFCC><DIAGC>
~h "j"
<BEGINHMM>
<NUMSTATES> 5
<STATE> 2
<MEAN> 12
 -6.962923e+00 -4.939188e+00 1.264587e+01 -4.227299e-01 -1.524768e+01 -8.375930e+00 -1.118357e+01 -2.815724e+00 -3.621482e+00 -5.317042e+00 1.456506e+00 -1.683877e+00
<VARIANCE> 12
 2.473780e+01 1.051050e+02 3.179473e+01 4.100948e+01 5.116417e+01 4.703050e+01 5.984031e+01 4.216847e+01 5.613610e+01 6.347800e+01 3.104890e+01 3.025347e+01
<GCONST> 6.773376e+01
<STATE> 3
<MEAN> 12
 -5.938393e+00 -4.270370e+00 1.252388e+01 -6.191011e+00 -1.596733e+01 -9.855338e+00 -1.139487e+01 6.955522e-01 -6.113592e-01 -7.014198e+00 4.511786e+00 -3.052655e+00
<VARIANCE> 12
 1.418914e+01 9.108949e+01 4.822832e+01 2.445560e+01 3.582746e+01 6.978957e+01 4.129912e+01 3.571895e+01 4.225143e+01 9.306786e+01 4.136765e+01 3.013749e+01
<GCONST> 6.681760e+01
<STATE> 4
<MEAN> 12
 -2.541819e+00 -1.443514e+01 2.870345e+00 -7.075223e+00 -1.626494e+01 -4.325769e+00 -1.139479e+01 -3.437037e+00 4.448657e+00 -6.575996e+00 1.804242e+00 -2.520546e+00
<VARIANCE> 12
 2.118217e+01 1.523487e+02 4.134331e+01 3.708224e+01 5.813972e+01 6.530573e+01 4.140985e+01 5.755864e+01 5.639789e+01 9.542741e+01 4.072173e+01 9.494828e+01
<GCONST> 7.033805e+01
<TRANSP> 5
 0.000000e+00 1.000000e+00 0.000000e+00 0.000000e+00 0.000000e+00
 0.000000e+00 6.107383e-01 3.892618e-01 0.000000e+00 0.000000e+00
 0.000000e+00 0.000000e+00 6.723164e-01 3.276836e-01 0.000000e+00
 0.000000e+00 0.000000e+00 0.000000e+00 5.126051e-01 4.873950e-01
 0.000000e+00 0.000000e+00 0.000000e+00 0.000000e+00 0.000000e+00
<ENDHMM>
