~o
<STREAMINFO> 1 12
<VECSIZE> 12<NULLD><MFCC><DIAGC>
~h "jj"
<BEGINHMM>
<NUMSTATES> 5
<STATE> 2
<MEAN> 12
 -6.015882e-01 6.006710e+00 7.912986e+00 3.158886e+00 -8.166269e+00 -1.701783e+01 -6.936868e+00 -2.249342e+00 -1.039512e+01 -4.290439e+00 7.759473e-01 -2.201003e+00
<VARIANCE> 12
 1.162714e+01 1.485439e+01 3.058413e+01 7.628659e+00 3.193471e+01 3.574782e+01 4.068743e+01 5.549876e+01 5.442286e+01 1.678192e+01 2.738945e+01 8.248272e+00
<GCONST> 5.965826e+01
<STATE> 3
<MEAN> 12
 -1.573456e+00 5.156289e+00 1.288291e+01 -5.971783e-01 -1.380190e+01 -1.306078e+01 -8.837256e+00 -8.204274e+00 -4.113246e+00 -6.651476e+00 -1.746794e+00 -2.410265e+00
<VARIANCE> 12
 2.021386e+01 5.196330e+01 2.923658e+01 1.245752e+01 1.306469e+01 1.168598e+02 5.064876e+01 3.123843e+01 1.547506e+01 3.129646e+00 3.283395e+01 7.599972e+00
<GCONST> 5.900639e+01
<STATE> 4
<MEAN> 12
 -4.374939e+00 1.973032e+00 1.216633e+01 -1.144439e+00 -1.310000e+01 -1.177727e+01 -1.073532e+01 -5.836780e+00 -7.597452e+00 -1.849027e+00 6.595979e+00 -5.311700e+00
<VARIANCE> 12
 1.239584e+01 4.431310e+01 6.126798e+01 9.280410e+00 6.984958e+01 7.023862e+01 6.301176e+01 1.272011e+01 7.601707e+01 1.349027e+01 1.894706e+01 3.128583e+00
<GCONST> 6.090624e+01
<TRANSP> 5
 0.000000e+00 1.000000e+00 0.000000e+00 0.000000e+00 0.000000e+00
 0.000000e+00 6.923077e-01 3.076923e-01 0.000000e+00 0.000000e+00
 0.000000e+00 0.000000e+00 5.555556e-01 4.444444e-01 0.000000e+00
 0.000000e+00 0.000000e+00 0.000000e+00 5.555556e-01 4.444444e-01
 0.000000e+00 0.000000e+00 0.000000e+00 0.000000e+00 0.000000e+00
<ENDHMM>
