~o
<STREAMINFO> 1 12
<VECSIZE> 12<NULLD><MFCC><DIAGC>
~h "k"
<BEGINHMM>
<NUMSTATES> 5
<STATE> 2
<MEAN> 12
 -7.045267e+00 3.792929e-01 2.425065e+00 1.612724e+00 -5.805282e+00 -3.940704e+00 -6.859112e+00 2.296592e-01 -3.584460e+00 1.935717e+00 7.457513e-02 -9.663813e-01
<VARIANCE> 12
 2.214099e+01 8.023341e+01 4.688574e+01 2.932463e+01 5.623936e+01 4.138273e+01 3.684617e+01 4.974922e+01 4.092700e+01 4.064343e+01 2.823264e+01 2.451173e+01
<GCONST> 6.598552e+01
<STATE> 3
<MEAN> 12
 -1.479459e+01 -3.031961e+00 2.380731e+00 -4.628151e+00 -3.840032e+00 -4.140007e+00 -5.862113e+00 -2.269485e+00 -8.050431e-01 1.178059e+00 -1.118596e-02 1.345956e+00
<VARIANCE> 12
 4.870475e+01 8.446091e+01 7.704659e+01 4.771627e+01 5.907800e+01 4.998481e+01 3.263288e+01 3.573466e+01 3.958029e+01 2.957642e+01 2.824459e+01 2.018487e+01
<GCONST> 6.704944e+01
<STATE> 4
<MEAN> 12
 -4.895835e+00 -6.509271e+00 4.337760e+00 -2.948572e+00 -1.164436e+01 -7.676274e+00 -1.047480e+01 -2.211716e+00 -2.554295e+00 -3.306956e+00 3.845317e+00 -1.746408e+00
<VARIANCE> 12
 4.006159e+01 1.850342e+02 6.919263e+01 4.651048e+01 8.776648e+01 9.106419e+01 6.996704e+01 6.165576e+01 5.861112e+01 4.131097e+01 4.677173e+01 3.150796e+01
<GCONST> 7.148546e+01
<TRANSP> 5
 0.000000e+00 1.000000e+00 0.000000e+00 0.000000e+00 0.000000e+00
 0.000000e+00 6.347656e-01 3.652344e-01 0.000000e+00 0.000000e+00
 0.000000e+00 0.000000e+00 6.893688e-01 3.106312e-01 0.000000e+00
 0.000000e+00 0.000000e+00 0.000000e+00 5.013334e-01 4.986667e-01
 0.000000e+00 0.000000e+00 0.000000e+00 0.000000e+00 0.000000e+00
<ENDHMM>
