~o
<STREAMINFO> 1 12
<VECSIZE> 12<NULLD><MFCC><DIAGC>
~h "l"
<BEGINHMM>
<NUMSTATES> 5
<STATE> 2
<MEAN> 12
 4.349229e-01 -6.474563e+00 9.756315e-01 2.028204e+00 -6.356681e+00 -1.221084e+01 -1.663267e+01 -9.432479e+00 6.377009e-01 -1.260084e+00 -2.578673e+00 -6.413743e+00
<VARIANCE> 12
 2.242651e+01 1.862044e+02 6.040741e+01 5.896300e+01 2.127511e+02 7.782192e+01 8.424858e+01 6.557922e+01 4.739931e+01 6.339289e+01 4.627823e+01 7.386715e+01
<GCONST> 7.304611e+01
<STATE> 3
<MEAN> 12
 -3.933026e-01 -2.649388e+00 3.159486e+00 1.366931e+00 -6.824242e+00 -1.477440e+01 -1.516609e+01 -3.725421e+00 -5.151697e-01 1.806452e+00 -5.995545e-01 -7.306195e+00
<VARIANCE> 12
 1.246514e+01 7.910298e+01 4.604221e+01 6.306706e+01 6.589287e+01 7.809451e+01 4.432915e+01 7.237489e+01 4.842445e+01 6.738773e+01 4.497025e+01 4.874870e+01
<GCONST> 6.932457e+01
<STATE> 4
<MEAN> 12
 -3.023310e+00 -7.804653e+00 3.379312e+00 -2.741847e+00 -1.177824e+01 -7.951122e+00 -1.016837e+01 -3.755152e+00 8.735349e-01 -1.865729e+00 -4.499649e-01 -4.044063e+00
<VARIANCE> 12
 3.767950e+01 1.686683e+02 6.584086e+01 5.075267e+01 8.142255e+01 7.516996e+01 7.312322e+01 5.985302e+01 7.951412e+01 6.589490e+01 5.054625e+01 5.361972e+01
<GCONST> 7.249802e+01
<TRANSP> 5
 0.000000e+00 1.000000e+00 0.000000e+00 0.000000e+00 0.000000e+00
 0.000000e+00 3.720930e-01 6.279070e-01 0.000000e+00 0.000000e+00
 0.000000e+00 0.000000e+00 6.468023e-01 3.531977e-01 0.000000e+00
 0.000000e+00 0.000000e+00 0.000000e+00 3.638744e-01 6.361257e-01
 0.000000e+00 0.000000e+00 0.000000e+00 0.000000e+00 0.000000e+00
<ENDHMM>
