~o
<STREAMINFO> 1 12
<VECSIZE> 12<NULLD><MFCC><DIAGC>
~h "m"
<BEGINHMM>
<NUMSTATES> 5
<STATE> 2
<MEAN> 12
 -6.801661e-01 2.536648e+00 4.564297e+00 2.173996e+00 -4.629514e+00 -1.039893e+01 -5.306540e+00 -8.266308e+00 -8.673225e+00 -8.429584e-02 -8.422965e-01 -7.063303e+00
<VARIANCE> 12
 8.730818e+00 7.241867e+01 1.670267e+01 2.379105e+01 3.388534e+01 7.223975e+01 5.800297e+01 4.336965e+01 4.891726e+01 4.997945e+01 4.670568e+01 4.069299e+01
<GCONST> 6.547362e+01
<STATE> 3
<MEAN> 12
 -8.863106e-01 2.625182e+00 4.380512e+00 -4.181116e-01 -5.741026e+00 -2.117297e+00 -7.103802e+00 -8.266924e+00 -6.141026e+00 -1.564771e+00 -1.194161e+00 -3.452000e+00
<VARIANCE> 12
 9.303761e+00 7.792327e+01 2.992976e+01 3.391935e+01 4.641613e+01 4.303757e+01 5.520088e+01 4.005053e+01 3.614056e+01 4.166207e+01 5.392818e+01 4.138095e+01
<GCONST> 6.589183e+01
<STATE> 4
<MEAN> 12
 -1.340549e-01 -4.693570e+00 -1.289937e+00 -7.283737e+00 -1.053218e+01 -2.508692e+00 -6.121979e+00 -6.242515e+00 1.718979e+00 -2.732173e+00 -8.180572e-01 -4.969768e+00
<VARIANCE> 12
 1.768533e+01 1.209550e+02 4.419659e+01 5.212553e+01 5.736986e+01 5.777444e+01 8.127771e+01 5.093095e+01 5.114447e+01 5.418872e+01 4.838973e+01 5.044029e+01
<GCONST> 6.962659e+01
<TRANSP> 5
 0.000000e+00 1.000000e+00 0.000000e+00 0.000000e+00 0.000000e+00
 0.000000e+00 6.584700e-01 3.415301e-01 0.000000e+00 0.000000e+00
 0.000000e+00 0.000000e+00 6.355685e-01 3.644315e-01 0.000000e+00
 0.000000e+00 0.000000e+00 0.000000e+00 4.292237e-01 5.707763e-01
 0.000000e+00 0.000000e+00 0.000000e+00 0.000000e+00 0.000000e+00
<ENDHMM>
