~o
<STREAMINFO> 1 12
<VECSIZE> 12<NULLD><MFCC><DIAGC>
~h "n"
<BEGINHMM>
<NUMSTATES> 5
<STATE> 2
<MEAN> 12
 -2.274493e-02 1.236623e+00 4.243989e+00 -1.779912e+00 -9.551841e+00 -7.974746e+00 -6.574851e+00 -8.027649e+00 -6.300467e+00 1.845455e+00 -6.094167e+00 -7.357442e+00
<VARIANCE> 12
 1.171359e+01 1.401715e+02 2.582718e+01 1.897242e+01 6.316120e+01 4.371698e+01 6.149949e+01 3.833899e+01 6.045731e+01 6.570209e+01 6.162466e+01 5.165987e+01
<GCONST> 6.769429e+01
<STATE> 3
<MEAN> 12
 -3.177578e+00 1.583854e+00 5.509507e+00 1.091927e+00 -8.049004e+00 -1.007194e+01 -4.594684e+00 -8.512876e+00 -4.690887e+00 -5.907600e-01 -3.600556e+00 -5.525878e+00
<VARIANCE> 12
 1.940939e+01 1.264617e+02 2.710426e+01 2.805652e+01 7.053726e+01 6.093671e+01 5.708555e+01 4.942996e+01 5.104531e+01 4.339108e+01 3.084184e+01 4.210733e+01
<GCONST> 6.767728e+01
<STATE> 4
<MEAN> 12
 -1.655417e+00 -1.119965e+01 1.788686e+00 -5.976084e+00 -1.245245e+01 -3.734996e+00 -1.153120e+01 -3.747411e+00 1.472858e+00 -4.156881e+00 -9.134622e-01 -4.665044e+00
<VARIANCE> 12
 2.539291e+01 2.151653e+02 5.475016e+01 3.272264e+01 1.189225e+02 6.567972e+01 6.609051e+01 5.622100e+01 6.511424e+01 5.862009e+01 4.341818e+01 6.592445e+01
<GCONST> 7.154144e+01
<TRANSP> 5
 0.000000e+00 1.000000e+00 0.000000e+00 0.000000e+00 0.000000e+00
 0.000000e+00 5.405405e-01 4.594595e-01 0.000000e+00 0.000000e+00
 0.000000e+00 0.000000e+00 5.824561e-01 4.175439e-01 0.000000e+00
 0.000000e+00 0.000000e+00 0.000000e+00 4.439252e-01 5.560747e-01
 0.000000e+00 0.000000e+00 0.000000e+00 0.000000e+00 0.000000e+00
<ENDHMM>
