~o
<STREAMINFO> 1 12
<VECSIZE> 12<NULLD><MFCC><DIAGC>
~h "o"
<BEGINHMM>
<NUMSTATES> 5
<STATE> 2
<MEAN> 12
 1.344684e+00 -7.113420e+00 -1.386958e+00 -1.244231e+01 -1.523957e+01 8.801664e-01 -1.166682e+01 -6.112674e+00 -1.947120e+00 -5.994268e+00 6.248561e+00 -1.684005e+00
<VARIANCE> 12
 1.822437e+01 1.783626e+02 1.920037e+01 5.795307e+01 5.446975e+01 5.196279e+01 9.518446e+01 7.345936e+01 6.786008e+01 6.873085e+01 7.870891e+01 3.988208e+01
<GCONST> 7.045573e+01
<STATE> 3
<MEAN> 12
 1.904311e+00 1.168694e+00 -2.264148e-01 -8.698776e+00 -1.110173e+01 -1.254941e+00 -8.760541e+00 -1.323934e+01 -4.973115e+00 -7.466469e-01 4.498354e+00 4.035501e-01
<VARIANCE> 12
 9.451222e+00 8.152202e+01 1.767335e+01 4.422965e+01 4.167084e+01 4.581665e+01 4.892402e+01 5.526522e+01 6.627284e+01 6.951244e+01 5.724705e+01 3.951466e+01
<GCONST> 6.697919e+01
<STATE> 4
<MEAN> 12
 -3.541569e+00 -1.782015e+00 3.215550e+00 -1.485230e+00 -6.480699e+00 -5.484101e+00 -1.051530e+01 -8.246762e+00 -1.855390e+00 7.010154e-01 1.847118e+00 -2.708937e+00
<VARIANCE> 12
 3.455166e+01 1.159856e+02 3.971886e+01 5.672692e+01 9.914404e+01 6.242536e+01 7.227210e+01 5.070620e+01 6.174765e+01 6.005639e+01 4.995717e+01 5.288110e+01
<GCONST> 7.110510e+01
<TRANSP> 5
 0.000000e+00 1.000000e+00 0.000000e+00 0.000000e+00 0.000000e+00
 0.000000e+00 5.865384e-01 4.134615e-01 0.000000e+00 0.000000e+00
 0.000000e+00 0.000000e+00 6.194690e-01 3.805310e-01 0.000000e+00
 0.000000e+00 0.000000e+00 0.000000e+00 3.629630e-01 6.370370e-01
 0.000000e+00 0.000000e+00 0.000000e+00 0.000000e+00 0.000000e+00
<ENDHMM>
