~o
<STREAMINFO> 1 12
<VECSIZE> 12<NULLD><MFCC><DIAGC>
~h "o#"
<BEGINHMM>
<NUMSTATES> 5
<STATE> 2
<MEAN> 12
 4.270569e+00 -2.102260e+01 -2.672588e+00 -1.337109e+01 -2.417778e+01 8.411019e-01 -1.089300e+01 -8.067242e+00 2.184414e+00 -7.232780e+00 1.480065e+00 5.716385e-01
<VARIANCE> 12
 1.136852e+01 1.531372e+02 1.703608e+01 2.544140e+01 8.381683e+01 4.074943e+01 4.787895e+01 3.760666e+01 3.324020e+01 3.969107e+01 2.994930e+01 3.224075e+01
<GCONST> 6.527798e+01
<STATE> 3
<MEAN> 12
 1.624847e+00 2.944533e+00 -2.607374e+00 -1.264503e+01 -1.158218e+01 -2.160774e+00 -1.076976e+00 -4.121390e+00 -4.383848e+00 -5.051029e-01 -2.354659e+00 -4.754769e+00
<VARIANCE> 12
 6.938555e+00 5.727605e+01 1.947924e+01 3.369818e+01 3.759115e+01 4.155508e+01 6.389264e+01 3.621648e+01 4.402967e+01 3.331106e+01 4.670478e+01 3.735690e+01
<GCONST> 6.438192e+01
<STATE> 4
<MEAN> 12
 -2.548004e+00 9.442971e-01 1.587752e+00 -2.691943e+00 -6.154137e+00 -6.235424e+00 -9.165874e+00 -4.580391e+00 -2.818341e+00 3.049257e+00 -1.203687e+00 -4.331305e+00
<VARIANCE> 12
 1.994586e+01 9.440198e+01 2.165910e+01 3.550985e+01 5.317220e+01 4.714674e+01 8.811276e+01 4.945701e+01 4.276261e+01 5.735985e+01 4.545926e+01 3.918530e+01
<GCONST> 6.773699e+01
<TRANSP> 5
 0.000000e+00 1.000000e+00 0.000000e+00 0.000000e+00 0.000000e+00
 0.000000e+00 7.979592e-01 2.020408e-01 0.000000e+00 0.000000e+00
 0.000000e+00 0.000000e+00 8.460342e-01 1.539658e-01 0.000000e+00
 0.000000e+00 0.000000e+00 0.000000e+00 7.062315e-01 2.937686e-01
 0.000000e+00 0.000000e+00 0.000000e+00 0.000000e+00 0.000000e+00
<ENDHMM>
