~o
<STREAMINFO> 1 12
<VECSIZE> 12<NULLD><MFCC><DIAGC>
~h "oo"
<BEGINHMM>
<NUMSTATES> 5
<STATE> 2
<MEAN> 12
 4.457922e+00 -1.998104e+01 -3.489006e+00 -1.547306e+01 -2.258764e+01 6.921640e+00 -1.052068e+01 -9.030698e+00 1.819502e+00 -4.982565e+00 2.271316e-01 -3.281116e+00
<VARIANCE> 12
 1.302372e+01 1.781481e+02 1.609560e+01 2.591993e+01 7.914986e+01 3.662811e+01 4.287884e+01 3.066547e+01 4.650237e+01 5.069435e+01 4.949610e+01 3.751359e+01
<GCONST> 6.628306e+01
<STATE> 3
<MEAN> 12
 1.163896e+00 7.656981e-01 -2.264385e+00 -1.476346e+01 -1.120087e+01 1.806099e+00 -8.465766e+00 -1.464927e+01 -2.720617e+00 8.740940e-01 6.533665e+00 -1.331332e+00
<VARIANCE> 12
 1.767907e+01 6.755255e+01 2.450244e+01 5.311425e+01 4.592640e+01 5.366661e+01 6.677016e+01 4.435568e+01 6.387093e+01 4.376454e+01 4.422514e+01 5.875115e+01
<GCONST> 6.791265e+01
<STATE> 4
<MEAN> 12
 1.534960e+00 -9.890891e+00 -1.885247e+00 -1.289602e+00 -1.313659e+01 -6.037781e+00 -1.500193e+01 -9.978528e+00 -2.010587e+00 3.901966e-01 -8.214487e-01 -2.090933e+00
<VARIANCE> 12
 3.531923e+01 1.867582e+02 3.731046e+01 8.546525e+01 9.031478e+01 8.297788e+01 9.911468e+01 6.087047e+01 6.947073e+01 4.859891e+01 4.812235e+01 4.387300e+01
<GCONST> 7.232260e+01
<TRANSP> 5
 0.000000e+00 1.000000e+00 0.000000e+00 0.000000e+00 0.000000e+00
 0.000000e+00 7.354839e-01 2.645161e-01 0.000000e+00 0.000000e+00
 0.000000e+00 0.000000e+00 6.940299e-01 3.059702e-01 0.000000e+00
 0.000000e+00 0.000000e+00 0.000000e+00 5.729167e-01 4.270833e-01
 0.000000e+00 0.000000e+00 0.000000e+00 0.000000e+00 0.000000e+00
<ENDHMM>
