~o
<STREAMINFO> 1 12
<VECSIZE> 12<NULLD><MFCC><DIAGC>
~h "p"
<BEGINHMM>
<NUMSTATES> 5
<STATE> 2
<MEAN> 12
 -4.192854e+00 3.222534e+00 1.492789e+00 2.141151e+00 -5.095301e+00 -1.439893e+00 -7.172751e+00 -1.045849e+00 -2.321155e+00 1.474620e+00 -1.156021e+00 -9.196764e-01
<VARIANCE> 12
 2.309827e+01 7.640619e+01 2.326874e+01 2.969487e+01 3.802161e+01 2.435147e+01 2.938161e+01 3.475478e+01 3.026415e+01 3.058802e+01 1.850369e+01 2.094082e+01
<GCONST> 6.261811e+01
<STATE> 3
<MEAN> 12
 -8.161997e+00 -4.658519e+00 3.538123e-01 -2.969004e-01 -4.629882e+00 -5.146120e+00 -6.436801e+00 -2.157995e+00 1.011239e+00 6.548923e-01 -5.081499e-01 -7.511262e-01
<VARIANCE> 12
 3.768734e+01 7.613393e+01 2.210750e+01 3.875100e+01 6.211315e+01 4.063570e+01 2.866347e+01 3.002790e+01 3.664877e+01 3.648106e+01 2.842140e+01 2.172437e+01
<GCONST> 6.498453e+01
<STATE> 4
<MEAN> 12
 4.093329e-01 -1.715042e+01 -1.114250e+00 -7.011096e+00 -1.532602e+01 -1.695702e+00 -1.096678e+01 -5.188338e+00 6.433665e+00 -4.422198e+00 1.491600e+00 -5.515913e+00
<VARIANCE> 12
 1.777688e+01 1.844908e+02 3.809501e+01 5.972168e+01 8.894478e+01 5.001212e+01 6.156268e+01 4.604749e+01 6.461851e+01 7.546304e+01 7.346694e+01 7.084029e+01
<GCONST> 7.127922e+01
<TRANSP> 5
 0.000000e+00 1.000000e+00 0.000000e+00 0.000000e+00 0.000000e+00
 0.000000e+00 6.883803e-01 3.116197e-01 0.000000e+00 0.000000e+00
 0.000000e+00 0.000000e+00 6.135371e-01 3.864629e-01 0.000000e+00
 0.000000e+00 0.000000e+00 0.000000e+00 7.149758e-01 2.850242e-01
 0.000000e+00 0.000000e+00 0.000000e+00 0.000000e+00 0.000000e+00
<ENDHMM>
