~o
<STREAMINFO> 1 12
<VECSIZE> 12<NULLD><MFCC><DIAGC>
~h "rr"
<BEGINHMM>
<NUMSTATES> 5
<STATE> 2
<MEAN> 12
 -1.138748e+00 -1.640625e+01 -3.405422e+00 -1.109096e+01 -1.256195e+01 5.269577e+00 -9.178595e+00 -6.835134e+00 4.471315e+00 -2.384418e+00 1.352087e+00 -2.019124e+00
<VARIANCE> 12
 3.520404e+01 2.345581e+02 3.117804e+01 4.091555e+01 9.892866e+01 7.400590e+01 6.868506e+01 4.387241e+01 5.453560e+01 4.829244e+01 4.717582e+01 4.809520e+01
<GCONST> 7.073717e+01
<STATE> 3
<MEAN> 12
 -4.027130e+00 -1.027038e+00 -3.929490e+00 -1.051469e+01 -5.086548e+00 3.880894e-01 -3.583472e+00 -4.462318e+00 6.954771e-01 1.642873e+00 9.667957e-01 -1.637857e+00
<VARIANCE> 12
 4.425351e+01 9.799805e+01 2.842409e+01 4.583231e+01 7.707311e+01 4.394321e+01 5.836441e+01 4.258259e+01 4.960223e+01 4.610057e+01 4.381161e+01 4.017513e+01
<GCONST> 6.875545e+01
<STATE> 4
<MEAN> 12
 -1.935574e+00 -5.562800e+00 1.124126e-01 -6.765154e+00 -1.036589e+01 -3.970793e+00 -6.973075e+00 -4.670294e+00 1.648079e+00 -1.223136e-01 1.755807e-01 -2.793284e+00
<VARIANCE> 12
 3.455462e+01 1.728232e+02 4.405132e+01 5.797456e+01 7.794993e+01 7.984875e+01 7.566249e+01 5.404654e+01 4.971164e+01 5.346021e+01 3.706382e+01 4.631740e+01
<GCONST> 7.098036e+01
<TRANSP> 5
 0.000000e+00 1.000000e+00 0.000000e+00 0.000000e+00 0.000000e+00
 0.000000e+00 4.608150e-01 5.391849e-01 0.000000e+00 0.000000e+00
 0.000000e+00 0.000000e+00 6.881233e-01 3.118767e-01 0.000000e+00
 0.000000e+00 0.000000e+00 0.000000e+00 1.924883e-01 8.075117e-01
 0.000000e+00 0.000000e+00 0.000000e+00 0.000000e+00 0.000000e+00
<ENDHMM>
