~o
<STREAMINFO> 1 12
<VECSIZE> 12<NULLD><MFCC><DIAGC>
~h "s"
<BEGINHMM>
<NUMSTATES> 5
<STATE> 2
<MEAN> 12
 -1.281453e+01 2.179104e+00 4.374161e+00 -2.248155e+00 -4.270921e+00 -6.297322e+00 -7.779514e+00 -2.841610e+00 6.486730e-01 -1.840109e+00 -1.456267e+00 9.993707e-02
<VARIANCE> 12
 5.552673e+01 1.922788e+02 5.087443e+01 3.391742e+01 8.215940e+01 8.917090e+01 4.060226e+01 3.797732e+01 4.625311e+01 3.493218e+01 3.372699e+01 2.615245e+01
<GCONST> 6.919344e+01
<STATE> 3
<MEAN> 12
 -2.419991e+01 2.967182e+00 2.345615e-01 -2.431817e+00 -1.332116e+00 -5.578996e+00 -2.915604e+00 1.626188e+00 1.407576e+00 -5.144019e-01 -3.638269e-01 1.843804e+00
<VARIANCE> 12
 3.887724e+01 5.887325e+01 4.965049e+01 2.639172e+01 5.400085e+01 4.517386e+01 4.039080e+01 3.540639e+01 3.237091e+01 2.412670e+01 2.383404e+01 2.030528e+01
<GCONST> 6.487596e+01
<STATE> 4
<MEAN> 12
 -7.391429e+00 -6.235126e+00 4.198217e+00 -2.155088e+00 -1.003616e+01 -7.464152e+00 -9.470824e+00 -3.646323e+00 1.875302e+00 -2.891643e+00 -4.398978e-01 -2.048620e+00
<VARIANCE> 12
 4.024476e+01 2.055078e+02 6.077630e+01 3.759585e+01 8.448193e+01 1.178083e+02 4.849451e+01 3.840582e+01 5.435935e+01 5.399244e+01 3.427263e+01 4.737046e+01
<GCONST> 7.092114e+01
<TRANSP> 5
 0.000000e+00 1.000000e+00 0.000000e+00 0.000000e+00 0.000000e+00
 0.000000e+00 2.492918e-01 7.507082e-01 0.000000e+00 0.000000e+00
 0.000000e+00 0.000000e+00 8.570658e-01 1.429342e-01 0.000000e+00
 0.000000e+00 0.000000e+00 0.000000e+00 5.199276e-01 4.800725e-01
 0.000000e+00 0.000000e+00 0.000000e+00 0.000000e+00 0.000000e+00
<ENDHMM>
