~o
<STREAMINFO> 1 12
<VECSIZE> 12<NULLD><MFCC><DIAGC>
~h "sil"
<BEGINHMM>
<NUMSTATES> 5
<STATE> 2
<MEAN> 12
 -2.505942e+00 -2.646437e+01 2.164177e+00 -5.263693e+00 -2.003158e+01 2.266255e+00 -1.151387e+01 -5.499175e+00 6.574469e+00 -7.271341e+00 4.525038e-01 2.571134e+00
<VARIANCE> 12
 1.805850e+01 1.159770e+02 2.457425e+01 3.085380e+01 6.122589e+01 4.712703e+01 3.725467e+01 3.884206e+01 3.733123e+01 4.325366e+01 2.830674e+01 3.594020e+01
<GCONST> 6.588907e+01
<STATE> 3
<MEAN> 12
 -1.325956e+01 -6.033641e+00 -1.514157e+00 -1.580835e+00 -1.611767e-01 -5.425308e+00 -5.114941e+00 1.935744e+00 3.713938e+00 -1.636905e-01 -2.813197e+00 1.185228e+00
<VARIANCE> 12
 3.336086e+01 3.954333e+01 1.848700e+01 2.513403e+01 4.154853e+01 4.726314e+01 2.433564e+01 2.929585e+01 3.375440e+01 3.120184e+01 2.462028e+01 2.247830e+01
<GCONST> 6.280828e+01
<STATE> 4
<MEAN> 12
 -7.872541e+00 1.077774e+00 -1.353027e-01 1.934641e+00 -5.049030e+00 -1.811818e+00 -5.240038e+00 -7.790310e-01 -8.004122e-01 1.122953e+00 -1.738040e+00 -8.716444e-01
<VARIANCE> 12
 3.520642e+01 3.630614e+01 3.795663e+01 4.386022e+01 4.242289e+01 5.707719e+01 4.177073e+01 3.884808e+01 3.214407e+01 3.408237e+01 2.821212e+01 2.782880e+01
<GCONST> 6.547397e+01
<TRANSP> 5
 0.000000e+00 1.000000e+00 0.000000e+00 0.000000e+00 0.000000e+00
 0.000000e+00 8.591459e-01 1.408540e-01 0.000000e+00 0.000000e+00
 0.000000e+00 0.000000e+00 8.910257e-01 1.089744e-01 0.000000e+00
 0.000000e+00 0.000000e+00 0.000000e+00 9.206463e-01 7.935368e-02
 0.000000e+00 0.000000e+00 0.000000e+00 0.000000e+00 0.000000e+00
<ENDHMM>
