~o
<STREAMINFO> 1 12
<VECSIZE> 12<NULLD><MFCC><DIAGC>
~h "ss"
<BEGINHMM>
<NUMSTATES> 5
<STATE> 2
<MEAN> 12
 -2.219712e+01 -6.598248e+00 7.761119e+00 -3.063463e-01 -8.855412e+00 -1.826415e+00 -7.246927e-01 -1.334437e+00 3.881785e+00 -2.985367e+00 -1.015453e-03 2.973086e+00
<VARIANCE> 12
 8.814640e+01 9.447028e+01 2.257277e+01 3.821707e+01 2.241287e+01 2.082918e+01 2.590390e+01 2.941627e+01 2.349437e+01 2.639741e+01 2.118096e+01 2.031732e+01
<GCONST> 6.311838e+01
<STATE> 3
<MEAN> 12
 -2.032599e+01 -5.412634e+00 3.256492e+00 1.465838e+00 -1.532091e+00 -7.467750e+00 -9.472323e-01 -7.473096e+00 5.802772e+00 1.994469e+00 -1.179874e+00 1.398976e+00
<VARIANCE> 12
 6.479593e+01 4.571129e+01 3.627472e+01 1.567794e+01 6.242912e+01 4.041374e+01 3.942347e+01 3.543082e+01 5.910091e+01 3.397772e+01 2.599005e+01 1.988907e+01
<GCONST> 6.531947e+01
<STATE> 4
<MEAN> 12
 -3.780633e+00 -3.593171e+00 2.428678e+00 -2.260257e+00 -8.312520e+00 -8.203561e+00 -1.109286e+01 -8.324878e+00 2.178174e+00 1.486984e+00 5.203723e-01 -2.746898e+00
<VARIANCE> 12
 3.007446e+01 9.873002e+01 2.653373e+01 3.008164e+01 4.507808e+01 7.712668e+01 3.372921e+01 6.377219e+01 3.780453e+01 6.332064e+01 3.039181e+01 3.507618e+01
<GCONST> 6.731278e+01
<TRANSP> 5
 0.000000e+00 1.000000e+00 0.000000e+00 0.000000e+00 0.000000e+00
 0.000000e+00 8.097561e-01 1.902439e-01 0.000000e+00 0.000000e+00
 0.000000e+00 0.000000e+00 7.214286e-01 2.785714e-01 0.000000e+00
 0.000000e+00 0.000000e+00 0.000000e+00 5.894737e-01 4.105263e-01
 0.000000e+00 0.000000e+00 0.000000e+00 0.000000e+00 0.000000e+00
<ENDHMM>
