~o
<STREAMINFO> 1 12
<VECSIZE> 12<NULLD><MFCC><DIAGC>
~h "t"
<BEGINHMM>
<NUMSTATES> 5
<STATE> 2
<MEAN> 12
 -6.092312e+00 1.938073e+00 1.974172e+00 5.925453e-01 -5.468103e+00 -3.187649e+00 -6.974142e+00 -2.034234e+00 -8.379198e-01 1.131776e+00 -2.507392e+00 -1.202824e+00
<VARIANCE> 12
 3.016365e+01 9.046668e+01 2.895375e+01 3.326364e+01 4.544989e+01 3.592860e+01 3.495532e+01 4.449930e+01 4.438245e+01 2.960390e+01 2.507584e+01 2.368432e+01
<GCONST> 6.515146e+01
<STATE> 3
<MEAN> 12
 -1.623771e+01 -3.704144e+00 4.409186e-01 -4.998895e+00 -3.766788e+00 -3.863071e+00 -4.387417e+00 -4.998385e-01 1.275997e+00 1.093845e+00 -2.941369e-01 4.787098e-01
<VARIANCE> 12
 5.090463e+01 6.534068e+01 3.683978e+01 3.065384e+01 4.982088e+01 3.784880e+01 3.590696e+01 3.657604e+01 3.224482e+01 2.969171e+01 2.213431e+01 2.304995e+01
<GCONST> 6.501481e+01
<STATE> 4
<MEAN> 12
 -6.237511e+00 -5.783398e+00 2.715370e+00 -3.920835e+00 -8.706305e+00 -4.623670e+00 -1.011988e+01 -3.289202e+00 1.653224e+00 -1.957871e+00 9.214666e-01 -2.384923e+00
<VARIANCE> 12
 4.311340e+01 1.694790e+02 5.698998e+01 5.685823e+01 7.585038e+01 9.637196e+01 4.627665e+01 4.356396e+01 6.363145e+01 5.075303e+01 3.815744e+01 5.631335e+01
<GCONST> 7.129310e+01
<TRANSP> 5
 0.000000e+00 1.000000e+00 0.000000e+00 0.000000e+00 0.000000e+00
 0.000000e+00 6.101142e-01 3.898858e-01 0.000000e+00 0.000000e+00
 0.000000e+00 0.000000e+00 7.290249e-01 2.709751e-01 0.000000e+00
 0.000000e+00 0.000000e+00 0.000000e+00 5.276680e-01 4.723320e-01
 0.000000e+00 0.000000e+00 0.000000e+00 0.000000e+00 0.000000e+00
<ENDHMM>
