~o
<STREAMINFO> 1 12
<VECSIZE> 12<NULLD><MFCC><DIAGC>
~h "u"
<BEGINHMM>
<NUMSTATES> 5
<STATE> 2
<MEAN> 12
 8.443943e-01 1.586781e+00 9.399036e-01 -4.350746e+00 -6.131104e+00 -2.625368e+00 -9.743390e+00 -1.171429e+01 -6.241295e+00 -8.790056e-01 1.981100e+00 6.971903e-01
<VARIANCE> 12
 1.877984e+01 1.036849e+02 1.682344e+01 5.532500e+01 7.590360e+01 4.244813e+01 3.680013e+01 4.328408e+01 4.813008e+01 4.688804e+01 3.268026e+01 2.954327e+01
<GCONST> 6.650999e+01
<STATE> 3
<MEAN> 12
 1.918056e+00 -6.843904e+00 -2.371623e-01 -9.686331e+00 -1.735842e+01 7.431690e-01 -1.021894e+01 -1.196641e+01 -2.923076e+00 -8.094236e+00 1.295222e+00 4.438679e-01
<VARIANCE> 12
 1.307165e+01 2.243288e+02 2.805773e+01 6.498220e+01 8.438613e+01 6.059900e+01 7.204955e+01 5.030503e+01 5.569114e+01 7.803276e+01 4.411453e+01 3.081248e+01
<GCONST> 6.987326e+01
<STATE> 4
<MEAN> 12
 -1.440368e+00 4.978464e+00 1.947690e+00 -4.867374e+00 -8.756414e+00 -4.375052e+00 -8.121940e+00 -5.919529e+00 -1.868288e+00 -1.779936e+00 -2.567521e+00 -3.270255e+00
<VARIANCE> 12
 3.643045e+01 1.033089e+02 2.962920e+01 7.230099e+01 6.264892e+01 4.860923e+01 6.677904e+01 4.665878e+01 3.854004e+01 5.179945e+01 3.596494e+01 3.062136e+01
<GCONST> 6.862618e+01
<TRANSP> 5
 0.000000e+00 1.000000e+00 0.000000e+00 0.000000e+00 0.000000e+00
 0.000000e+00 5.097276e-01 4.902724e-01 0.000000e+00 0.000000e+00
 0.000000e+00 0.000000e+00 6.842105e-01 3.157895e-01 0.000000e+00
 0.000000e+00 0.000000e+00 0.000000e+00 6.538461e-01 3.461539e-01
 0.000000e+00 0.000000e+00 0.000000e+00 0.000000e+00 0.000000e+00
<ENDHMM>
