~o
<STREAMINFO> 1 12
<VECSIZE> 12<NULLD><MFCC><DIAGC>
~h "v"
<BEGINHMM>
<NUMSTATES> 5
<STATE> 2
<MEAN> 12
 -2.198875e+00 -3.414417e+00 1.441448e+00 -2.314317e+00 -8.382866e+00 -4.996598e+00 -9.966355e+00 -7.650149e+00 -8.108306e-01 -1.046119e-01 1.889939e+00 -2.053677e+00
<VARIANCE> 12
 2.556838e+01 1.906688e+02 2.930140e+01 4.092549e+01 7.193627e+01 4.979185e+01 4.052149e+01 3.839004e+01 3.743330e+01 5.077591e+01 2.991000e+01 3.477430e+01
<GCONST> 6.766612e+01
<STATE> 3
<MEAN> 12
 -2.689190e+00 1.989493e+00 1.167872e+00 -6.974708e-01 -6.127698e+00 -5.502135e+00 -8.860326e+00 -7.195130e+00 -3.219951e+00 1.601814e-01 2.884906e+00 -1.890126e+00
<VARIANCE> 12
 2.884486e+01 7.866938e+01 2.660627e+01 4.227670e+01 3.325496e+01 4.688669e+01 3.384687e+01 3.465455e+01 3.196077e+01 3.681393e+01 4.785210e+01 3.076613e+01
<GCONST> 6.559122e+01
<STATE> 4
<MEAN> 12
 -1.089593e+00 -7.641518e+00 1.776900e+00 -5.185386e+00 -1.316125e+01 -4.094855e+00 -9.918470e+00 -6.439560e+00 4.786320e-01 -3.614865e+00 9.969053e-01 -2.533086e+00
<VARIANCE> 12
 2.744230e+01 2.290780e+02 4.257259e+01 4.400190e+01 8.514696e+01 6.596402e+01 7.043323e+01 5.022504e+01 4.981525e+01 6.652413e+01 4.155226e+01 4.961802e+01
<GCONST> 7.087798e+01
<TRANSP> 5
 0.000000e+00 1.000000e+00 0.000000e+00 0.000000e+00 0.000000e+00
 0.000000e+00 0.000000e+00 1.000000e+00 0.000000e+00 0.000000e+00
 0.000000e+00 0.000000e+00 7.323009e-01 2.676991e-01 0.000000e+00
 0.000000e+00 0.000000e+00 0.000000e+00 2.710843e-01 7.289157e-01
 0.000000e+00 0.000000e+00 0.000000e+00 0.000000e+00 0.000000e+00
<ENDHMM>
