~o
<STREAMINFO> 1 12
<VECSIZE> 12<NULLD><MFCC><DIAGC>
~h "w"
<BEGINHMM>
<NUMSTATES> 5
<STATE> 2
<MEAN> 12
 1.570817e+00 -2.265024e+01 -2.695080e+00 -1.100000e+01 -2.022425e+01 2.871325e+00 -9.937696e+00 -6.529739e+00 4.249347e+00 -5.218236e+00 2.252771e+00 4.837215e-01
<VARIANCE> 12
 2.345077e+01 1.955935e+02 1.832871e+01 4.247057e+01 6.561838e+01 3.660917e+01 3.653372e+01 3.944464e+01 5.509997e+01 3.057975e+01 3.072734e+01 1.782573e+01
<GCONST> 6.593532e+01
<STATE> 3
<MEAN> 12
 3.570812e+00 -2.688471e-02 -4.827741e+00 -1.449434e+01 -9.782710e+00 -2.341070e-01 -5.787587e+00 -4.100294e+00 -2.791085e+00 7.837018e-01 5.343327e+00 -3.692351e+00
<VARIANCE> 12
 8.560616e+00 8.488966e+01 2.413641e+01 5.726710e+01 3.586763e+01 4.127795e+01 3.861521e+01 3.931371e+01 4.257492e+01 6.162643e+01 7.570433e+01 4.332919e+01
<GCONST> 6.646790e+01
<STATE> 4
<MEAN> 12
 2.663323e+00 -2.485127e+01 -6.006678e+00 -1.042801e+01 -1.379575e+01 6.570776e+00 -6.246912e+00 -4.944778e+00 5.037996e+00 -3.212269e+00 -1.592382e+00 -7.187660e+00
<VARIANCE> 12
 7.468863e+00 1.717915e+02 2.630463e+01 2.885789e+01 3.014527e+01 5.455742e+01 4.450713e+01 4.589628e+01 4.345829e+01 4.357125e+01 7.179885e+01 2.972806e+01
<GCONST> 6.608316e+01
<TRANSP> 5
 0.000000e+00 1.000000e+00 0.000000e+00 0.000000e+00 0.000000e+00
 0.000000e+00 7.638191e-01 2.361809e-01 0.000000e+00 0.000000e+00
 0.000000e+00 0.000000e+00 7.729469e-01 2.270531e-01 0.000000e+00
 0.000000e+00 0.000000e+00 0.000000e+00 7.098765e-01 2.901235e-01
 0.000000e+00 0.000000e+00 0.000000e+00 0.000000e+00 0.000000e+00
<ENDHMM>
