~o
<STREAMINFO> 1 12
<VECSIZE> 12<NULLD><MFCC><DIAGC>
~h "y"
<BEGINHMM>
<NUMSTATES> 5
<STATE> 2
<MEAN> 12
 -4.937670e+00 -8.985672e+00 1.031761e+01 3.144614e+00 -1.594216e+01 -8.495908e+00 -1.158688e+01 -4.635195e+00 -1.828560e+00 -8.013426e+00 -2.432455e-01 4.914481e-01
<VARIANCE> 12
 4.607932e+01 1.917128e+02 3.839062e+01 4.694032e+01 8.421564e+01 4.048555e+01 5.178191e+01 4.424212e+01 4.163076e+01 5.999568e+01 3.776007e+01 3.408459e+01
<GCONST> 6.949183e+01
<STATE> 3
<MEAN> 12
 -2.959542e+00 -1.178927e+00 1.310796e+01 4.051608e+00 -1.260746e+01 -1.258911e+01 -1.290701e+01 -1.297997e+00 -3.769305e+00 -7.307162e+00 8.015007e-03 -1.315593e+00
<VARIANCE> 12
 1.814999e+01 6.633092e+01 3.400579e+01 3.942326e+01 4.009262e+01 4.517668e+01 4.001432e+01 3.557261e+01 3.686381e+01 3.593198e+01 2.477671e+01 2.397806e+01
<GCONST> 6.468723e+01
<STATE> 4
<MEAN> 12
 -4.127411e+00 1.214229e+00 6.420924e+00 -2.752882e-01 -1.018576e+01 -6.962998e+00 -6.062186e+00 -9.648495e+00 -1.554382e+00 3.695065e-01 8.585498e-01 -2.890366e+00
<VARIANCE> 12
 6.384365e+01 8.680164e+01 4.938363e+01 8.503162e+01 5.549373e+01 5.804949e+01 8.522957e+01 3.548380e+01 3.088798e+01 5.300614e+01 4.181441e+01 2.607535e+01
<GCONST> 6.950423e+01
<TRANSP> 5
 0.000000e+00 1.000000e+00 0.000000e+00 0.000000e+00 0.000000e+00
 0.000000e+00 2.605042e-01 7.394958e-01 0.000000e+00 0.000000e+00
 0.000000e+00 0.000000e+00 7.292308e-01 2.707692e-01 0.000000e+00
 0.000000e+00 0.000000e+00 0.000000e+00 6.465864e-01 3.534137e-01
 0.000000e+00 0.000000e+00 0.000000e+00 0.000000e+00 0.000000e+00
<ENDHMM>
