~o
<STREAMINFO> 1 12
<VECSIZE> 12<NULLD><MFCC><DIAGC>
~h "z"
<BEGINHMM>
<NUMSTATES> 5
<STATE> 2
<MEAN> 12
 -6.824135e+00 3.568891e+00 5.897559e+00 -1.716815e+00 -5.060194e+00 -1.112319e+01 -1.423341e+01 -7.460502e+00 1.957265e+00 3.878241e-01 -1.733529e+00 -2.077536e+00
<VARIANCE> 12
 3.268251e+01 1.590038e+02 4.284081e+01 2.863406e+01 8.525234e+01 5.518348e+01 4.690582e+01 4.316793e+01 5.670512e+01 3.365269e+01 5.728875e+01 3.610428e+01
<GCONST> 6.898037e+01
<STATE> 3
<MEAN> 12
 -1.483462e+01 7.701469e+00 7.320197e+00 6.704215e-01 -1.654764e+00 -1.100906e+01 -6.600727e+00 -1.903674e+00 -8.266621e-01 -2.049608e+00 -1.857167e+00 1.869732e+00
<VARIANCE> 12
 3.653335e+01 7.634993e+01 2.804801e+01 2.131458e+01 4.944500e+01 6.278018e+01 3.593440e+01 3.607468e+01 3.807071e+01 2.554792e+01 2.508717e+01 1.981357e+01
<GCONST> 6.467790e+01
<STATE> 4
<MEAN> 12
 -5.501770e+00 -2.689750e+00 2.629048e+00 -2.101354e+00 -9.124338e+00 -1.096524e+01 -1.101604e+01 -5.257266e+00 1.753652e+00 -1.293715e+00 -1.252668e+00 -2.166243e+00
<VARIANCE> 12
 4.294588e+01 1.378924e+02 5.139851e+01 2.708571e+01 7.376759e+01 7.135097e+01 4.820570e+01 3.782489e+01 5.852948e+01 5.058513e+01 4.428385e+01 4.067249e+01
<GCONST> 6.954589e+01
<TRANSP> 5
 0.000000e+00 1.000000e+00 0.000000e+00 0.000000e+00 0.000000e+00
 0.000000e+00 4.830509e-01 5.169492e-01 0.000000e+00 0.000000e+00
 0.000000e+00 0.000000e+00 8.000000e-01 2.000000e-01 0.000000e+00
 0.000000e+00 0.000000e+00 0.000000e+00 4.403670e-01 5.596330e-01
 0.000000e+00 0.000000e+00 0.000000e+00 0.000000e+00 0.000000e+00
<ENDHMM>
