~o
<STREAMINFO> 1 12
<VECSIZE> 12<NULLD><MFCC><DIAGC>
~h "zz"
<BEGINHMM>
<NUMSTATES> 5
<STATE> 2
<MEAN> 12
 -1.529931e+01 7.799271e-01 1.099964e+01 1.819487e+00 -7.711268e+00 -8.656918e+00 -4.235821e+00 -6.732211e+00 4.124011e+00 -3.371462e+00 -2.383976e+00 7.656127e-01
<VARIANCE> 12
 5.701621e+01 5.574385e+01 3.597511e+01 3.231828e+01 7.061481e+01 5.117349e+01 4.694780e+01 4.383961e+01 4.054594e+01 3.081358e+01 1.995714e+01 2.095497e+01
<GCONST> 6.616547e+01
<STATE> 3
<MEAN> 12
 -2.155157e+00 -1.228574e-02 6.490285e+00 -7.038728e+00 -5.614581e+00 -3.897080e+00 -9.629086e+00 -9.779687e+00 -3.301732e+00 -3.366926e-01 -2.522743e+00 2.252428e+00
<VARIANCE> 12
 5.558324e+01 1.128315e+02 2.185786e+01 1.000773e+02 1.224224e+02 6.706710e+01 2.664952e+01 4.051410e+01 4.297879e+01 5.065425e+01 5.431295e+01 2.954170e+01
<GCONST> 6.955269e+01
<STATE> 4
<MEAN> 12
 -2.522873e+00 -2.507986e+01 1.025329e+01 -7.059366e+00 -2.300503e+01 3.727831e+00 -1.533014e+01 -1.023063e+01 1.898869e+00 -1.094997e+01 1.713804e+00 2.647740e+00
<VARIANCE> 12
 2.058487e+01 1.015838e+02 3.990318e+01 3.923581e+01 5.347787e+01 6.018630e+01 4.056110e+01 4.464037e+01 4.024017e+01 4.390878e+01 2.152853e+01 2.292686e+01
<GCONST> 6.631284e+01
<TRANSP> 5
 0.000000e+00 1.000000e+00 0.000000e+00 0.000000e+00 0.000000e+00
 0.000000e+00 8.029851e-01 1.970149e-01 0.000000e+00 0.000000e+00
 0.000000e+00 0.000000e+00 5.875000e-01 4.125000e-01 0.000000e+00
 0.000000e+00 0.000000e+00 0.000000e+00 8.450704e-01 1.549296e-01
 0.000000e+00 0.000000e+00 0.000000e+00 0.000000e+00 0.000000e+00
<ENDHMM>
